FANN_FLO_2.1
num_layers=4
learning_rate=0.700000
connection_rate=1.000000
network_type=0
learning_momentum=0.000000
training_algorithm=2
train_error_function=1
train_stop_function=0
cascade_output_change_fraction=0.010000
quickprop_decay=-0.000100
quickprop_mu=1.750000
rprop_increase_factor=1.200000
rprop_decrease_factor=0.500000
rprop_delta_min=0.000000
rprop_delta_max=50.000000
rprop_delta_zero=0.100000
cascade_output_stagnation_epochs=12
cascade_candidate_change_fraction=0.010000
cascade_candidate_stagnation_epochs=12
cascade_max_out_epochs=150
cascade_max_cand_epochs=150
cascade_num_candidate_groups=2
bit_fail_limit=3.49999994039535522461e-01
cascade_candidate_limit=1.00000000000000000000e+03
cascade_weight_multiplier=4.00000005960464477539e-01
cascade_activation_functions_count=10
cascade_activation_functions=3 5 7 8 10 11 14 15 16 17 
cascade_activation_steepnesses_count=4
cascade_activation_steepnesses=2.50000000000000000000e-01 5.00000000000000000000e-01 7.50000000000000000000e-01 1.00000000000000000000e+00 
layer_sizes=736 51 51 2 
scale_included=0
neurons (num_inputs, activation_function, activation_steepness)=(0, 0, 0.00000000000000000000e+00) (0, 0, 0.00000000000000000000e+00) (0, 0, 0.00000000000000000000e+00) (0, 0, 0.00000000000000000000e+00) (0, 0, 0.00000000000000000000e+00) (0, 0, 0.00000000000000000000e+00) (0, 0, 0.00000000000000000000e+00) (0, 0, 0.00000000000000000000e+00) (0, 0, 0.00000000000000000000e+00) (0, 0, 0.00000000000000000000e+00) (0, 0, 0.00000000000000000000e+00) (0, 0, 0.00000000000000000000e+00) (0, 0, 0.00000000000000000000e+00) (0, 0, 0.00000000000000000000e+00) (0, 0, 0.00000000000000000000e+00) (0, 0, 0.00000000000000000000e+00) (0, 0, 0.00000000000000000000e+00) (0, 0, 0.00000000000000000000e+00) (0, 0, 0.00000000000000000000e+00) (0, 0, 0.00000000000000000000e+00) (0, 0, 0.00000000000000000000e+00) (0, 0, 0.00000000000000000000e+00) (0, 0, 0.00000000000000000000e+00) (0, 0, 0.00000000000000000000e+00) (0, 0, 0.00000000000000000000e+00) (0, 0, 0.00000000000000000000e+00) (0, 0, 0.00000000000000000000e+00) (0, 0, 0.00000000000000000000e+00) (0, 0, 0.00000000000000000000e+00) (0, 0, 0.00000000000000000000e+00) (0, 0, 0.00000000000000000000e+00) (0, 0, 0.00000000000000000000e+00) (0, 0, 0.00000000000000000000e+00) (0, 0, 0.00000000000000000000e+00) (0, 0, 0.00000000000000000000e+00) (0, 0, 0.00000000000000000000e+00) (0, 0, 0.00000000000000000000e+00) (0, 0, 0.00000000000000000000e+00) (0, 0, 0.00000000000000000000e+00) (0, 0, 0.00000000000000000000e+00) (0, 0, 0.00000000000000000000e+00) (0, 0, 0.00000000000000000000e+00) (0, 0, 0.00000000000000000000e+00) (0, 0, 0.00000000000000000000e+00) (0, 0, 0.00000000000000000000e+00) (0, 0, 0.00000000000000000000e+00) (0, 0, 0.00000000000000000000e+00) (0, 0, 0.00000000000000000000e+00) (0, 0, 0.00000000000000000000e+00) (0, 0, 0.00000000000000000000e+00) (0, 0, 0.00000000000000000000e+00) (0, 0, 0.00000000000000000000e+00) (0, 0, 0.00000000000000000000e+00) (0, 0, 0.00000000000000000000e+00) (0, 0, 0.00000000000000000000e+00) (0, 0, 0.00000000000000000000e+00) (0, 0, 0.00000000000000000000e+00) (0, 0, 0.00000000000000000000e+00) (0, 0, 0.00000000000000000000e+00) (0, 0, 0.00000000000000000000e+00) (0, 0, 0.00000000000000000000e+00) (0, 0, 0.00000000000000000000e+00) (0, 0, 0.00000000000000000000e+00) (0, 0, 0.00000000000000000000e+00) (0, 0, 0.00000000000000000000e+00) (0, 0, 0.00000000000000000000e+00) (0, 0, 0.00000000000000000000e+00) (0, 0, 0.00000000000000000000e+00) (0, 0, 0.00000000000000000000e+00) (0, 0, 0.00000000000000000000e+00) (0, 0, 0.00000000000000000000e+00) (0, 0, 0.00000000000000000000e+00) (0, 0, 0.00000000000000000000e+00) (0, 0, 0.00000000000000000000e+00) (0, 0, 0.00000000000000000000e+00) (0, 0, 0.00000000000000000000e+00) (0, 0, 0.00000000000000000000e+00) (0, 0, 0.00000000000000000000e+00) (0, 0, 0.00000000000000000000e+00) (0, 0, 0.00000000000000000000e+00) (0, 0, 0.00000000000000000000e+00) (0, 0, 0.00000000000000000000e+00) (0, 0, 0.00000000000000000000e+00) (0, 0, 0.00000000000000000000e+00) (0, 0, 0.00000000000000000000e+00) (0, 0, 0.00000000000000000000e+00) (0, 0, 0.00000000000000000000e+00) (0, 0, 0.00000000000000000000e+00) (0, 0, 0.00000000000000000000e+00) (0, 0, 0.00000000000000000000e+00) (0, 0, 0.00000000000000000000e+00) (0, 0, 0.00000000000000000000e+00) (0, 0, 0.00000000000000000000e+00) (0, 0, 0.00000000000000000000e+00) (0, 0, 0.00000000000000000000e+00) (0, 0, 0.00000000000000000000e+00) (0, 0, 0.00000000000000000000e+00) (0, 0, 0.00000000000000000000e+00) (0, 0, 0.00000000000000000000e+00) (0, 0, 0.00000000000000000000e+00) (0, 0, 0.00000000000000000000e+00) (0, 0, 0.00000000000000000000e+00) (0, 0, 0.00000000000000000000e+00) (0, 0, 0.00000000000000000000e+00) (0, 0, 0.00000000000000000000e+00) (0, 0, 0.00000000000000000000e+00) (0, 0, 0.00000000000000000000e+00) (0, 0, 0.00000000000000000000e+00) (0, 0, 0.00000000000000000000e+00) (0, 0, 0.00000000000000000000e+00) (0, 0, 0.00000000000000000000e+00) (0, 0, 0.00000000000000000000e+00) (0, 0, 0.00000000000000000000e+00) (0, 0, 0.00000000000000000000e+00) (0, 0, 0.00000000000000000000e+00) (0, 0, 0.00000000000000000000e+00) (0, 0, 0.00000000000000000000e+00) (0, 0, 0.00000000000000000000e+00) (0, 0, 0.00000000000000000000e+00) (0, 0, 0.00000000000000000000e+00) (0, 0, 0.00000000000000000000e+00) (0, 0, 0.00000000000000000000e+00) (0, 0, 0.00000000000000000000e+00) (0, 0, 0.00000000000000000000e+00) (0, 0, 0.00000000000000000000e+00) (0, 0, 0.00000000000000000000e+00) (0, 0, 0.00000000000000000000e+00) (0, 0, 0.00000000000000000000e+00) (0, 0, 0.00000000000000000000e+00) (0, 0, 0.00000000000000000000e+00) (0, 0, 0.00000000000000000000e+00) (0, 0, 0.00000000000000000000e+00) (0, 0, 0.00000000000000000000e+00) (0, 0, 0.00000000000000000000e+00) (0, 0, 0.00000000000000000000e+00) (0, 0, 0.00000000000000000000e+00) (0, 0, 0.00000000000000000000e+00) (0, 0, 0.00000000000000000000e+00) (0, 0, 0.00000000000000000000e+00) (0, 0, 0.00000000000000000000e+00) (0, 0, 0.00000000000000000000e+00) (0, 0, 0.00000000000000000000e+00) (0, 0, 0.00000000000000000000e+00) (0, 0, 0.00000000000000000000e+00) (0, 0, 0.00000000000000000000e+00) (0, 0, 0.00000000000000000000e+00) (0, 0, 0.00000000000000000000e+00) (0, 0, 0.00000000000000000000e+00) (0, 0, 0.00000000000000000000e+00) (0, 0, 0.00000000000000000000e+00) (0, 0, 0.00000000000000000000e+00) (0, 0, 0.00000000000000000000e+00) (0, 0, 0.00000000000000000000e+00) (0, 0, 0.00000000000000000000e+00) (0, 0, 0.00000000000000000000e+00) (0, 0, 0.00000000000000000000e+00) (0, 0, 0.00000000000000000000e+00) (0, 0, 0.00000000000000000000e+00) (0, 0, 0.00000000000000000000e+00) (0, 0, 0.00000000000000000000e+00) (0, 0, 0.00000000000000000000e+00) (0, 0, 0.00000000000000000000e+00) (0, 0, 0.00000000000000000000e+00) (0, 0, 0.00000000000000000000e+00) (0, 0, 0.00000000000000000000e+00) (0, 0, 0.00000000000000000000e+00) (0, 0, 0.00000000000000000000e+00) (0, 0, 0.00000000000000000000e+00) (0, 0, 0.00000000000000000000e+00) (0, 0, 0.00000000000000000000e+00) (0, 0, 0.00000000000000000000e+00) (0, 0, 0.00000000000000000000e+00) (0, 0, 0.00000000000000000000e+00) (0, 0, 0.00000000000000000000e+00) (0, 0, 0.00000000000000000000e+00) (0, 0, 0.00000000000000000000e+00) (0, 0, 0.00000000000000000000e+00) (0, 0, 0.00000000000000000000e+00) (0, 0, 0.00000000000000000000e+00) (0, 0, 0.00000000000000000000e+00) (0, 0, 0.00000000000000000000e+00) (0, 0, 0.00000000000000000000e+00) (0, 0, 0.00000000000000000000e+00) (0, 0, 0.00000000000000000000e+00) (0, 0, 0.00000000000000000000e+00) (0, 0, 0.00000000000000000000e+00) (0, 0, 0.00000000000000000000e+00) (0, 0, 0.00000000000000000000e+00) (0, 0, 0.00000000000000000000e+00) (0, 0, 0.00000000000000000000e+00) (0, 0, 0.00000000000000000000e+00) (0, 0, 0.00000000000000000000e+00) (0, 0, 0.00000000000000000000e+00) (0, 0, 0.00000000000000000000e+00) (0, 0, 0.00000000000000000000e+00) (0, 0, 0.00000000000000000000e+00) (0, 0, 0.00000000000000000000e+00) (0, 0, 0.00000000000000000000e+00) (0, 0, 0.00000000000000000000e+00) (0, 0, 0.00000000000000000000e+00) (0, 0, 0.00000000000000000000e+00) (0, 0, 0.00000000000000000000e+00) (0, 0, 0.00000000000000000000e+00) (0, 0, 0.00000000000000000000e+00) (0, 0, 0.00000000000000000000e+00) (0, 0, 0.00000000000000000000e+00) (0, 0, 0.00000000000000000000e+00) (0, 0, 0.00000000000000000000e+00) (0, 0, 0.00000000000000000000e+00) (0, 0, 0.00000000000000000000e+00) (0, 0, 0.00000000000000000000e+00) (0, 0, 0.00000000000000000000e+00) (0, 0, 0.00000000000000000000e+00) (0, 0, 0.00000000000000000000e+00) (0, 0, 0.00000000000000000000e+00) (0, 0, 0.00000000000000000000e+00) (0, 0, 0.00000000000000000000e+00) (0, 0, 0.00000000000000000000e+00) (0, 0, 0.00000000000000000000e+00) (0, 0, 0.00000000000000000000e+00) (0, 0, 0.00000000000000000000e+00) (0, 0, 0.00000000000000000000e+00) (0, 0, 0.00000000000000000000e+00) (0, 0, 0.00000000000000000000e+00) (0, 0, 0.00000000000000000000e+00) (0, 0, 0.00000000000000000000e+00) (0, 0, 0.00000000000000000000e+00) (0, 0, 0.00000000000000000000e+00) (0, 0, 0.00000000000000000000e+00) (0, 0, 0.00000000000000000000e+00) (0, 0, 0.00000000000000000000e+00) (0, 0, 0.00000000000000000000e+00) (0, 0, 0.00000000000000000000e+00) (0, 0, 0.00000000000000000000e+00) (0, 0, 0.00000000000000000000e+00) (0, 0, 0.00000000000000000000e+00) (0, 0, 0.00000000000000000000e+00) (0, 0, 0.00000000000000000000e+00) (0, 0, 0.00000000000000000000e+00) (0, 0, 0.00000000000000000000e+00) (0, 0, 0.00000000000000000000e+00) (0, 0, 0.00000000000000000000e+00) (0, 0, 0.00000000000000000000e+00) (0, 0, 0.00000000000000000000e+00) (0, 0, 0.00000000000000000000e+00) (0, 0, 0.00000000000000000000e+00) (0, 0, 0.00000000000000000000e+00) (0, 0, 0.00000000000000000000e+00) (0, 0, 0.00000000000000000000e+00) (0, 0, 0.00000000000000000000e+00) (0, 0, 0.00000000000000000000e+00) (0, 0, 0.00000000000000000000e+00) (0, 0, 0.00000000000000000000e+00) (0, 0, 0.00000000000000000000e+00) (0, 0, 0.00000000000000000000e+00) (0, 0, 0.00000000000000000000e+00) (0, 0, 0.00000000000000000000e+00) (0, 0, 0.00000000000000000000e+00) (0, 0, 0.00000000000000000000e+00) (0, 0, 0.00000000000000000000e+00) (0, 0, 0.00000000000000000000e+00) (0, 0, 0.00000000000000000000e+00) (0, 0, 0.00000000000000000000e+00) (0, 0, 0.00000000000000000000e+00) (0, 0, 0.00000000000000000000e+00) (0, 0, 0.00000000000000000000e+00) (0, 0, 0.00000000000000000000e+00) (0, 0, 0.00000000000000000000e+00) (0, 0, 0.00000000000000000000e+00) (0, 0, 0.00000000000000000000e+00) (0, 0, 0.00000000000000000000e+00) (0, 0, 0.00000000000000000000e+00) (0, 0, 0.00000000000000000000e+00) (0, 0, 0.00000000000000000000e+00) (0, 0, 0.00000000000000000000e+00) (0, 0, 0.00000000000000000000e+00) (0, 0, 0.00000000000000000000e+00) (0, 0, 0.00000000000000000000e+00) (0, 0, 0.00000000000000000000e+00) (0, 0, 0.00000000000000000000e+00) (0, 0, 0.00000000000000000000e+00) (0, 0, 0.00000000000000000000e+00) (0, 0, 0.00000000000000000000e+00) (0, 0, 0.00000000000000000000e+00) (0, 0, 0.00000000000000000000e+00) (0, 0, 0.00000000000000000000e+00) (0, 0, 0.00000000000000000000e+00) (0, 0, 0.00000000000000000000e+00) (0, 0, 0.00000000000000000000e+00) (0, 0, 0.00000000000000000000e+00) (0, 0, 0.00000000000000000000e+00) (0, 0, 0.00000000000000000000e+00) (0, 0, 0.00000000000000000000e+00) (0, 0, 0.00000000000000000000e+00) (0, 0, 0.00000000000000000000e+00) (0, 0, 0.00000000000000000000e+00) (0, 0, 0.00000000000000000000e+00) (0, 0, 0.00000000000000000000e+00) (0, 0, 0.00000000000000000000e+00) (0, 0, 0.00000000000000000000e+00) (0, 0, 0.00000000000000000000e+00) (0, 0, 0.00000000000000000000e+00) (0, 0, 0.00000000000000000000e+00) (0, 0, 0.00000000000000000000e+00) (0, 0, 0.00000000000000000000e+00) (0, 0, 0.00000000000000000000e+00) (0, 0, 0.00000000000000000000e+00) (0, 0, 0.00000000000000000000e+00) (0, 0, 0.00000000000000000000e+00) (0, 0, 0.00000000000000000000e+00) (0, 0, 0.00000000000000000000e+00) (0, 0, 0.00000000000000000000e+00) (0, 0, 0.00000000000000000000e+00) (0, 0, 0.00000000000000000000e+00) (0, 0, 0.00000000000000000000e+00) (0, 0, 0.00000000000000000000e+00) (0, 0, 0.00000000000000000000e+00) (0, 0, 0.00000000000000000000e+00) (0, 0, 0.00000000000000000000e+00) (0, 0, 0.00000000000000000000e+00) (0, 0, 0.00000000000000000000e+00) (0, 0, 0.00000000000000000000e+00) (0, 0, 0.00000000000000000000e+00) (0, 0, 0.00000000000000000000e+00) (0, 0, 0.00000000000000000000e+00) (0, 0, 0.00000000000000000000e+00) (0, 0, 0.00000000000000000000e+00) (0, 0, 0.00000000000000000000e+00) (0, 0, 0.00000000000000000000e+00) (0, 0, 0.00000000000000000000e+00) (0, 0, 0.00000000000000000000e+00) (0, 0, 0.00000000000000000000e+00) (0, 0, 0.00000000000000000000e+00) (0, 0, 0.00000000000000000000e+00) (0, 0, 0.00000000000000000000e+00) (0, 0, 0.00000000000000000000e+00) (0, 0, 0.00000000000000000000e+00) (0, 0, 0.00000000000000000000e+00) (0, 0, 0.00000000000000000000e+00) (0, 0, 0.00000000000000000000e+00) (0, 0, 0.00000000000000000000e+00) (0, 0, 0.00000000000000000000e+00) (0, 0, 0.00000000000000000000e+00) (0, 0, 0.00000000000000000000e+00) (0, 0, 0.00000000000000000000e+00) (0, 0, 0.00000000000000000000e+00) (0, 0, 0.00000000000000000000e+00) (0, 0, 0.00000000000000000000e+00) (0, 0, 0.00000000000000000000e+00) (0, 0, 0.00000000000000000000e+00) (0, 0, 0.00000000000000000000e+00) (0, 0, 0.00000000000000000000e+00) (0, 0, 0.00000000000000000000e+00) (0, 0, 0.00000000000000000000e+00) (0, 0, 0.00000000000000000000e+00) (0, 0, 0.00000000000000000000e+00) (0, 0, 0.00000000000000000000e+00) (0, 0, 0.00000000000000000000e+00) (0, 0, 0.00000000000000000000e+00) (0, 0, 0.00000000000000000000e+00) (0, 0, 0.00000000000000000000e+00) (0, 0, 0.00000000000000000000e+00) (0, 0, 0.00000000000000000000e+00) (0, 0, 0.00000000000000000000e+00) (0, 0, 0.00000000000000000000e+00) (0, 0, 0.00000000000000000000e+00) (0, 0, 0.00000000000000000000e+00) (0, 0, 0.00000000000000000000e+00) (0, 0, 0.00000000000000000000e+00) (0, 0, 0.00000000000000000000e+00) (0, 0, 0.00000000000000000000e+00) (0, 0, 0.00000000000000000000e+00) (0, 0, 0.00000000000000000000e+00) (0, 0, 0.00000000000000000000e+00) (0, 0, 0.00000000000000000000e+00) (0, 0, 0.00000000000000000000e+00) (0, 0, 0.00000000000000000000e+00) (0, 0, 0.00000000000000000000e+00) (0, 0, 0.00000000000000000000e+00) (0, 0, 0.00000000000000000000e+00) (0, 0, 0.00000000000000000000e+00) (0, 0, 0.00000000000000000000e+00) (0, 0, 0.00000000000000000000e+00) (0, 0, 0.00000000000000000000e+00) (0, 0, 0.00000000000000000000e+00) (0, 0, 0.00000000000000000000e+00) (0, 0, 0.00000000000000000000e+00) (0, 0, 0.00000000000000000000e+00) (0, 0, 0.00000000000000000000e+00) (0, 0, 0.00000000000000000000e+00) (0, 0, 0.00000000000000000000e+00) (0, 0, 0.00000000000000000000e+00) (0, 0, 0.00000000000000000000e+00) (0, 0, 0.00000000000000000000e+00) (0, 0, 0.00000000000000000000e+00) (0, 0, 0.00000000000000000000e+00) (0, 0, 0.00000000000000000000e+00) (0, 0, 0.00000000000000000000e+00) (0, 0, 0.00000000000000000000e+00) (0, 0, 0.00000000000000000000e+00) (0, 0, 0.00000000000000000000e+00) (0, 0, 0.00000000000000000000e+00) (0, 0, 0.00000000000000000000e+00) (0, 0, 0.00000000000000000000e+00) (0, 0, 0.00000000000000000000e+00) (0, 0, 0.00000000000000000000e+00) (0, 0, 0.00000000000000000000e+00) (0, 0, 0.00000000000000000000e+00) (0, 0, 0.00000000000000000000e+00) (0, 0, 0.00000000000000000000e+00) (0, 0, 0.00000000000000000000e+00) (0, 0, 0.00000000000000000000e+00) (0, 0, 0.00000000000000000000e+00) (0, 0, 0.00000000000000000000e+00) (0, 0, 0.00000000000000000000e+00) (0, 0, 0.00000000000000000000e+00) (0, 0, 0.00000000000000000000e+00) (0, 0, 0.00000000000000000000e+00) (0, 0, 0.00000000000000000000e+00) (0, 0, 0.00000000000000000000e+00) (0, 0, 0.00000000000000000000e+00) (0, 0, 0.00000000000000000000e+00) (0, 0, 0.00000000000000000000e+00) (0, 0, 0.00000000000000000000e+00) (0, 0, 0.00000000000000000000e+00) (0, 0, 0.00000000000000000000e+00) (0, 0, 0.00000000000000000000e+00) (0, 0, 0.00000000000000000000e+00) (0, 0, 0.00000000000000000000e+00) (0, 0, 0.00000000000000000000e+00) (0, 0, 0.00000000000000000000e+00) (0, 0, 0.00000000000000000000e+00) (0, 0, 0.00000000000000000000e+00) (0, 0, 0.00000000000000000000e+00) (0, 0, 0.00000000000000000000e+00) (0, 0, 0.00000000000000000000e+00) (0, 0, 0.00000000000000000000e+00) (0, 0, 0.00000000000000000000e+00) (0, 0, 0.00000000000000000000e+00) (0, 0, 0.00000000000000000000e+00) (0, 0, 0.00000000000000000000e+00) (0, 0, 0.00000000000000000000e+00) (0, 0, 0.00000000000000000000e+00) (0, 0, 0.00000000000000000000e+00) (0, 0, 0.00000000000000000000e+00) (0, 0, 0.00000000000000000000e+00) (0, 0, 0.00000000000000000000e+00) (0, 0, 0.00000000000000000000e+00) (0, 0, 0.00000000000000000000e+00) (0, 0, 0.00000000000000000000e+00) (0, 0, 0.00000000000000000000e+00) (0, 0, 0.00000000000000000000e+00) (0, 0, 0.00000000000000000000e+00) (0, 0, 0.00000000000000000000e+00) (0, 0, 0.00000000000000000000e+00) (0, 0, 0.00000000000000000000e+00) (0, 0, 0.00000000000000000000e+00) (0, 0, 0.00000000000000000000e+00) (0, 0, 0.00000000000000000000e+00) (0, 0, 0.00000000000000000000e+00) (0, 0, 0.00000000000000000000e+00) (0, 0, 0.00000000000000000000e+00) (0, 0, 0.00000000000000000000e+00) (0, 0, 0.00000000000000000000e+00) (0, 0, 0.00000000000000000000e+00) (0, 0, 0.00000000000000000000e+00) (0, 0, 0.00000000000000000000e+00) (0, 0, 0.00000000000000000000e+00) (0, 0, 0.00000000000000000000e+00) (0, 0, 0.00000000000000000000e+00) (0, 0, 0.00000000000000000000e+00) (0, 0, 0.00000000000000000000e+00) (0, 0, 0.00000000000000000000e+00) (0, 0, 0.00000000000000000000e+00) (0, 0, 0.00000000000000000000e+00) (0, 0, 0.00000000000000000000e+00) (0, 0, 0.00000000000000000000e+00) (0, 0, 0.00000000000000000000e+00) (0, 0, 0.00000000000000000000e+00) (0, 0, 0.00000000000000000000e+00) (0, 0, 0.00000000000000000000e+00) (0, 0, 0.00000000000000000000e+00) (0, 0, 0.00000000000000000000e+00) (0, 0, 0.00000000000000000000e+00) (0, 0, 0.00000000000000000000e+00) (0, 0, 0.00000000000000000000e+00) (0, 0, 0.00000000000000000000e+00) (0, 0, 0.00000000000000000000e+00) (0, 0, 0.00000000000000000000e+00) (0, 0, 0.00000000000000000000e+00) (0, 0, 0.00000000000000000000e+00) (0, 0, 0.00000000000000000000e+00) (0, 0, 0.00000000000000000000e+00) (0, 0, 0.00000000000000000000e+00) (0, 0, 0.00000000000000000000e+00) (0, 0, 0.00000000000000000000e+00) (0, 0, 0.00000000000000000000e+00) (0, 0, 0.00000000000000000000e+00) (0, 0, 0.00000000000000000000e+00) (0, 0, 0.00000000000000000000e+00) (0, 0, 0.00000000000000000000e+00) (0, 0, 0.00000000000000000000e+00) (0, 0, 0.00000000000000000000e+00) (0, 0, 0.00000000000000000000e+00) (0, 0, 0.00000000000000000000e+00) (0, 0, 0.00000000000000000000e+00) (0, 0, 0.00000000000000000000e+00) (0, 0, 0.00000000000000000000e+00) (0, 0, 0.00000000000000000000e+00) (0, 0, 0.00000000000000000000e+00) (0, 0, 0.00000000000000000000e+00) (0, 0, 0.00000000000000000000e+00) (0, 0, 0.00000000000000000000e+00) (0, 0, 0.00000000000000000000e+00) (0, 0, 0.00000000000000000000e+00) (0, 0, 0.00000000000000000000e+00) (0, 0, 0.00000000000000000000e+00) (0, 0, 0.00000000000000000000e+00) (0, 0, 0.00000000000000000000e+00) (0, 0, 0.00000000000000000000e+00) (0, 0, 0.00000000000000000000e+00) (0, 0, 0.00000000000000000000e+00) (0, 0, 0.00000000000000000000e+00) (0, 0, 0.00000000000000000000e+00) (0, 0, 0.00000000000000000000e+00) (0, 0, 0.00000000000000000000e+00) (0, 0, 0.00000000000000000000e+00) (0, 0, 0.00000000000000000000e+00) (0, 0, 0.00000000000000000000e+00) (0, 0, 0.00000000000000000000e+00) (0, 0, 0.00000000000000000000e+00) (0, 0, 0.00000000000000000000e+00) (0, 0, 0.00000000000000000000e+00) (0, 0, 0.00000000000000000000e+00) (0, 0, 0.00000000000000000000e+00) (0, 0, 0.00000000000000000000e+00) (0, 0, 0.00000000000000000000e+00) (0, 0, 0.00000000000000000000e+00) (0, 0, 0.00000000000000000000e+00) (0, 0, 0.00000000000000000000e+00) (0, 0, 0.00000000000000000000e+00) (0, 0, 0.00000000000000000000e+00) (0, 0, 0.00000000000000000000e+00) (0, 0, 0.00000000000000000000e+00) (0, 0, 0.00000000000000000000e+00) (0, 0, 0.00000000000000000000e+00) (0, 0, 0.00000000000000000000e+00) (0, 0, 0.00000000000000000000e+00) (0, 0, 0.00000000000000000000e+00) (0, 0, 0.00000000000000000000e+00) (0, 0, 0.00000000000000000000e+00) (0, 0, 0.00000000000000000000e+00) (0, 0, 0.00000000000000000000e+00) (0, 0, 0.00000000000000000000e+00) (0, 0, 0.00000000000000000000e+00) (0, 0, 0.00000000000000000000e+00) (0, 0, 0.00000000000000000000e+00) (0, 0, 0.00000000000000000000e+00) (0, 0, 0.00000000000000000000e+00) (0, 0, 0.00000000000000000000e+00) (0, 0, 0.00000000000000000000e+00) (0, 0, 0.00000000000000000000e+00) (0, 0, 0.00000000000000000000e+00) (0, 0, 0.00000000000000000000e+00) (0, 0, 0.00000000000000000000e+00) (0, 0, 0.00000000000000000000e+00) (0, 0, 0.00000000000000000000e+00) (0, 0, 0.00000000000000000000e+00) (0, 0, 0.00000000000000000000e+00) (0, 0, 0.00000000000000000000e+00) (0, 0, 0.00000000000000000000e+00) (0, 0, 0.00000000000000000000e+00) (0, 0, 0.00000000000000000000e+00) (0, 0, 0.00000000000000000000e+00) (0, 0, 0.00000000000000000000e+00) (0, 0, 0.00000000000000000000e+00) (0, 0, 0.00000000000000000000e+00) (0, 0, 0.00000000000000000000e+00) (0, 0, 0.00000000000000000000e+00) (0, 0, 0.00000000000000000000e+00) (0, 0, 0.00000000000000000000e+00) (0, 0, 0.00000000000000000000e+00) (0, 0, 0.00000000000000000000e+00) (0, 0, 0.00000000000000000000e+00) (0, 0, 0.00000000000000000000e+00) (0, 0, 0.00000000000000000000e+00) (0, 0, 0.00000000000000000000e+00) (0, 0, 0.00000000000000000000e+00) (0, 0, 0.00000000000000000000e+00) (0, 0, 0.00000000000000000000e+00) (0, 0, 0.00000000000000000000e+00) (0, 0, 0.00000000000000000000e+00) (0, 0, 0.00000000000000000000e+00) (0, 0, 0.00000000000000000000e+00) (0, 0, 0.00000000000000000000e+00) (0, 0, 0.00000000000000000000e+00) (0, 0, 0.00000000000000000000e+00) (0, 0, 0.00000000000000000000e+00) (0, 0, 0.00000000000000000000e+00) (0, 0, 0.00000000000000000000e+00) (0, 0, 0.00000000000000000000e+00) (0, 0, 0.00000000000000000000e+00) (0, 0, 0.00000000000000000000e+00) (0, 0, 0.00000000000000000000e+00) (0, 0, 0.00000000000000000000e+00) (0, 0, 0.00000000000000000000e+00) (0, 0, 0.00000000000000000000e+00) (0, 0, 0.00000000000000000000e+00) (0, 0, 0.00000000000000000000e+00) (0, 0, 0.00000000000000000000e+00) (0, 0, 0.00000000000000000000e+00) (0, 0, 0.00000000000000000000e+00) (0, 0, 0.00000000000000000000e+00) (0, 0, 0.00000000000000000000e+00) (0, 0, 0.00000000000000000000e+00) (0, 0, 0.00000000000000000000e+00) (0, 0, 0.00000000000000000000e+00) (0, 0, 0.00000000000000000000e+00) (0, 0, 0.00000000000000000000e+00) (0, 0, 0.00000000000000000000e+00) (0, 0, 0.00000000000000000000e+00) (0, 0, 0.00000000000000000000e+00) (0, 0, 0.00000000000000000000e+00) (0, 0, 0.00000000000000000000e+00) (0, 0, 0.00000000000000000000e+00) (0, 0, 0.00000000000000000000e+00) (0, 0, 0.00000000000000000000e+00) (0, 0, 0.00000000000000000000e+00) (0, 0, 0.00000000000000000000e+00) (0, 0, 0.00000000000000000000e+00) (0, 0, 0.00000000000000000000e+00) (0, 0, 0.00000000000000000000e+00) (0, 0, 0.00000000000000000000e+00) (0, 0, 0.00000000000000000000e+00) (0, 0, 0.00000000000000000000e+00) (0, 0, 0.00000000000000000000e+00) (0, 0, 0.00000000000000000000e+00) (0, 0, 0.00000000000000000000e+00) (0, 0, 0.00000000000000000000e+00) (0, 0, 0.00000000000000000000e+00) (0, 0, 0.00000000000000000000e+00) (0, 0, 0.00000000000000000000e+00) (0, 0, 0.00000000000000000000e+00) (0, 0, 0.00000000000000000000e+00) (0, 0, 0.00000000000000000000e+00) (0, 0, 0.00000000000000000000e+00) (0, 0, 0.00000000000000000000e+00) (0, 0, 0.00000000000000000000e+00) (0, 0, 0.00000000000000000000e+00) (0, 0, 0.00000000000000000000e+00) (0, 0, 0.00000000000000000000e+00) (0, 0, 0.00000000000000000000e+00) (0, 0, 0.00000000000000000000e+00) (0, 0, 0.00000000000000000000e+00) (0, 0, 0.00000000000000000000e+00) (0, 0, 0.00000000000000000000e+00) (0, 0, 0.00000000000000000000e+00) (0, 0, 0.00000000000000000000e+00) (0, 0, 0.00000000000000000000e+00) (0, 0, 0.00000000000000000000e+00) (0, 0, 0.00000000000000000000e+00) (0, 0, 0.00000000000000000000e+00) (0, 0, 0.00000000000000000000e+00) (0, 0, 0.00000000000000000000e+00) (0, 0, 0.00000000000000000000e+00) (0, 0, 0.00000000000000000000e+00) (0, 0, 0.00000000000000000000e+00) (0, 0, 0.00000000000000000000e+00) (0, 0, 0.00000000000000000000e+00) (0, 0, 0.00000000000000000000e+00) (0, 0, 0.00000000000000000000e+00) (0, 0, 0.00000000000000000000e+00) (0, 0, 0.00000000000000000000e+00) (0, 0, 0.00000000000000000000e+00) (0, 0, 0.00000000000000000000e+00) (0, 0, 0.00000000000000000000e+00) (0, 0, 0.00000000000000000000e+00) (0, 0, 0.00000000000000000000e+00) (0, 0, 0.00000000000000000000e+00) (0, 0, 0.00000000000000000000e+00) (0, 0, 0.00000000000000000000e+00) (0, 0, 0.00000000000000000000e+00) (0, 0, 0.00000000000000000000e+00) (0, 0, 0.00000000000000000000e+00) (0, 0, 0.00000000000000000000e+00) (0, 0, 0.00000000000000000000e+00) (0, 0, 0.00000000000000000000e+00) (0, 0, 0.00000000000000000000e+00) (0, 0, 0.00000000000000000000e+00) (0, 0, 0.00000000000000000000e+00) (0, 0, 0.00000000000000000000e+00) (0, 0, 0.00000000000000000000e+00) (0, 0, 0.00000000000000000000e+00) (0, 0, 0.00000000000000000000e+00) (0, 0, 0.00000000000000000000e+00) (0, 0, 0.00000000000000000000e+00) (0, 0, 0.00000000000000000000e+00) (0, 0, 0.00000000000000000000e+00) (0, 0, 0.00000000000000000000e+00) (0, 0, 0.00000000000000000000e+00) (0, 0, 0.00000000000000000000e+00) (0, 0, 0.00000000000000000000e+00) (0, 0, 0.00000000000000000000e+00) (0, 0, 0.00000000000000000000e+00) (0, 0, 0.00000000000000000000e+00) (0, 0, 0.00000000000000000000e+00) (0, 0, 0.00000000000000000000e+00) (0, 0, 0.00000000000000000000e+00) (0, 0, 0.00000000000000000000e+00) (0, 0, 0.00000000000000000000e+00) (0, 0, 0.00000000000000000000e+00) (0, 0, 0.00000000000000000000e+00) (0, 0, 0.00000000000000000000e+00) (0, 0, 0.00000000000000000000e+00) (0, 0, 0.00000000000000000000e+00) (0, 0, 0.00000000000000000000e+00) (0, 0, 0.00000000000000000000e+00) (0, 0, 0.00000000000000000000e+00) (0, 0, 0.00000000000000000000e+00) (0, 0, 0.00000000000000000000e+00) (0, 0, 0.00000000000000000000e+00) (0, 0, 0.00000000000000000000e+00) (0, 0, 0.00000000000000000000e+00) (0, 0, 0.00000000000000000000e+00) (0, 0, 0.00000000000000000000e+00) (0, 0, 0.00000000000000000000e+00) (0, 0, 0.00000000000000000000e+00) (0, 0, 0.00000000000000000000e+00) (0, 0, 0.00000000000000000000e+00) (0, 0, 0.00000000000000000000e+00) (0, 0, 0.00000000000000000000e+00) (0, 0, 0.00000000000000000000e+00) (0, 0, 0.00000000000000000000e+00) (0, 0, 0.00000000000000000000e+00) (0, 0, 0.00000000000000000000e+00) (0, 0, 0.00000000000000000000e+00) (736, 5, 5.00000000000000000000e-01) (736, 5, 5.00000000000000000000e-01) (736, 5, 5.00000000000000000000e-01) (736, 5, 5.00000000000000000000e-01) (736, 5, 5.00000000000000000000e-01) (736, 5, 5.00000000000000000000e-01) (736, 5, 5.00000000000000000000e-01) (736, 5, 5.00000000000000000000e-01) (736, 5, 5.00000000000000000000e-01) (736, 5, 5.00000000000000000000e-01) (736, 5, 5.00000000000000000000e-01) (736, 5, 5.00000000000000000000e-01) (736, 5, 5.00000000000000000000e-01) (736, 5, 5.00000000000000000000e-01) (736, 5, 5.00000000000000000000e-01) (736, 5, 5.00000000000000000000e-01) (736, 5, 5.00000000000000000000e-01) (736, 5, 5.00000000000000000000e-01) (736, 5, 5.00000000000000000000e-01) (736, 5, 5.00000000000000000000e-01) (736, 5, 5.00000000000000000000e-01) (736, 5, 5.00000000000000000000e-01) (736, 5, 5.00000000000000000000e-01) (736, 5, 5.00000000000000000000e-01) (736, 5, 5.00000000000000000000e-01) (736, 5, 5.00000000000000000000e-01) (736, 5, 5.00000000000000000000e-01) (736, 5, 5.00000000000000000000e-01) (736, 5, 5.00000000000000000000e-01) (736, 5, 5.00000000000000000000e-01) (736, 5, 5.00000000000000000000e-01) (736, 5, 5.00000000000000000000e-01) (736, 5, 5.00000000000000000000e-01) (736, 5, 5.00000000000000000000e-01) (736, 5, 5.00000000000000000000e-01) (736, 5, 5.00000000000000000000e-01) (736, 5, 5.00000000000000000000e-01) (736, 5, 5.00000000000000000000e-01) (736, 5, 5.00000000000000000000e-01) (736, 5, 5.00000000000000000000e-01) (736, 5, 5.00000000000000000000e-01) (736, 5, 5.00000000000000000000e-01) (736, 5, 5.00000000000000000000e-01) (736, 5, 5.00000000000000000000e-01) (736, 5, 5.00000000000000000000e-01) (736, 5, 5.00000000000000000000e-01) (736, 5, 5.00000000000000000000e-01) (736, 5, 5.00000000000000000000e-01) (736, 5, 5.00000000000000000000e-01) (736, 5, 5.00000000000000000000e-01) (0, 5, 0.00000000000000000000e+00) (51, 5, 5.00000000000000000000e-01) (51, 5, 5.00000000000000000000e-01) (51, 5, 5.00000000000000000000e-01) (51, 5, 5.00000000000000000000e-01) (51, 5, 5.00000000000000000000e-01) (51, 5, 5.00000000000000000000e-01) (51, 5, 5.00000000000000000000e-01) (51, 5, 5.00000000000000000000e-01) (51, 5, 5.00000000000000000000e-01) (51, 5, 5.00000000000000000000e-01) (51, 5, 5.00000000000000000000e-01) (51, 5, 5.00000000000000000000e-01) (51, 5, 5.00000000000000000000e-01) (51, 5, 5.00000000000000000000e-01) (51, 5, 5.00000000000000000000e-01) (51, 5, 5.00000000000000000000e-01) (51, 5, 5.00000000000000000000e-01) (51, 5, 5.00000000000000000000e-01) (51, 5, 5.00000000000000000000e-01) (51, 5, 5.00000000000000000000e-01) (51, 5, 5.00000000000000000000e-01) (51, 5, 5.00000000000000000000e-01) (51, 5, 5.00000000000000000000e-01) (51, 5, 5.00000000000000000000e-01) (51, 5, 5.00000000000000000000e-01) (51, 5, 5.00000000000000000000e-01) (51, 5, 5.00000000000000000000e-01) (51, 5, 5.00000000000000000000e-01) (51, 5, 5.00000000000000000000e-01) (51, 5, 5.00000000000000000000e-01) (51, 5, 5.00000000000000000000e-01) (51, 5, 5.00000000000000000000e-01) (51, 5, 5.00000000000000000000e-01) (51, 5, 5.00000000000000000000e-01) (51, 5, 5.00000000000000000000e-01) (51, 5, 5.00000000000000000000e-01) (51, 5, 5.00000000000000000000e-01) (51, 5, 5.00000000000000000000e-01) (51, 5, 5.00000000000000000000e-01) (51, 5, 5.00000000000000000000e-01) (51, 5, 5.00000000000000000000e-01) (51, 5, 5.00000000000000000000e-01) (51, 5, 5.00000000000000000000e-01) (51, 5, 5.00000000000000000000e-01) (51, 5, 5.00000000000000000000e-01) (51, 5, 5.00000000000000000000e-01) (51, 5, 5.00000000000000000000e-01) (51, 5, 5.00000000000000000000e-01) (51, 5, 5.00000000000000000000e-01) (51, 5, 5.00000000000000000000e-01) (0, 5, 0.00000000000000000000e+00) (51, 5, 5.00000000000000000000e-01) (0, 5, 0.00000000000000000000e+00) 
connections (connected_to_neuron, weight)=(0, 2.52855682373046875000e+00) (1, -1.21156282722949981689e-01) (2, 1.05055980384349822998e-01) (3, -9.09110486507415771484e-01) (4, 1.73251533508300781250e+00) (5, -4.51580238342285156250e+00) (6, 1.63878679275512695312e-01) (7, 1.84133276343345642090e-02) (8, 3.67462933063507080078e-02) (9, -8.33503305912017822266e-01) (10, -1.02861261367797851562e+01) (11, -3.90771865844726562500e+00) (12, -2.15903735160827636719e+00) (13, 2.76827007532119750977e-01) (14, -1.08153080940246582031e+00) (15, 7.16758489608764648438e-01) (16, 1.60349750518798828125e+00) (17, -2.01198792457580566406e+00) (18, 1.56048500537872314453e+00) (19, -9.28824615478515625000e+00) (20, 2.86406930536031723022e-02) (21, -3.03004950284957885742e-01) (22, 6.13387301564216613770e-02) (23, 3.38851884007453918457e-02) (24, 3.57937403023242950439e-02) (25, -1.68818533420562744141e-01) (26, 1.52504980564117431641e-01) (27, 2.97831855714321136475e-02) (28, -6.07395172119140625000e-02) (29, 9.61600765585899353027e-02) (30, -6.05276785790920257568e-02) (31, 1.98218524456024169922e-02) (32, 4.36210557818412780762e-02) (33, 1.23160652816295623779e-01) (34, 1.50000000000000000000e+03) (35, -3.49922597408294677734e-01) (36, 4.01786565780639648438e+00) (37, -8.55658650398254394531e-01) (38, -1.55334593728184700012e-02) (39, -4.40617942810058593750e+00) (40, 1.13751089572906494141e+00) (41, 1.27581298351287841797e+00) (42, -3.39809584617614746094e+00) (43, -3.77930164337158203125e+00) (44, 7.18147516250610351562e-01) (45, -6.28002023696899414062e+00) (46, 6.74218237400054931641e-01) (47, 3.06177198886871337891e-01) (48, 6.71697199344635009766e-01) (49, 1.40345716476440429688e+00) (50, -6.51525929570198059082e-02) (51, -1.11232614517211914062e+00) (52, -3.13576519489288330078e-01) (53, -6.16975116729736328125e+00) (54, 1.01813471317291259766e+00) (55, 3.93183857202529907227e-01) (56, -1.96529224514961242676e-01) (57, -4.88694220781326293945e-01) (58, 4.78434264659881591797e-02) (59, 1.48716479539871215820e-01) (60, -1.63241401314735412598e-01) (61, 3.05292963981628417969e-01) (62, 5.28913512825965881348e-02) (63, 4.10793535411357879639e-02) (64, -2.69723176956176757812e-01) (65, -1.29802867770195007324e-01) (66, -1.27239162102341651917e-02) (67, 1.12007580697536468506e-01) (68, -2.29449607431888580322e-02) (69, 1.50000000000000000000e+03) (70, -1.22407101094722747803e-01) (71, -2.58958411216735839844e+00) (72, 7.35377430915832519531e-01) (73, 8.26864361763000488281e-01) (74, 3.82025152444839477539e-01) (75, -6.98313057422637939453e-01) (76, -4.87163162231445312500e+00) (77, -5.92413485050201416016e-01) (78, 2.43612742424011230469e+00) (79, -5.18830537796020507812e-01) (80, 2.77753305435180664062e+00) (81, -7.10390758514404296875e+00) (82, 2.62196731567382812500e+00) (83, -1.32715272903442382812e+00) (84, 1.78661143779754638672e+00) (85, -2.98914432525634765625e-01) (86, -9.49203133583068847656e-01) (87, 2.61917173862457275391e-01) (88, -6.35806560516357421875e+00) (89, 1.09263968467712402344e+00) (90, 2.96930838376283645630e-02) (91, -1.79527550935745239258e-01) (92, 2.54085868597030639648e-01) (93, 8.87359976768493652344e-02) (94, 1.55158460140228271484e-01) (95, -1.03058721870183944702e-02) (96, 2.48355761170387268066e-01) (97, 1.96307320147752761841e-02) (98, 6.23876526951789855957e-02) (99, -2.74407237768173217773e-01) (100, -5.52361719310283660889e-02) (101, -9.69501212239265441895e-02) (102, -9.79443825781345367432e-03) (103, 2.25525312125682830811e-02) (104, 1.50000000000000000000e+03) (105, -4.91828203201293945312e-01) (106, -3.23055356740951538086e-01) (107, 2.15527725219726562500e+00) (108, 6.22587740421295166016e-01) (109, -3.38992094993591308594e+00) (110, 1.83084746822714805603e-03) (111, -9.29059600830078125000e+00) (112, 1.03682987391948699951e-01) (113, 4.70189348561689257622e-04) (114, -5.66485643386840820312e+00) (115, -1.93319880962371826172e+00) (116, 1.62635982036590576172e+00) (117, 2.58711075782775878906e+00) (118, 2.24916607141494750977e-01) (119, -3.62974047660827636719e+00) (120, -4.15539205074310302734e-01) (121, 3.91175913810729980469e+00) (122, 2.53764557838439941406e+00) (123, -5.99033355712890625000e+00) (124, -1.30641067028045654297e+00) (125, 5.90867877006530761719e-01) (126, 9.64997857809066772461e-02) (127, 3.69703285396099090576e-02) (128, 1.36039420962333679199e-01) (129, -3.15177217125892639160e-02) (130, -2.29361690580844879150e-02) (131, 1.70236825942993164062e-01) (132, -5.12727424502372741699e-02) (133, 1.27963721752166748047e-01) (134, -3.07042270898818969727e-01) (135, -3.70774753391742706299e-02) (136, -4.94778975844383239746e-02) (137, 1.38947218656539916992e-01) (138, 9.29006934165954589844e-02) (139, 1.50000000000000000000e+03) (140, 7.49706290662288665771e-04) (141, 9.33614730834960937500e+00) (142, -3.13163447380065917969e+00) (143, -5.29775094985961914062e+00) (144, -5.74623727798461914062e+00) (145, 6.57757818698883056641e-01) (146, 2.37598919868469238281e+00) (147, -2.36520409584045410156e+00) (148, 5.26131168007850646973e-02) (149, 2.13512969017028808594e+00) (150, 5.95409011840820312500e+00) (151, -2.63717508316040039062e+00) (152, 8.25007081031799316406e-01) (153, -8.06445884704589843750e+00) (154, 6.39680147171020507812e-01) (155, -9.07899718731641769409e-03) (156, 2.10991501808166503906e+00) (157, -1.04162263870239257812e+00) (158, -1.30018413066864013672e+00) (159, 4.30321121215820312500e+00) (160, 1.15720796585083007812e+00) (161, -3.43768090009689331055e-01) (162, -2.66037672758102416992e-01) (163, 4.61344048380851745605e-02) (164, 1.54012188315391540527e-01) (165, -5.74980601668357849121e-02) (166, 2.98456728458404541016e-01) (167, 5.54412528872489929199e-02) (168, 4.66139838099479675293e-02) (169, -3.77826541662216186523e-02) (170, -3.63316833972930908203e-02) (171, -1.19814261794090270996e-01) (172, 1.64510965347290039062e-01) (173, 1.21566116809844970703e-01) (174, 1.50000000000000000000e+03) (175, 7.40179836750030517578e-01) (176, 4.94061470031738281250e+00) (177, -2.79452776908874511719e+00) (178, 3.32201212644577026367e-01) (179, 3.65851074457168579102e-01) (180, -2.21788930892944335938e+00) (181, 2.01851201057434082031e+00) (182, -2.68568849563598632812e+00) (183, 1.55886352062225341797e+00) (184, -3.26834297180175781250e+00) (185, -5.56834268569946289062e+00) (186, 1.19796553626656532288e-02) (187, 2.98928213119506835938e+00) (188, -4.83815002441406250000e+00) (189, 6.80723011493682861328e-01) (190, 9.94903922080993652344e-01) (191, -1.23724341392517089844e+00) (192, 1.11338806152343750000e+00) (193, 3.25058960914611816406e+00) (194, 1.07926912307739257812e+01) (195, -2.90580779314041137695e-01) (196, -2.52155307680368423462e-02) (197, 1.34982064366340637207e-01) (198, 1.47466182708740234375e-01) (199, 5.46655841171741485596e-02) (200, -4.41467249765992164612e-03) (201, 1.93053439259529113770e-01) (202, 8.21184441447257995605e-02) (203, 5.88013194501399993896e-02) (204, 5.86885809898376464844e-02) (205, -9.73450243473052978516e-02) (206, -2.15968377888202667236e-02) (207, 1.81547790765762329102e-01) (208, 4.90807667374610900879e-02) (209, 1.50000000000000000000e+03) (210, -8.93883049488067626953e-01) (211, -8.51000404357910156250e+00) (212, -6.42499065399169921875e+00) (213, -2.14186263084411621094e+00) (214, 1.38554573059082031250e+00) (215, 2.80532860755920410156e+00) (216, -4.33146619796752929688e+00) (217, 2.04451513290405273438e+00) (218, -2.11487555503845214844e+00) (219, -9.96419906616210937500e+00) (220, -3.46759915351867675781e+00) (221, -2.45595407485961914062e+00) (222, 3.43130922317504882812e+00) (223, -2.60937881469726562500e+00) (224, 4.68233853578567504883e-01) (225, -6.31357431411743164062e-01) (226, 1.55494749546051025391e+00) (227, 6.68680071830749511719e-02) (228, 3.15934157371520996094e+00) (229, -2.93327903747558593750e+00) (230, -2.08610624074935913086e-01) (231, 1.67725062370300292969e+00) (232, -1.37337958812713623047e+00) (233, 1.36950969696044921875e-01) (234, 1.65965080261230468750e-01) (235, -1.31025731563568115234e-01) (236, 3.21509659290313720703e-01) (237, 9.16348919272422790527e-02) (238, 1.49230018258094787598e-01) (239, -8.53182896971702575684e-02) (240, 6.67995819821953773499e-03) (241, -3.82911562919616699219e-02) (242, 2.26478889584541320801e-01) (243, 1.03706836700439453125e-01) (244, 1.50000000000000000000e+03) (245, -1.34257745742797851562e+00) (246, 8.22352409362792968750e-01) (247, -8.66457402706146240234e-01) (248, -2.08014678955078125000e+00) (249, 6.95726990699768066406e-01) (250, 1.20761111378669738770e-01) (251, -4.40238237380981445312e+00) (252, 6.43775641918182373047e-01) (253, -5.19579362869262695312e+00) (254, 2.70017504692077636719e-01) (255, -1.14375472068786621094e+00) (256, 3.87172293663024902344e+00) (257, 2.40353846549987792969e+00) (258, 2.86311197280883789062e+00) (259, -4.49061727523803710938e+00) (260, -9.76752340793609619141e-02) (261, -2.66203671693801879883e-01) (262, -6.89957141876220703125e-02) (263, -5.32677316665649414062e+00) (264, 2.82033133506774902344e+00) (265, -1.26010525226593017578e+00) (266, 8.31884264945983886719e-01) (267, -4.64512884616851806641e-01) (268, 6.27904236316680908203e-02) (269, 4.03055660426616668701e-02) (270, -1.19212105870246887207e-01) (271, 4.60900396108627319336e-01) (272, 1.64300724864006042480e-01) (273, 2.84551177173852920532e-03) (274, 1.68193310499191284180e-01) (275, -7.93083459138870239258e-02) (276, 4.96119111776351928711e-02) (277, 9.63278040289878845215e-02) (278, 1.64119362831115722656e-01) (279, 1.50000000000000000000e+03) (280, 8.04806128144264221191e-02) (281, -1.26572465896606445312e+00) (282, -6.76054573059082031250e+00) (283, -4.49943590164184570312e+00) (284, -9.92238819599151611328e-01) (285, 1.80670797824859619141e+00) (286, 2.79905414581298828125e+00) (287, 2.69195169210433959961e-01) (288, -1.18844909667968750000e+01) (289, 5.05422949790954589844e-02) (290, -5.31504726409912109375e+00) (291, 2.49025940895080566406e+00) (292, -4.07572090625762939453e-01) (293, -6.26552700996398925781e-01) (294, -5.09885883331298828125e+00) (295, -1.28106385469436645508e-01) (296, 1.48574364185333251953e+00) (297, 9.29643139243125915527e-02) (298, 6.57249510288238525391e-01) (299, -3.00888752937316894531e+00) (300, 1.39543181285262107849e-02) (301, 6.51655673980712890625e-01) (302, -3.71509879827499389648e-01) (303, 2.07632616162300109863e-01) (304, -2.35809255391359329224e-02) (305, -9.97536256909370422363e-02) (306, 3.45016360282897949219e-01) (307, 1.33475348353385925293e-01) (308, 8.89308601617813110352e-02) (309, 1.04679323732852935791e-01) (310, -9.69594940543174743652e-02) (311, -5.73656782507896423340e-02) (312, 1.44067406654357910156e-01) (313, 1.38014793395996093750e-01) (314, 1.50000000000000000000e+03) (315, -4.20909941196441650391e-01) (316, 3.01429837942123413086e-01) (317, 1.22589862346649169922e+00) (318, -1.83409556746482849121e-01) (319, 2.41008186340332031250e+00) (320, 2.34544587135314941406e+00) (321, 3.98741650581359863281e+00) (322, 6.01001310348510742188e+00) (323, -7.03626871109008789062e-02) (324, -4.28487491607666015625e+00) (325, 5.97223615646362304688e+00) (326, -4.39116811752319335938e+00) (327, -1.10184919834136962891e+00) (328, 6.75824880599975585938e-01) (329, -2.95258790254592895508e-01) (330, -2.78915429115295410156e+00) (331, 4.27190661430358886719e-01) (332, 7.59007644653320312500e+00) (333, -3.07052350044250488281e+00) (334, -5.49206161499023437500e+00) (335, -6.92431449890136718750e-01) (336, -5.27449250221252441406e-01) (337, -2.39379477500915527344e+00) (338, 1.25638753175735473633e-01) (339, 8.04892852902412414551e-02) (340, -9.82134602963924407959e-03) (341, 4.45368915796279907227e-01) (342, 1.30569979548454284668e-01) (343, 2.65972074121236801147e-02) (344, 1.78929805755615234375e-01) (345, -4.82499264180660247803e-02) (346, 1.11773915588855743408e-01) (347, 6.42648115754127502441e-02) (348, 9.82301030308008193970e-03) (349, 1.50000000000000000000e+03) (350, 9.61584854125976562500e+00) (351, -3.97954654693603515625e+00) (352, 7.18642187118530273438e+00) (353, -2.47511059045791625977e-01) (354, -1.28657305240631103516e+00) (355, -3.00155010223388671875e+01) (356, 2.77457690238952636719e+00) (357, 8.49946212768554687500e+00) (358, 1.38428318500518798828e+00) (359, 6.05193451046943664551e-02) (360, -3.90786111354827880859e-01) (361, -2.20718097686767578125e+01) (362, 1.18824691772460937500e+01) (363, 4.09073024988174438477e-01) (364, 1.96747291088104248047e+00) (365, 2.79269657135009765625e+01) (366, 4.40895729064941406250e+01) (367, -1.48856663703918457031e+00) (368, 1.28700675964355468750e+01) (369, 1.43122920989990234375e+01) (370, -5.95384836196899414062e-01) (371, 2.08705005645751953125e+01) (372, 1.32218990325927734375e+01) (373, 3.62384647130966186523e-01) (374, 2.20478445291519165039e-01) (375, 2.19006389379501342773e-01) (376, 1.67940926551818847656e+00) (377, 2.65203058719635009766e-01) (378, 6.50257885456085205078e-01) (379, 3.05180490016937255859e-01) (380, 1.67977198958396911621e-01) (381, 1.96311876177787780762e-01) (382, 2.30464980006217956543e-01) (383, 1.54369950294494628906e-01) (384, 1.50000000000000000000e+03) (385, -5.57067155838012695312e+00) (386, -1.35440654754638671875e+01) (387, -7.97614932060241699219e-01) (388, -5.67794442176818847656e-01) (389, 1.94726741313934326172e+00) (390, 8.48021209239959716797e-01) (391, 7.86286258697509765625e+00) (392, -2.04789805412292480469e+00) (393, 5.28241991996765136719e-02) (394, 2.34869623184204101562e+00) (395, 1.67084598541259765625e+01) (396, 2.37381339073181152344e+00) (397, 1.33628308773040771484e+00) (398, 1.52800774574279785156e+00) (399, 1.85217201709747314453e+00) (400, 8.84210348129272460938e-01) (401, -2.29449677467346191406e+00) (402, -2.60262727737426757812e+00) (403, -7.27311432361602783203e-01) (404, 1.39967948198318481445e-01) (405, 6.11511945724487304688e-01) (406, 1.81546247005462646484e+00) (407, 9.65795636177062988281e-01) (408, 1.83287739753723144531e-01) (409, 2.31252118945121765137e-01) (410, 1.17636241018772125244e-01) (411, 3.31118226051330566406e-01) (412, 2.15480998158454895020e-01) (413, 1.05731114745140075684e-01) (414, 1.73816204071044921875e-01) (415, 6.30589127540588378906e-02) (416, 6.35218620300292968750e-02) (417, 1.94521412253379821777e-01) (418, 1.81251600384712219238e-01) (419, 1.50000000000000000000e+03) (420, 4.74798232316970825195e-01) (421, 4.41837102174758911133e-01) (422, 1.80229288525879383087e-03) (423, -5.73304705321788787842e-02) (424, 6.73192787170410156250e+00) (425, 4.77998161315917968750e+00) (426, -1.17395124435424804688e+01) (427, 1.51169908046722412109e+00) (428, -1.14845716953277587891e+00) (429, 2.51117348670959472656e-01) (430, 3.16102313995361328125e+00) (431, -2.59964354336261749268e-02) (432, -5.23926830291748046875e+00) (433, 3.41275691986083984375e-01) (434, 5.27756512165069580078e-02) (435, 4.97618615627288818359e-02) (436, 6.44050002098083496094e-01) (437, 8.71056392788887023926e-02) (438, -1.51480188369750976562e+01) (439, 1.51688337326049804688e+00) (440, -1.76731586456298828125e-01) (441, 7.59159147739410400391e-01) (442, -2.90303373336791992188e+00) (443, 1.46228581666946411133e-01) (444, 1.21006377041339874268e-01) (445, -3.20483781397342681885e-02) (446, 4.36703354120254516602e-01) (447, 1.80763557553291320801e-01) (448, 1.83134391903877258301e-01) (449, 2.48916670680046081543e-02) (450, 8.40393304824829101562e-02) (451, -5.41588254272937774658e-02) (452, 2.39889129996299743652e-01) (453, -9.74086020141839981079e-03) (454, 1.50000000000000000000e+03) (455, -2.06914830207824707031e+00) (456, -5.49464607238769531250e+00) (457, -8.15945677459239959717e-03) (458, -1.69321930408477783203e+00) (459, 3.70865392684936523438e+00) (460, -3.09062242507934570312e-01) (461, 1.46670627593994140625e+00) (462, -1.51850819587707519531e+00) (463, -5.20957279205322265625e+00) (464, -3.19900631904602050781e+00) (465, 9.95362567901611328125e+00) (466, -5.59893026947975158691e-02) (467, -3.22191405296325683594e+00) (468, 4.08188819885253906250e+00) (469, 1.49301636219024658203e+00) (470, -1.15901266690343618393e-03) (471, 5.12368321418762207031e-01) (472, 3.57672452926635742188e+00) (473, 2.21869766712188720703e-01) (474, 8.59441086649894714355e-02) (475, 6.05770707130432128906e-01) (476, 2.64093875885009765625e-01) (477, -1.22150015830993652344e+00) (478, 9.63813364505767822266e-02) (479, 1.37850875034928321838e-02) (480, -6.32424950599670410156e-02) (481, 4.48374152183532714844e-01) (482, 1.68071091175079345703e-02) (483, 3.64419519901275634766e-02) (484, 9.24683958292007446289e-02) (485, -1.22538274154067039490e-02) (486, 1.32852941751480102539e-01) (487, 1.47858887910842895508e-01) (488, 3.75829637050628662109e-02) (489, 1.50000000000000000000e+03) (490, -4.49677444994449615479e-02) (491, 9.08670008182525634766e-01) (492, -1.85738253593444824219e+00) (493, 4.22821193933486938477e-02) (494, -5.30949640274047851562e+00) (495, 8.88024389743804931641e-01) (496, -4.95619344711303710938e+00) (497, -7.58217930793762207031e-01) (498, 3.59631896018981933594e-01) (499, 7.07563757896423339844e-01) (500, -4.31840062141418457031e-01) (501, 6.58067464828491210938e-01) (502, -3.23789668083190917969e+00) (503, 6.14705801010131835938e+00) (504, 2.55748361349105834961e-01) (505, 3.55880826711654663086e-01) (506, 9.62723851203918457031e-01) (507, 2.49887198209762573242e-01) (508, -9.97339963912963867188e-01) (509, -2.54887986183166503906e+00) (510, 6.11986406147480010986e-02) (511, -2.03006371855735778809e-01) (512, -1.24418234825134277344e+00) (513, 2.48950675129890441895e-01) (514, 1.61786198616027832031e-01) (515, 3.98244485259056091309e-02) (516, 3.44500362873077392578e-01) (517, 4.42938581109046936035e-02) (518, 4.22938391566276550293e-02) (519, 8.07844847440719604492e-02) (520, -5.83499297499656677246e-02) (521, 8.63617062568664550781e-02) (522, 1.85573324561119079590e-01) (523, -6.26949220895767211914e-02) (524, 1.50000000000000000000e+03) (525, -2.33888670802116394043e-01) (526, 3.54862403869628906250e+00) (527, -7.55342435836791992188e+00) (528, 5.47422826290130615234e-01) (529, 4.73633050918579101562e+00) (530, 8.44660937786102294922e-01) (531, -1.44794547557830810547e+00) (532, -6.44575929641723632812e+00) (533, -4.44787979125976562500e-01) (534, -1.19594931602478027344e+00) (535, 1.15675836801528930664e-01) (536, -7.15978860855102539062e-01) (537, 2.38128685951232910156e+00) (538, 2.55650043487548828125e+00) (539, -2.53787493705749511719e+00) (540, 1.14931493997573852539e-01) (541, 7.20965385437011718750e-01) (542, 4.78284293785691261292e-03) (543, 6.92852735519409179688e-01) (544, -1.21755063533782958984e+00) (545, -7.30402827262878417969e-01) (546, 2.08461001515388488770e-01) (547, -4.41384822130203247070e-01) (548, 1.84592649340629577637e-01) (549, 1.81366369128227233887e-01) (550, -3.67207117378711700439e-02) (551, 3.39042186737060546875e-01) (552, 1.12470993772149085999e-02) (553, 6.60388125106692314148e-03) (554, -1.76531329751014709473e-01) (555, 6.61128386855125427246e-02) (556, -3.92742566764354705811e-02) (557, 8.92738103866577148438e-02) (558, 3.55740636587142944336e-02) (559, 1.50000000000000000000e+03) (560, 1.81482255458831787109e+00) (561, -1.19212141036987304688e+01) (562, -2.86713552474975585938e+00) (563, -4.72323751449584960938e+00) (564, -6.22035920619964599609e-01) (565, 1.40250205993652343750e+00) (566, -2.40632116794586181641e-01) (567, -3.89773917198181152344e+00) (568, 2.02219724655151367188e+00) (569, 2.31437012553215026855e-03) (570, -3.06606626510620117188e+00) (571, 1.20801784098148345947e-01) (572, 5.41505873203277587891e-01) (573, 7.94860601425170898438e-01) (574, 1.96172702312469482422e+00) (575, 8.84685933589935302734e-01) (576, 5.96899807453155517578e-01) (577, -6.61548748612403869629e-02) (578, -1.86039459705352783203e+00) (579, -2.30543851852416992188e+00) (580, -1.55422180891036987305e-01) (581, 2.28987514972686767578e-01) (582, 2.63788521289825439453e-01) (583, 2.22678542137145996094e-01) (584, 2.05643743276596069336e-01) (585, 1.80857870727777481079e-02) (586, 4.02768045663833618164e-01) (587, -1.30193889141082763672e-01) (588, -3.43411937355995178223e-02) (589, -2.37181007862091064453e-01) (590, 7.33871199190616607666e-03) (591, -1.14191751927137374878e-02) (592, 2.04145029187202453613e-01) (593, -8.56749564409255981445e-02) (594, 1.50000000000000000000e+03) (595, -2.84556746482849121094e-02) (596, 6.32009792327880859375e+00) (597, 3.98528027534484863281e+00) (598, 1.19719721376895904541e-01) (599, 6.71181964874267578125e+00) (600, -2.34689801931381225586e-01) (601, 1.74613475799560546875e+01) (602, -2.68580627441406250000e+00) (603, -5.99699068069458007812e+00) (604, 3.89250922203063964844e+00) (605, -9.29962062835693359375e+00) (606, 1.38024285435676574707e-01) (607, -1.36933457851409912109e+00) (608, -1.08315908908843994141e+00) (609, -3.87562096118927001953e-01) (610, 7.64114782214164733887e-02) (611, 1.95284083485603332520e-01) (612, 9.36748623847961425781e-01) (613, -1.95476949214935302734e+00) (614, -5.99118709564208984375e+00) (615, 8.52335333824157714844e-01) (616, -1.34015157818794250488e-01) (617, -6.97347670793533325195e-02) (618, 2.29200676083564758301e-01) (619, -3.66050377488136291504e-02) (620, -1.10953249037265777588e-01) (621, 2.55822122097015380859e-01) (622, -7.15353935956954956055e-02) (623, -1.82288866490125656128e-02) (624, -1.26389646530151367188e+00) (625, -9.80545580387115478516e-02) (626, -4.57120202481746673584e-02) (627, 9.64847505092620849609e-02) (628, -1.48792132735252380371e-01) (629, 1.50000000000000000000e+03) (630, 2.37148195505142211914e-01) (631, 8.22563409805297851562e-01) (632, -3.26699519157409667969e+00) (633, 6.47184133529663085938e-01) (634, -1.63058769702911376953e+00) (635, 4.06596899032592773438e-01) (636, 2.48466372489929199219e+00) (637, 1.53418540954589843750e-01) (638, -7.11863398551940917969e-01) (639, 3.16534727811813354492e-01) (640, 2.41388583183288574219e+00) (641, 4.52646446228027343750e+00) (642, -2.05915451049804687500e+00) (643, -2.32858729362487792969e+00) (644, -3.62518578767776489258e-01) (645, -8.32120656967163085938e-01) (646, 6.42790138721466064453e-01) (647, -1.94472715258598327637e-01) (648, -1.77895379066467285156e+00) (649, 7.58493363857269287109e-01) (650, 3.20768743753433227539e-01) (651, -1.09467171132564544678e-02) (652, 1.78178623318672180176e-01) (653, 2.45293274521827697754e-01) (654, 1.80040344595909118652e-01) (655, 8.32311660051345825195e-02) (656, 4.57724899053573608398e-01) (657, 4.14566770195960998535e-02) (658, 4.80468198657035827637e-02) (659, -2.22262531518936157227e-01) (660, -1.82636026293039321899e-02) (661, 8.07980149984359741211e-02) (662, 7.16572850942611694336e-02) (663, -5.29275424778461456299e-02) (664, 1.50000000000000000000e+03) (665, 1.13773882389068603516e+00) (666, 3.39889317750930786133e-01) (667, 1.45510578155517578125e+00) (668, 1.84107923507690429688e+00) (669, 5.53276395797729492188e+00) (670, -3.12184405326843261719e+00) (671, -2.05315232276916503906e+00) (672, -8.10715198516845703125e-01) (673, 1.78562259674072265625e+00) (674, -5.57003116607666015625e+00) (675, -2.43518567085266113281e+00) (676, 7.52895548939704895020e-02) (677, -9.80631649494171142578e-01) (678, 3.37923884391784667969e-01) (679, 1.02850544452667236328e+00) (680, 1.49236583709716796875e+00) (681, -2.97351431846618652344e+00) (682, -2.10602611303329467773e-01) (683, 4.47146415710449218750e+00) (684, -5.74698030948638916016e-01) (685, -1.03896546363830566406e+00) (686, 4.18010711669921875000e-01) (687, 1.10241258144378662109e+00) (688, 2.60221362113952636719e-01) (689, 1.99122264981269836426e-01) (690, 9.77816581726074218750e-02) (691, 3.48644882440567016602e-01) (692, 2.86484975367784500122e-02) (693, 2.01235294342041015625e-01) (694, 1.82753950357437133789e-01) (695, -6.64773136377334594727e-02) (696, 1.92195713520050048828e-01) (697, 2.18098267912864685059e-01) (698, 3.13584413379430770874e-03) (699, 1.50000000000000000000e+03) (700, 1.42167413234710693359e+00) (701, -3.23733854293823242188e+00) (702, 4.91551548242568969727e-01) (703, 1.07977473735809326172e+00) (704, -5.37626695632934570312e+00) (705, -2.76647400856018066406e+00) (706, -7.85324990749359130859e-01) (707, -2.18858122825622558594e+00) (708, 4.55116701126098632812e+00) (709, -6.03836596012115478516e-01) (710, 2.02965044975280761719e+00) (711, 2.32504859566688537598e-01) (712, -5.62317037582397460938e+00) (713, 1.27563753128051757812e+01) (714, 1.73699712753295898438e+00) (715, -3.15535616874694824219e+00) (716, -4.21342182159423828125e+00) (717, 3.07511508464813232422e-01) (718, -4.92574453353881835938e+00) (719, -3.44942361116409301758e-01) (720, 3.01796764135360717773e-01) (721, 5.13231515884399414062e-01) (722, -3.80795866250991821289e-01) (723, 1.57417297363281250000e-01) (724, -5.11787598952651023865e-03) (725, -8.15471634268760681152e-02) (726, 3.81740152835845947266e-01) (727, 5.05622848868370056152e-02) (728, -2.49826423823833465576e-02) (729, 1.24001987278461456299e-01) (730, 4.21698912978172302246e-02) (731, 1.37930095195770263672e-01) (732, 1.21103294193744659424e-01) (733, 3.99301201105117797852e-02) (734, 1.50000000000000000000e+03) (735, 3.07278007268905639648e-01) (0, 5.96921384334564208984e-01) (1, 1.50000000000000000000e+03) (2, -2.51878648996353149414e-01) (3, -3.56015663146972656250e+01) (4, 1.50000000000000000000e+03) (5, -5.96699857711791992188e+00) (6, -1.50000000000000000000e+03) (7, 1.50000000000000000000e+03) (8, 4.94691699743270874023e-01) (9, 1.50000000000000000000e+03) (10, 6.89686298370361328125e-01) (11, 5.60534060001373291016e-01) (12, 4.87038269042968750000e+01) (13, 3.00777494907379150391e-01) (14, 4.78728145360946655273e-01) (15, 4.42893713712692260742e-01) (16, 7.90916323661804199219e-01) (17, 1.50000000000000000000e+03) (18, 1.50000000000000000000e+03) (19, 8.98815169930458068848e-02) (20, 6.55034780502319335938e-01) (21, 3.12281489372253417969e-01) (22, 1.50000000000000000000e+03) (23, 1.69628590345382690430e-01) (24, 2.71595001220703125000e-01) (25, 1.50000000000000000000e+03) (26, -3.37388098239898681641e-01) (27, -3.73666703701019287109e-01) (28, 3.46538960933685302734e-01) (29, 4.22383062541484832764e-02) (30, 4.96964514255523681641e-01) (31, 6.18125140666961669922e-01) (32, -2.88475245237350463867e-01) (33, -4.86163735389709472656e-01) (34, 1.50000000000000000000e+03) (35, 4.13532018661499023438e-01) (36, 1.50000000000000000000e+03) (37, 6.39313638210296630859e-01) (38, 6.85302615165710449219e-01) (39, 1.50000000000000000000e+03) (40, 4.67394173145294189453e-01) (41, 1.33924377441406250000e+03) (42, -5.70487070083618164062e+00) (43, 5.51244735717773437500e-01) (44, 3.67597788572311401367e-01) (45, 2.03488454222679138184e-01) (46, -1.50000000000000000000e+03) (47, 9.04664993286132812500e-01) (48, 4.14266824722290039062e-01) (49, 1.23242139816284179688e+01) (50, 5.94198405742645263672e-01) (51, 3.34713745117187500000e+00) (52, 3.28577876091003417969e-01) (53, -1.50000000000000000000e+03) (54, 1.50000000000000000000e+03) (55, 1.14932358264923095703e+00) (56, 1.53100505471229553223e-01) (57, 1.50000000000000000000e+03) (58, 9.98709946870803833008e-02) (59, 2.55722433328628540039e-01) (60, 2.85041694641113281250e+01) (61, -3.22882235050201416016e-01) (62, -4.83333945274353027344e-01) (63, 4.68880653381347656250e-01) (64, 4.31785011291503906250e+00) (65, 5.31088590621948242188e-01) (66, 4.50129717588424682617e-01) (67, -4.25356864929199218750e-01) (68, -4.65457826852798461914e-01) (69, 1.50000000000000000000e+03) (70, 5.81414282321929931641e-01) (71, 1.50000000000000000000e+03) (72, 4.95413273572921752930e-01) (73, 6.21105611324310302734e-01) (74, 4.69958335161209106445e-01) (75, 3.26637417078018188477e-01) (76, 1.50000000000000000000e+03) (77, 5.28699815273284912109e-01) (78, 1.50000000000000000000e+03) (79, 6.73832356929779052734e-01) (80, 4.85480934381484985352e-01) (81, 9.36661987304687500000e+01) (82, 5.08519709110260009766e-01) (83, 4.21617448329925537109e-01) (84, 6.67695343494415283203e-01) (85, 1.50000000000000000000e+03) (86, 4.32774990797042846680e-01) (87, 2.79859721660614013672e-01) (88, -1.50000000000000000000e+03) (89, -1.50000000000000000000e+03) (90, 9.54288065433502197266e-01) (91, 2.84032791852951049805e-01) (92, 2.65734004974365234375e+00) (93, 1.17183037102222442627e-01) (94, 2.86393433809280395508e-01) (95, 2.85250701904296875000e+01) (96, -4.74321722984313964844e-01) (97, -4.07601952552795410156e-01) (98, 3.49180877208709716797e-01) (99, 4.39231681823730468750e+00) (100, 4.64013248682022094727e-01) (101, 4.42228555679321289062e-01) (102, -4.12704974412918090820e-01) (103, -4.41310137510299682617e-01) (104, 1.50000000000000000000e+03) (105, 3.77291351556777954102e-01) (106, 1.50000000000000000000e+03) (107, 1.50000000000000000000e+03) (108, 6.69768035411834716797e-01) (109, -4.71284866333007812500e+00) (110, 1.50000000000000000000e+03) (111, -3.16551116943359375000e+02) (112, 1.50000000000000000000e+03) (113, 3.68164978027343750000e+02) (114, 3.37875694036483764648e-01) (115, 4.45088773965835571289e-01) (116, 4.60695147514343261719e-01) (117, -2.09277701377868652344e+00) (118, 3.97638499736785888672e-01) (119, 3.72785359621047973633e-01) (120, 4.46886658668518066406e-01) (121, 1.73181116580963134766e-01) (122, 6.35767042636871337891e-01) (123, 1.50000000000000000000e+03) (124, 6.30781203508377075195e-02) (125, -1.50000000000000000000e+03) (126, 2.90628224611282348633e-01) (127, 1.50000000000000000000e+03) (128, 1.49558648467063903809e-01) (129, 2.84919589757919311523e-01) (130, 2.84715423583984375000e+01) (131, -3.09011638164520263672e-01) (132, -4.16976928710937500000e-01) (133, 5.08346021175384521484e-01) (134, 4.38176584243774414062e+00) (135, 5.70031642913818359375e-01) (136, 5.41753768920898437500e-01) (137, -3.81019413471221923828e-01) (138, -4.14160788059234619141e-01) (139, 1.50000000000000000000e+03) (140, 4.77623909711837768555e-01) (141, 1.50000000000000000000e+03) (142, 1.50000000000000000000e+03) (143, 1.50000000000000000000e+03) (144, 5.54623723030090332031e-01) (145, 4.99739080667495727539e-01) (146, -1.14322769165039062500e+02) (147, -8.93695950508117675781e-01) (148, 5.67784726619720458984e-01) (149, 6.09343290328979492188e-01) (150, 7.06349730491638183594e-01) (151, 5.55721700191497802734e-01) (152, 4.90203410387039184570e-01) (153, 1.50000000000000000000e+03) (154, 4.69612538814544677734e-01) (155, 3.52410346269607543945e-01) (156, 1.50000000000000000000e+03) (157, 5.78085243701934814453e-01) (158, 1.50000000000000000000e+03) (159, -1.50000000000000000000e+03) (160, 1.57740310668945312500e+02) (161, -1.35320690917968750000e+03) (162, 1.50000000000000000000e+03) (163, 1.16382949054241180420e-01) (164, 3.98716002702713012695e-01) (165, 1.50000000000000000000e+03) (166, -4.35956954956054687500e-01) (167, -3.77951472997665405273e-01) (168, 3.51027518510818481445e-01) (169, -3.92315611243247985840e-02) (170, 5.90656340122222900391e-01) (171, 5.92768788337707519531e-01) (172, -3.81225168704986572266e-01) (173, -4.23966854810714721680e-01) (174, 1.50000000000000000000e+03) (175, 1.49108946323394775391e+00) (176, 1.50000000000000000000e+03) (177, 1.50000000000000000000e+03) (178, -1.50000000000000000000e+03) (179, 1.50000000000000000000e+03) (180, 7.17951059341430664062e-02) (181, -1.50000000000000000000e+03) (182, 1.50000000000000000000e+03) (183, 5.54555952548980712891e-01) (184, 6.02438628673553466797e-01) (185, 1.50000000000000000000e+03) (186, 1.73027706146240234375e+01) (187, 1.50000000000000000000e+03) (188, 4.30221140384674072266e-01) (189, 6.12677931785583496094e-01) (190, 9.01667892932891845703e-01) (191, 9.23425316810607910156e-01) (192, 1.50000000000000000000e+03) (193, -1.50000000000000000000e+03) (194, -9.68805503845214843750e+00) (195, -3.16019296646118164062e+00) (196, 4.33863699436187744141e-01) (197, 1.50000000000000000000e+03) (198, 2.34428569674491882324e-01) (199, 3.50369125604629516602e-01) (200, 1.50000000000000000000e+03) (201, -2.98342674970626831055e-01) (202, -3.88940781354904174805e-01) (203, 4.01362448930740356445e-01) (204, -1.81849360466003417969e-01) (205, 4.30971413850784301758e-01) (206, 5.42513906955718994141e-01) (207, -4.45628762245178222656e-01) (208, -4.69840079545974731445e-01) (209, 1.50000000000000000000e+03) (210, 2.00641655921936035156e+00) (211, 1.50000000000000000000e+03) (212, -1.78584352135658264160e-01) (213, 4.81975406408309936523e-01) (214, -9.97145996093750000000e+02) (215, 1.50000000000000000000e+03) (216, 5.17226171493530273438e+00) (217, 4.41423952579498291016e-01) (218, 5.88839530944824218750e-01) (219, -3.51190093994140625000e+02) (220, -1.50000000000000000000e+03) (221, 7.60028839111328125000e-01) (222, 1.50000000000000000000e+03) (223, 7.32044100761413574219e-01) (224, 3.59374046325683593750e-01) (225, 1.50000000000000000000e+03) (226, 5.32642066478729248047e-01) (227, 3.97425264120101928711e-01) (228, -1.50000000000000000000e+03) (229, 1.50000000000000000000e+03) (230, -1.50000000000000000000e+03) (231, 7.43610501289367675781e-01) (232, 1.50000000000000000000e+03) (233, 2.22280815243721008301e-01) (234, 2.47960373759269714355e-01) (235, 1.50000000000000000000e+03) (236, -2.70155042409896850586e-01) (237, -3.41596662998199462891e-01) (238, 3.59058797359466552734e-01) (239, -1.99543520808219909668e-01) (240, 4.36066061258316040039e-01) (241, 5.08981406688690185547e-01) (242, -2.94662892818450927734e-01) (243, -3.60627144575119018555e-01) (244, 1.50000000000000000000e+03) (245, 1.50000000000000000000e+03) (246, 1.50000000000000000000e+03) (247, -8.19088073730468750000e+02) (248, 1.50000000000000000000e+03) (249, -5.11174964904785156250e+01) (250, 4.49097871780395507812e+00) (251, -1.50000000000000000000e+03) (252, 1.50000000000000000000e+03) (253, 5.00904798507690429688e+00) (254, 3.80798161029815673828e-01) (255, 4.98259276151657104492e-01) (256, -3.31673431396484375000e+01) (257, -1.50000000000000000000e+03) (258, 5.03587186336517333984e-01) (259, 4.85468178987503051758e-01) (260, 4.71436828374862670898e-01) (261, 3.45619976520538330078e-01) (262, 1.50000000000000000000e+03) (263, 3.16380859375000000000e+02) (264, 3.55409920215606689453e-01) (265, -1.12482153320312500000e+03) (266, 1.50000000000000000000e+03) (267, 1.50000000000000000000e+03) (268, 5.94747066497802734375e-02) (269, 2.91733682155609130859e-01) (270, 1.50000000000000000000e+03) (271, -4.19568240642547607422e-01) (272, -3.36259603500366210938e-01) (273, 4.74430769681930541992e-01) (274, 8.69021654129028320312e-01) (275, 4.44378644227981567383e-01) (276, 4.64709788560867309570e-01) (277, -3.10616701841354370117e-01) (278, -4.67039138078689575195e-01) (279, 1.50000000000000000000e+03) (280, 5.59816956520080566406e-01) (281, 1.50000000000000000000e+03) (282, 5.75850784778594970703e-01) (283, 1.50000000000000000000e+03) (284, 1.50000000000000000000e+03) (285, -8.11155151367187500000e+02) (286, 1.91359588623046875000e+02) (287, 1.38476884365081787109e+00) (288, 7.93477535247802734375e-01) (289, 1.34342489242553710938e+01) (290, 1.50000000000000000000e+03) (291, 3.14710587263107299805e-01) (292, 1.50000000000000000000e+03) (293, 5.45509159564971923828e-01) (294, 2.98937976360321044922e-01) (295, 1.50000000000000000000e+03) (296, 6.48260414600372314453e-01) (297, 6.34197056293487548828e-01) (298, 1.49836511230468750000e+03) (299, -7.79821109771728515625e+00) (300, 1.72515404224395751953e+00) (301, -1.17265987396240234375e+01) (302, 1.50000000000000000000e+03) (303, 2.29133114218711853027e-01) (304, 2.36704990267753601074e-01) (305, 1.50000000000000000000e+03) (306, -4.33377504348754882812e-01) (307, -4.17481273412704467773e-01) (308, 4.44908112287521362305e-01) (309, 7.49053776264190673828e-01) (310, 5.19677519798278808594e-01) (311, 5.86649060249328613281e-01) (312, -3.56277376413345336914e-01) (313, -4.56838399171829223633e-01) (314, 1.50000000000000000000e+03) (315, 4.06337082386016845703e-01) (316, 1.50000000000000000000e+03) (317, 1.50000000000000000000e+03) (318, -1.50000000000000000000e+03) (319, 1.50000000000000000000e+03) (320, -1.89309982299804687500e+02) (321, 7.52336406707763671875e+00) (322, 1.50000000000000000000e+03) (323, -1.50000000000000000000e+03) (324, 1.50000000000000000000e+03) (325, 1.50000000000000000000e+03) (326, 1.50000000000000000000e+03) (327, -1.50000000000000000000e+03) (328, -1.50000000000000000000e+03) (329, -1.50000000000000000000e+03) (330, 4.05070543289184570312e-01) (331, 1.50000000000000000000e+03) (332, 1.50000000000000000000e+03) (333, -1.50000000000000000000e+03) (334, 1.50000000000000000000e+03) (335, 3.02102264404296875000e+02) (336, -1.94971632957458496094e+00) (337, 1.50000000000000000000e+03) (338, 6.78246319293975830078e-02) (339, 2.43476673960685729980e-01) (340, 1.50000000000000000000e+03) (341, -3.19391429424285888672e-01) (342, -2.88769125938415527344e-01) (343, 4.87399309873580932617e-01) (344, 8.73237192630767822266e-01) (345, 5.23926138877868652344e-01) (346, 5.17906427383422851562e-01) (347, -3.10178309679031372070e-01) (348, -4.85933154821395874023e-01) (349, 1.50000000000000000000e+03) (350, 1.49993115234375000000e+03) (351, -1.50000000000000000000e+03) (352, -1.49998583984375000000e+03) (353, 4.16054420471191406250e+01) (354, 1.50000000000000000000e+03) (355, 1.50000000000000000000e+03) (356, -1.50000000000000000000e+03) (357, 3.14430177211761474609e-01) (358, 6.95833358764648437500e+01) (359, -1.50000000000000000000e+03) (360, -1.50000000000000000000e+03) (361, 1.50000000000000000000e+03) (362, 4.75150146484375000000e+01) (363, 4.95613545179367065430e-01) (364, 1.76709899902343750000e+02) (365, -1.50000000000000000000e+03) (366, 5.14166831970214843750e+00) (367, 5.65206646919250488281e-01) (368, -1.50000000000000000000e+03) (369, 1.49968640136718750000e+03) (370, -1.04858741164207458496e-01) (371, 9.02425825595855712891e-01) (372, 1.49996191406250000000e+03) (373, 2.14525192975997924805e-01) (374, 4.57572221755981445312e-01) (375, 1.50000000000000000000e+03) (376, -3.42614173889160156250e-01) (377, -3.61107975244522094727e-01) (378, 3.68609666824340820312e-01) (379, 1.16790950298309326172e+00) (380, 4.53266680240631103516e-01) (381, 5.66343724727630615234e-01) (382, -3.85792195796966552734e-01) (383, -3.74172747135162353516e-01) (384, 1.50000000000000000000e+03) (385, 4.28518384695053100586e-01) (386, 4.74371528625488281250e+01) (387, 1.50000000000000000000e+03) (388, 1.50000000000000000000e+03) (389, 1.02041900157928466797e-01) (390, -1.38587379455566406250e+00) (391, -1.50000000000000000000e+03) (392, -1.50000000000000000000e+03) (393, 1.50000000000000000000e+03) (394, -1.50000000000000000000e+03) (395, -1.50000000000000000000e+03) (396, 6.83009803295135498047e-01) (397, 1.50000000000000000000e+03) (398, 1.41807675361633300781e+00) (399, 6.99533224105834960938e-01) (400, 1.50000000000000000000e+03) (401, 2.00086623430252075195e-01) (402, -1.50000000000000000000e+03) (403, 1.50000000000000000000e+03) (404, 6.78067743778228759766e-01) (405, -2.46376399993896484375e+01) (406, 1.50000000000000000000e+03) (407, 1.50000000000000000000e+03) (408, 1.73785194754600524902e-01) (409, 4.01322096586227416992e-01) (410, 4.71042556762695312500e+01) (411, -4.46559876203536987305e-01) (412, -4.44379389286041259766e-01) (413, 4.45842176675796508789e-01) (414, -9.27970504760742187500e+01) (415, 6.07899129390716552734e-01) (416, 4.68693703413009643555e-01) (417, -4.56555783748626708984e-01) (418, -4.51203465461730957031e-01) (419, 1.50000000000000000000e+03) (420, 1.50000000000000000000e+03) (421, 1.26596899414062500000e+03) (422, -1.49905371093750000000e+03) (423, 4.76732581853866577148e-01) (424, 5.58786749839782714844e-01) (425, -1.50000000000000000000e+03) (426, 1.50000000000000000000e+03) (427, 1.50000000000000000000e+03) (428, 1.49710449218750000000e+03) (429, 1.50000000000000000000e+03) (430, 1.50000000000000000000e+03) (431, 5.77132582664489746094e-01) (432, -1.50000000000000000000e+03) (433, 1.50000000000000000000e+03) (434, 1.50000000000000000000e+03) (435, 1.50000000000000000000e+03) (436, 1.50000000000000000000e+03) (437, 1.50000000000000000000e+03) (438, 1.14519737243652343750e+02) (439, 5.31283080577850341797e-01) (440, -1.50000000000000000000e+03) (441, 1.50000000000000000000e+03) (442, 1.50000000000000000000e+03) (443, 1.76180437207221984863e-01) (444, 3.54844331741333007812e-01) (445, 1.50000000000000000000e+03) (446, -1.31177186965942382812e+00) (447, -3.50509226322174072266e-01) (448, 5.00122845172882080078e-01) (449, -6.86297760009765625000e+01) (450, 4.55729156732559204102e-01) (451, 6.63512825965881347656e-01) (452, -4.29217398166656494141e-01) (453, -3.51310253143310546875e-01) (454, 1.50000000000000000000e+03) (455, -1.49716348648071289062e+01) (456, 1.50000000000000000000e+03) (457, -1.50000000000000000000e+03) (458, 4.35396581888198852539e-01) (459, 1.50000000000000000000e+03) (460, -1.50000000000000000000e+03) (461, 1.50000000000000000000e+03) (462, 1.50000000000000000000e+03) (463, -1.50000000000000000000e+03) (464, 1.50000000000000000000e+03) (465, 1.50000000000000000000e+03) (466, -1.50000000000000000000e+03) (467, -1.50000000000000000000e+03) (468, 6.63721263408660888672e-01) (469, 4.03534680604934692383e-01) (470, 4.81729477643966674805e-01) (471, 5.21253705024719238281e-01) (472, 1.50000000000000000000e+03) (473, 1.50000000000000000000e+03) (474, 1.50000000000000000000e+03) (475, -1.50000000000000000000e+03) (476, 1.50000000000000000000e+03) (477, 1.50000000000000000000e+03) (478, 8.27901735901832580566e-02) (479, 3.90240103006362915039e-01) (480, 1.16273254394531250000e+03) (481, -5.40102005004882812500e-01) (482, -3.07885080575942993164e-01) (483, 4.93314176797866821289e-01) (484, -3.73323028564453125000e+02) (485, 4.76850718259811401367e-01) (486, 6.17732524871826171875e-01) (487, -4.01950269937515258789e-01) (488, -3.53393048048019409180e-01) (489, 1.50000000000000000000e+03) (490, 3.89274383544921875000e+02) (491, 1.50000000000000000000e+03) (492, -2.19674243927001953125e+01) (493, 1.50000000000000000000e+03) (494, 1.50000000000000000000e+03) (495, 2.37696838378906250000e+00) (496, 1.50000000000000000000e+03) (497, 3.97425264120101928711e-01) (498, 1.50000000000000000000e+03) (499, 6.54359340667724609375e-01) (500, 1.50000000000000000000e+03) (501, 1.50000000000000000000e+03) (502, -1.11288977050781250000e+03) (503, 1.50000000000000000000e+03) (504, 1.50000000000000000000e+03) (505, 5.43930411338806152344e-01) (506, -9.77775692939758300781e-01) (507, 1.49312922731041908264e-02) (508, -7.47457763671875000000e+02) (509, -1.50000000000000000000e+03) (510, -1.50000000000000000000e+03) (511, 1.50000000000000000000e+03) (512, 4.57058105468750000000e+02) (513, 2.16486424207687377930e-01) (514, 3.99938941001892089844e-01) (515, 1.50000000000000000000e+03) (516, -2.39825919270515441895e-01) (517, -3.33650559186935424805e-01) (518, 5.00927746295928955078e-01) (519, -6.86982269287109375000e+01) (520, 4.30538386106491088867e-01) (521, 4.92026478052139282227e-01) (522, -3.32228988409042358398e-01) (523, -4.07990187406539916992e-01) (524, 1.50000000000000000000e+03) (525, 6.32730782032012939453e-01) (526, -1.50000000000000000000e+03) (527, 1.50000000000000000000e+03) (528, 1.50000000000000000000e+03) (529, -3.68466854095458984375e+00) (530, 1.34947085380554199219e+00) (531, 1.50000000000000000000e+03) (532, -4.02140922546386718750e+01) (533, 2.30579376220703125000e+02) (534, -3.00594635009765625000e+02) (535, 2.95651108026504516602e-01) (536, 1.50000000000000000000e+03) (537, 7.82416045665740966797e-01) (538, 7.43945419788360595703e-01) (539, 1.50000000000000000000e+03) (540, 5.25669693946838378906e-01) (541, -1.30853027343750000000e+03) (542, 5.35997986793518066406e-01) (543, 3.96747322082519531250e+01) (544, 1.38016188144683837891e+00) (545, 3.79091918468475341797e-01) (546, 1.50000000000000000000e+03) (547, -6.19046258926391601562e+00) (548, 2.38505139946937561035e-01) (549, 3.09462070465087890625e-01) (550, 1.50000000000000000000e+03) (551, -2.61657565832138061523e-01) (552, -3.29573005437850952148e-01) (553, 4.02190327644348144531e-01) (554, -2.15081920623779296875e+01) (555, 5.75952410697937011719e-01) (556, 5.11675894260406494141e-01) (557, -3.38581651449203491211e-01) (558, -3.69615674018859863281e-01) (559, 1.50000000000000000000e+03) (560, 9.16972732543945312500e+00) (561, 1.50000000000000000000e+03) (562, -1.50000000000000000000e+03) (563, 3.78325760364532470703e-01) (564, 6.21760547161102294922e-01) (565, 1.50000000000000000000e+03) (566, 4.78620117187500000000e+02) (567, 3.63952484130859375000e+01) (568, 3.71266156435012817383e-01) (569, 1.50000000000000000000e+03) (570, 1.50000000000000000000e+03) (571, 5.64800918102264404297e-01) (572, 1.50000000000000000000e+03) (573, 3.82945716381072998047e-01) (574, -1.50000000000000000000e+03) (575, 5.11300921440124511719e-01) (576, 5.28894126415252685547e-01) (577, 1.04914653301239013672e+00) (578, 1.50000000000000000000e+03) (579, -1.50000000000000000000e+03) (580, 6.96709990501403808594e-01) (581, 1.50000000000000000000e+03) (582, -1.50000000000000000000e+03) (583, 2.30262279510498046875e-01) (584, 3.22068572044372558594e-01) (585, 1.50000000000000000000e+03) (586, -3.28009605407714843750e-01) (587, -2.96022385358810424805e-01) (588, 4.49291408061981201172e-01) (589, -1.66723692417144775391e+00) (590, 6.13391697406768798828e-01) (591, 5.69637238979339599609e-01) (592, -2.82362252473831176758e-01) (593, -3.60390126705169677734e-01) (594, 1.50000000000000000000e+03) (595, 1.50000000000000000000e+03) (596, -1.50000000000000000000e+03) (597, -1.31466174125671386719e+00) (598, 4.50648605823516845703e-01) (599, 3.27890739440917968750e+01) (600, 1.50000000000000000000e+03) (601, 1.50000000000000000000e+03) (602, 1.49994982910156250000e+03) (603, 1.50000000000000000000e+03) (604, 8.53017902374267578125e+00) (605, 6.48071587085723876953e-01) (606, -7.37940444946289062500e+01) (607, -3.90665125846862792969e+00) (608, 4.12851601839065551758e-01) (609, 5.83068907260894775391e-01) (610, 5.16613781452178955078e-01) (611, 4.89754867553710937500e+01) (612, 1.44519960880279541016e+00) (613, -1.50000000000000000000e+03) (614, 9.76924479007720947266e-01) (615, 4.86455500125885009766e-01) (616, 1.50000000000000000000e+03) (617, -1.50000000000000000000e+03) (618, 9.05935242772102355957e-02) (619, 3.79981219768524169922e-01) (620, 1.50000000000000000000e+03) (621, -5.63014090061187744141e-01) (622, -3.81069839000701904297e-01) (623, 3.69290351867675781250e-01) (624, -2.19027614593505859375e+01) (625, 4.36285436153411865234e-01) (626, 5.37039756774902343750e-01) (627, -4.42836433649063110352e-01) (628, -3.63626748323440551758e-01) (629, 1.50000000000000000000e+03) (630, 5.68506717681884765625e-01) (631, 1.50000000000000000000e+03) (632, 1.50000000000000000000e+03) (633, 1.50000000000000000000e+03) (634, -3.74286422729492187500e+01) (635, 1.50000000000000000000e+03) (636, 4.06698656082153320312e+00) (637, 1.35718071460723876953e+00) (638, 1.50000000000000000000e+03) (639, 1.50000000000000000000e+03) (640, -1.50000000000000000000e+03) (641, 1.50000000000000000000e+03) (642, -1.50000000000000000000e+03) (643, 4.60210540771484375000e+02) (644, 1.50000000000000000000e+03) (645, 6.91876590251922607422e-01) (646, 5.15735507011413574219e-01) (647, -1.50000000000000000000e+03) (648, -1.50000000000000000000e+03) (649, -1.50000000000000000000e+03) (650, 6.87431037425994873047e-01) (651, 1.50000000000000000000e+03) (652, -1.50000000000000000000e+03) (653, 1.15896537899971008301e-01) (654, 3.32077413797378540039e-01) (655, 1.50000000000000000000e+03) (656, -3.78659307956695556641e-01) (657, -4.35887783765792846680e-01) (658, 3.71786117553710937500e-01) (659, -2.22626607865095138550e-02) (660, 4.32770490646362304688e-01) (661, 4.68922942876815795898e-01) (662, -2.64650285243988037109e-01) (663, -4.13313657045364379883e-01) (664, 1.50000000000000000000e+03) (665, 4.60353732109069824219e-01) (666, 1.50000000000000000000e+03) (667, 1.50000000000000000000e+03) (668, 6.66797518730163574219e-01) (669, 1.50000000000000000000e+03) (670, 1.50000000000000000000e+03) (671, 1.50000000000000000000e+03) (672, -4.91055450439453125000e+01) (673, 2.20972480773925781250e+01) (674, 4.24446970224380493164e-01) (675, 5.23798406124114990234e-01) (676, 1.50000000000000000000e+03) (677, 1.50000000000000000000e+03) (678, 4.43493962287902832031e-01) (679, 2.16883730888366699219e+00) (680, 6.69415295124053955078e-01) (681, 2.80112445354461669922e-01) (682, -1.50000000000000000000e+03) (683, 1.50000000000000000000e+03) (684, 1.50000000000000000000e+03) (685, 5.66390633583068847656e-01) (686, 1.50000000000000000000e+03) (687, -1.50000000000000000000e+03) (688, 2.17347547411918640137e-01) (689, 2.18323633074760437012e-01) (690, 1.50000000000000000000e+03) (691, -2.62224942445755004883e-01) (692, -4.16056960821151733398e-01) (693, 3.57375234365463256836e-01) (694, 1.01991200447082519531e+00) (695, 5.62630355358123779297e-01) (696, 6.15873575210571289062e-01) (697, -3.39526027441024780273e-01) (698, -4.30326700210571289062e-01) (699, 1.50000000000000000000e+03) (700, 9.77905154228210449219e-01) (701, 1.50000000000000000000e+03) (702, 5.05310356616973876953e-01) (703, 5.59097707271575927734e-01) (704, 1.50000000000000000000e+03) (705, 1.02296657562255859375e+01) (706, -1.50000000000000000000e+03) (707, 3.99942994117736816406e+00) (708, 3.88421654701232910156e-01) (709, 1.50000000000000000000e+03) (710, 1.50000000000000000000e+03) (711, -6.31545305252075195312e-01) (712, -1.50000000000000000000e+03) (713, 5.54100811481475830078e-01) (714, 1.50000000000000000000e+03) (715, 4.42716270685195922852e-01) (716, 5.66155850887298583984e-01) (717, 1.50000000000000000000e+03) (718, 1.50000000000000000000e+03) (719, 4.61612135171890258789e-01) (720, 6.99880778789520263672e-01) (721, 1.50000000000000000000e+03) (722, -1.50000000000000000000e+03) (723, 2.59370237588882446289e-01) (724, 3.31485241651535034180e-01) (725, 1.50000000000000000000e+03) (726, -3.61133992671966552734e-01) (727, -3.50762933492660522461e-01) (728, 4.89608436822891235352e-01) (729, 3.69802974164485931396e-02) (730, 5.65394818782806396484e-01) (731, 5.59549808502197265625e-01) (732, -4.12526309490203857422e-01) (733, -3.51600289344787597656e-01) (734, 1.50000000000000000000e+03) (735, 7.07033216953277587891e-01) (0, 5.40214240550994873047e-01) (1, 4.72822456359863281250e+01) (2, 2.79904723167419433594e-01) (3, -5.21904706954956054688e+00) (4, -2.69820880889892578125e+00) (5, -3.92008686065673828125e+00) (6, -3.38572196960449218750e+01) (7, 1.01969814300537109375e+00) (8, 6.79753589630126953125e+00) (9, 2.43209868669509887695e-01) (10, -2.58998823165893554688e+00) (11, 1.18719077110290527344e+00) (12, 4.20018553733825683594e-01) (13, 8.42662900686264038086e-02) (14, -2.46935343742370605469e+00) (15, -4.29307520389556884766e-02) (16, 1.43880057334899902344e+00) (17, 2.65573811531066894531e+00) (18, 7.28385696411132812500e+01) (19, -5.31673479080200195312e+00) (20, -3.16092324256896972656e+00) (21, 5.19867718219757080078e-01) (22, 2.36791443824768066406e+00) (23, -4.26297187805175781250e-02) (24, 1.94140955805778503418e-01) (25, 6.74904167652130126953e-01) (26, -4.08923357725143432617e-01) (27, -4.35509324073791503906e-01) (28, -3.34850287437438964844e+00) (29, -6.52717530727386474609e-01) (30, 5.61549425125122070312e-01) (31, 3.91943931579589843750e-01) (32, -5.32811582088470458984e-01) (33, -5.22048413753509521484e-01) (34, 1.50000000000000000000e+03) (35, -4.59367895126342773438e+00) (36, 2.17920875549316406250e+01) (37, 1.38998901844024658203e+00) (38, 1.07382154464721679688e+01) (39, -8.26605260372161865234e-01) (40, -1.87772142887115478516e+00) (41, 1.08280515670776367188e+01) (42, 2.98950403928756713867e-01) (43, 1.12356567382812500000e+00) (44, 3.99419873952865600586e-01) (45, 3.06584060192108154297e-01) (46, -8.87137794494628906250e+00) (47, -3.81369948387145996094e+00) (48, 1.92346405237913131714e-02) (49, 4.81564961373805999756e-02) (50, 3.77950012683868408203e-01) (51, 7.92717784643173217773e-02) (52, 4.20711338520050048828e-01) (53, -1.75304546356201171875e+01) (54, -2.46373657137155532837e-02) (55, 3.10387104749679565430e-01) (56, -6.57194256782531738281e-02) (57, -4.91178125143051147461e-01) (58, -1.79079651832580566406e-01) (59, 1.01129360496997833252e-01) (60, 8.86125564575195312500e-01) (61, -3.56858044862747192383e-01) (62, -4.81316208839416503906e-01) (63, -9.91328284144401550293e-02) (64, -4.63481664657592773438e-01) (65, 4.95001554489135742188e-01) (66, 4.37425464391708374023e-01) (67, -4.26932215690612792969e-01) (68, -4.14062470197677612305e-01) (69, 1.50000000000000000000e+03) (70, -1.86313533782958984375e+00) (71, 1.69664630889892578125e+01) (72, -1.70141786336898803711e-01) (73, -2.17964506149291992188e+00) (74, 4.44351524114608764648e-01) (75, 3.90544104576110839844e+00) (76, -7.86168575286865234375e+00) (77, 6.98101663589477539062e+00) (78, 6.43630933761596679688e+00) (79, 2.22186923027038574219e+00) (80, -1.41396328806877136230e-01) (81, 1.33189487457275390625e+00) (82, 8.43189525604248046875e+00) (83, 8.96462917327880859375e+00) (84, -1.00313816070556640625e+01) (85, 2.37458199262619018555e-02) (86, -1.78845179080963134766e+00) (87, 1.46528482437133789062e-01) (88, 1.68299942016601562500e+01) (89, -1.43288683891296386719e+00) (90, -7.22891926765441894531e-01) (91, 1.76914513111114501953e-01) (92, -4.40955013036727905273e-01) (93, -1.58786162734031677246e-01) (94, 2.13115543127059936523e-01) (95, 7.76634454727172851562e-01) (96, -4.29944843053817749023e-01) (97, -5.41293561458587646484e-01) (98, -1.03498034179210662842e-01) (99, -4.28262263536453247070e-01) (100, 5.70942103862762451172e-01) (101, 4.19232368469238281250e-01) (102, -3.78307163715362548828e-01) (103, -5.20818293094635009766e-01) (104, 1.50000000000000000000e+03) (105, -1.24935925006866455078e+00) (106, -2.92648458480834960938e+00) (107, -3.07852888107299804688e+00) (108, -1.35634481906890869141e+00) (109, -2.85461634397506713867e-01) (110, 3.59981513023376464844e+00) (111, -1.19074087142944335938e+01) (112, 7.26322710514068603516e-01) (113, 8.93120944499969482422e-01) (114, -1.62561848759651184082e-01) (115, -1.06945486068725585938e+01) (116, 1.10393953323364257812e+01) (117, -4.66619469225406646729e-02) (118, 2.34395003318786621094e+00) (119, -2.45182323455810546875e+00) (120, 1.69930383563041687012e-01) (121, -1.52885103225708007812e+00) (122, -6.13939821720123291016e-01) (123, -1.02238111495971679688e+01) (124, 3.97909116744995117188e+00) (125, -1.34552490711212158203e+00) (126, 4.83722180128097534180e-01) (127, 1.37823545932769775391e+00) (128, -3.89073304831981658936e-02) (129, 1.37825578451156616211e-01) (130, 7.31955170631408691406e-01) (131, -4.34124320745468139648e-01) (132, -4.34801518917083740234e-01) (133, -9.95524302124977111816e-02) (134, -5.39206981658935546875e-01) (135, 5.87929069995880126953e-01) (136, 4.36222791671752929688e-01) (137, -4.03318703174591064453e-01) (138, -4.01979476213455200195e-01) (139, 1.50000000000000000000e+03) (140, 2.91436314582824707031e+00) (141, -8.42582416534423828125e+00) (142, 1.02815723419189453125e+00) (143, 6.09725177288055419922e-01) (144, -5.79041719436645507812e-01) (145, 3.58682680130004882812e+00) (146, -3.29224243164062500000e+01) (147, 3.21593016386032104492e-01) (148, 7.55094885826110839844e-01) (149, 3.03733444213867187500e+00) (150, 3.06914749145507812500e+01) (151, -1.21173639297485351562e+01) (152, 2.09012675285339355469e+00) (153, 2.44616150856018066406e+00) (154, 1.44640278816223144531e+00) (155, -4.78034257888793945312e+00) (156, 3.00847721099853515625e+00) (157, 3.16489726305007934570e-01) (158, 4.48086500167846679688e+00) (159, 7.22635889053344726562e+00) (160, 5.25890827178955078125e-01) (161, 2.09977373480796813965e-01) (162, -2.31314986944198608398e-01) (163, -1.04925081133842468262e-01) (164, 1.54911920428276062012e-01) (165, 7.61329889297485351562e-01) (166, -2.89356768131256103516e-01) (167, -3.95050495862960815430e-01) (168, 2.50638753175735473633e-01) (169, -2.85136342048645019531e-01) (170, 6.49383842945098876953e-01) (171, 5.28743743896484375000e-01) (172, -3.89852702617645263672e-01) (173, -3.81984204053878784180e-01) (174, 1.50000000000000000000e+03) (175, 8.96087586879730224609e-01) (176, 1.43886756896972656250e+00) (177, 3.11646437644958496094e+00) (178, -6.13306462764739990234e-02) (179, 9.08559679985046386719e-01) (180, 9.18472480773925781250e+00) (181, -3.34068393707275390625e+00) (182, 3.36332941055297851562e+00) (183, -1.09238541126251220703e+00) (184, 3.58603626489639282227e-01) (185, 5.73737478256225585938e+00) (186, -2.73165535926818847656e+00) (187, 4.10842037200927734375e+00) (188, 4.09778982400894165039e-01) (189, 2.90362524986267089844e+00) (190, -1.02180933952331542969e+00) (191, -1.26977956295013427734e+00) (192, 1.65178811550140380859e+00) (193, -5.77319003641605377197e-02) (194, -7.30350732803344726562e-01) (195, 8.46996188163757324219e-01) (196, -2.15847313404083251953e-01) (197, 9.03668820858001708984e-01) (198, -2.66676768660545349121e-02) (199, 1.30842477083206176758e-01) (200, 8.50561738014221191406e-01) (201, -3.71341019868850708008e-01) (202, -3.57811301946640014648e-01) (203, 3.32167953252792358398e-01) (204, -3.69580090045928955078e-01) (205, 6.36590301990509033203e-01) (206, 5.34229576587677001953e-01) (207, -4.09482598304748535156e-01) (208, -3.92666548490524291992e-01) (209, 1.50000000000000000000e+03) (210, 8.96325302124023437500e+00) (211, -1.06168737411499023438e+01) (212, 3.66672682762145996094e+00) (213, 3.61909198760986328125e+00) (214, 2.51555681228637695312e-01) (215, 2.12498140335083007812e+00) (216, -3.98402214050292968750e+00) (217, 1.91196990013122558594e+00) (218, 8.14756572246551513672e-01) (219, -3.12090134620666503906e+00) (220, -1.33639240264892578125e+00) (221, 1.01442076265811920166e-03) (222, 2.18098716735839843750e+01) (223, 5.99064254760742187500e+00) (224, 5.98346650600433349609e-01) (225, 3.43581467866897583008e-01) (226, -7.97085762023925781250e-01) (227, 3.81586998701095581055e-02) (228, 4.13268709182739257812e+00) (229, 1.17895154953002929688e+01) (230, 2.87775725126266479492e-01) (231, 2.94559121131896972656e-01) (232, 3.07835221290588378906e-01) (233, -1.86407435685396194458e-02) (234, 1.42233625054359436035e-01) (235, 7.84972429275512695312e-01) (236, -3.76107782125473022461e-01) (237, -3.40934246778488159180e-01) (238, 2.46954724192619323730e-01) (239, -3.85029375553131103516e-01) (240, 6.66222512722015380859e-01) (241, 5.24973690509796142578e-01) (242, -4.76132690906524658203e-01) (243, -3.65603297948837280273e-01) (244, 1.50000000000000000000e+03) (245, 1.13814544677734375000e+00) (246, 2.80603647232055664062e+00) (247, 3.14029288291931152344e+00) (248, 1.86123275756835937500e+00) (249, 6.28086757659912109375e+00) (250, 1.53098564147949218750e+01) (251, -1.86488838195800781250e+01) (252, 1.00458812713623046875e+00) (253, 6.94528579711914062500e+00) (254, 6.26072406768798828125e+00) (255, 1.59956865310668945312e+01) (256, 6.86936497688293457031e-01) (257, -5.03509664535522460938e+00) (258, 1.43729293346405029297e+00) (259, -6.31068849563598632812e+00) (260, -7.22195434570312500000e+00) (261, -5.74598503112792968750e+00) (262, 6.26338362693786621094e-01) (263, -1.01639280319213867188e+01) (264, -3.79261684417724609375e+00) (265, 2.10492706298828125000e+00) (266, 3.29618424177169799805e-01) (267, 5.32318067550659179688e+00) (268, -1.79315768182277679443e-02) (269, 2.32188954949378967285e-01) (270, 1.60304164886474609375e+00) (271, -3.42818588018417358398e-01) (272, -4.69719290733337402344e-01) (273, 6.39881849288940429688e-01) (274, -5.32726168632507324219e-01) (275, 6.00783824920654296875e-01) (276, 4.30209904909133911133e-01) (277, -3.69946151971817016602e-01) (278, -5.25221824645996093750e-01) (279, 1.50000000000000000000e+03) (280, 1.29436540603637695312e+00) (281, -8.57122898101806640625e+00) (282, 3.34641546010971069336e-01) (283, -2.26332455873489379883e-01) (284, 6.42850017547607421875e+00) (285, 3.18614959716796875000e-01) (286, 6.89185047149658203125e+00) (287, -3.69588971138000488281e+00) (288, 4.74943017959594726562e+00) (289, -2.25826039910316467285e-01) (290, 4.39577907323837280273e-01) (291, -4.17282152175903320312e+00) (292, 1.50396337509155273438e+01) (293, -2.32696390151977539062e+00) (294, 3.66777569055557250977e-01) (295, 1.23654615879058837891e+00) (296, 3.05266380310058593750e-01) (297, -5.32652795314788818359e-01) (298, 4.41498088836669921875e+00) (299, -3.67007040977478027344e+00) (300, -1.30576837062835693359e+00) (301, 1.78652250766754150391e+00) (302, 4.93687003850936889648e-01) (303, -1.47591367363929748535e-01) (304, 1.48079335689544677734e-01) (305, 1.67158031463623046875e+00) (306, -3.25215131044387817383e-01) (307, -4.51511502265930175781e-01) (308, 6.18752002716064453125e-01) (309, -4.73716139793395996094e-01) (310, 5.44949710369110107422e-01) (311, 4.56434398889541625977e-01) (312, -5.28665304183959960938e-01) (313, -5.22952437400817871094e-01) (314, 1.50000000000000000000e+03) (315, -1.77787446975708007812e+00) (316, -3.10288786888122558594e+00) (317, 1.60177314281463623047e+00) (318, 4.14773273468017578125e+00) (319, -1.30176711082458496094e+00) (320, 2.47204208374023437500e+01) (321, 3.24486088752746582031e+00) (322, 2.05113077163696289062e+00) (323, 1.44506919384002685547e+00) (324, -3.19826889038085937500e+00) (325, -5.75740432739257812500e+01) (326, 9.48957860469818115234e-01) (327, 8.87370109558105468750e+00) (328, -1.46626644134521484375e+01) (329, 1.05020689964294433594e+00) (330, -1.95870280265808105469e+00) (331, 7.44870662689208984375e-01) (332, 4.23016697168350219727e-01) (333, 1.46160469055175781250e+01) (334, 1.78427958488464355469e+00) (335, -2.97458720207214355469e+00) (336, 2.71751518249511718750e+01) (337, 1.09004058837890625000e+01) (338, -1.51960313320159912109e-01) (339, 2.32461586594581604004e-01) (340, 1.56859302520751953125e+00) (341, -3.85410636663436889648e-01) (342, -5.40872454643249511719e-01) (343, 5.57021617889404296875e-01) (344, -5.31638383865356445312e-01) (345, 5.48931300640106201172e-01) (346, 4.26034003496170043945e-01) (347, -4.29983466863632202148e-01) (348, -5.14845848083496093750e-01) (349, 1.50000000000000000000e+03) (350, -1.61895828247070312500e+01) (351, 1.87603073120117187500e+01) (352, -3.75899851322174072266e-01) (353, -2.39272928237915039062e+00) (354, 5.60259485244750976562e+00) (355, -3.05185890197753906250e+00) (356, 3.47755203247070312500e+01) (357, 6.36808204650878906250e+00) (358, -3.84548380970954895020e-02) (359, 2.96305680274963378906e+00) (360, -1.28620010375976562500e+02) (361, 2.80389423370361328125e+01) (362, 8.24814758300781250000e+01) (363, 5.52452707290649414062e+00) (364, -1.35310292243957519531e+00) (365, 6.95517838001251220703e-01) (366, 6.47878112792968750000e+01) (367, 9.82843303680419921875e+00) (368, 9.07449722290039062500e+01) (369, 1.75383758544921875000e+00) (370, -1.17766427993774414062e+00) (371, 1.50000000000000000000e+03) (372, 1.50000000000000000000e+03) (373, -3.66100706160068511963e-02) (374, 2.41823509335517883301e-01) (375, 4.29952681064605712891e-01) (376, -2.67485350370407104492e-01) (377, -4.66263651847839355469e-01) (378, 7.33167409896850585938e-01) (379, -5.57245969772338867188e-01) (380, 6.46856725215911865234e-01) (381, 4.42108988761901855469e-01) (382, -3.50233584642410278320e-01) (383, -4.05464529991149902344e-01) (384, 1.50000000000000000000e+03) (385, -2.35303020477294921875e+01) (386, -3.08514738082885742188e+00) (387, -3.35188531875610351562e+00) (388, -2.52600784301757812500e+01) (389, 2.72530722618103027344e+00) (390, 3.31586003303527832031e+00) (391, -3.18074440956115722656e+00) (392, -1.87924337387084960938e+00) (393, -2.77486038208007812500e+00) (394, 1.20970976352691650391e+00) (395, -1.96375770568847656250e+01) (396, -1.53652925491333007812e+01) (397, 1.50000000000000000000e+03) (398, -1.50690755844116210938e+01) (399, -5.39538192749023437500e+00) (400, 5.75293481349945068359e-01) (401, -1.09318590164184570312e+00) (402, -1.46354641765356063843e-02) (403, 2.70470962524414062500e+01) (404, 1.48813323974609375000e+01) (405, 1.09076166152954101562e+01) (406, -8.92037963867187500000e+00) (407, 1.49998266601562500000e+03) (408, -2.23670408129692077637e-01) (409, 6.97813406586647033691e-02) (410, 3.86324673891067504883e-01) (411, -4.36304092407226562500e-01) (412, -5.99886238574981689453e-01) (413, -1.65619086474180221558e-02) (414, -1.20330524444580078125e+00) (415, 6.35227799415588378906e-01) (416, 2.12676391005516052246e-01) (417, -6.76082134246826171875e-01) (418, -5.18570899963378906250e-01) (419, 1.50000000000000000000e+03) (420, -7.24255800247192382812e+00) (421, -5.72577142715454101562e+00) (422, -5.41689920425415039062e+00) (423, -4.39817488193511962891e-01) (424, -1.53170318603515625000e+01) (425, -7.57168591022491455078e-01) (426, 2.12829170227050781250e+01) (427, 1.16622292995452880859e+00) (428, 4.42516177892684936523e-01) (429, -1.23870170116424560547e+00) (430, 3.44383418560028076172e-01) (431, 3.70961976051330566406e+00) (432, 6.97770233154296875000e+01) (433, -1.12845230102539062500e+01) (434, -1.43971219658851623535e-01) (435, 8.57483685016632080078e-01) (436, 5.41397988796234130859e-01) (437, 3.00143212080001831055e-01) (438, -7.82550668716430664062e+00) (439, 4.33061748743057250977e-01) (440, 2.21366524696350097656e+00) (441, -2.86787819862365722656e+00) (442, 2.10042686462402343750e+01) (443, -2.49572858214378356934e-01) (444, -1.37452185153961181641e-02) (445, 9.96125340461730957031e-02) (446, -4.48426336050033569336e-01) (447, -6.67001962661743164062e-01) (448, -2.90612369775772094727e-01) (449, -1.27872502803802490234e+00) (450, 5.34486949443817138672e-01) (451, 3.85948568582534790039e-01) (452, -7.98068702220916748047e-01) (453, -6.08506977558135986328e-01) (454, 1.50000000000000000000e+03) (455, -5.43930673599243164062e+00) (456, 3.27235364913940429688e+00) (457, 2.96061458587646484375e+01) (458, 5.46365916728973388672e-01) (459, -1.04439747333526611328e+00) (460, -7.29852819442749023438e+00) (461, 1.67865447998046875000e+01) (462, -4.47001123428344726562e+00) (463, 1.38030922412872314453e+00) (464, -2.31128807067871093750e+01) (465, 6.67088508605957031250e-01) (466, -4.78780317306518554688e+00) (467, 3.64044427871704101562e+00) (468, 2.14159563183784484863e-01) (469, 4.62654876708984375000e+00) (470, 2.46473997831344604492e-01) (471, 3.76732125878334045410e-02) (472, -1.48845344781875610352e-01) (473, -5.13778495788574218750e+00) (474, -6.37471199035644531250e+00) (475, 1.56042024493217468262e-01) (476, -2.38268658518791198730e-01) (477, -1.03300476074218750000e+00) (478, -2.34527602791786193848e-01) (479, 7.73373320698738098145e-02) (480, -6.69576525688171386719e-01) (481, -4.51921761035919189453e-01) (482, -5.81110239028930664062e-01) (483, -1.60184949636459350586e-01) (484, -1.28807735443115234375e+00) (485, 6.92454218864440917969e-01) (486, 2.91528701782226562500e-01) (487, -6.72924041748046875000e-01) (488, -4.90919142961502075195e-01) (489, 1.50000000000000000000e+03) (490, 2.94250398874282836914e-01) (491, 8.32551479339599609375e-01) (492, -3.38788294792175292969e+00) (493, -2.50951843261718750000e+01) (494, 2.54195880889892578125e+00) (495, 9.88597393035888671875e+00) (496, 1.33765554428100585938e+01) (497, 8.85664176940917968750e+00) (498, -7.23774766921997070312e+00) (499, 9.69482362270355224609e-01) (500, -1.13312740325927734375e+01) (501, -2.87748068571090698242e-01) (502, -6.57124805450439453125e+00) (503, -1.01852779388427734375e+01) (504, -3.96037101745605468750e+00) (505, 1.41832661628723144531e+00) (506, -2.67011475563049316406e+00) (507, 2.83295065164566040039e-01) (508, 2.31103305816650390625e+01) (509, -9.65200614929199218750e+00) (510, -7.28407621383666992188e-01) (511, 1.15909865126013755798e-02) (512, 1.65583777427673339844e+00) (513, -2.60810434818267822266e-01) (514, -2.01877027750015258789e-01) (515, -5.55355906486511230469e-01) (516, -3.33872050046920776367e-01) (517, -6.23230516910552978516e-01) (518, -1.63360536098480224609e-01) (519, -1.19029128551483154297e+00) (520, 6.26974642276763916016e-01) (521, 3.63159090280532836914e-01) (522, -6.64776742458343505859e-01) (523, -5.03517031669616699219e-01) (524, 1.50000000000000000000e+03) (525, 2.78040856122970581055e-01) (526, 4.23826265335083007812e+00) (527, 6.08146369457244873047e-01) (528, -4.76813364028930664062e+00) (529, 2.36605567932128906250e+01) (530, -2.46452593803405761719e+00) (531, 1.51209421157836914062e+01) (532, 5.65016448497772216797e-01) (533, 1.77580952644348144531e-01) (534, -1.28987467288970947266e+00) (535, -2.03754448890686035156e+00) (536, 4.31695890426635742188e+00) (537, 4.94749641418457031250e+00) (538, -2.15007233619689941406e+00) (539, -1.48085145950317382812e+01) (540, 6.43862411379814147949e-02) (541, 9.95968356728553771973e-02) (542, 2.10446462035179138184e-01) (543, 5.54252147674560546875e+00) (544, -2.13124060630798339844e+00) (545, -1.06090962886810302734e+00) (546, -2.29309827089309692383e-01) (547, 8.09545612335205078125e+00) (548, -2.17398062348365783691e-01) (549, -1.57016587257385253906e+00) (550, -8.01176249980926513672e-01) (551, -3.60021770000457763672e-01) (552, 