FANN_FLO_2.1
num_layers=4
learning_rate=0.700000
connection_rate=1.000000
network_type=0
learning_momentum=0.000000
training_algorithm=2
train_error_function=1
train_stop_function=0
cascade_output_change_fraction=0.010000
quickprop_decay=-0.000100
quickprop_mu=1.750000
rprop_increase_factor=1.200000
rprop_decrease_factor=0.500000
rprop_delta_min=0.000000
rprop_delta_max=50.000000
rprop_delta_zero=0.100000
cascade_output_stagnation_epochs=12
cascade_candidate_change_fraction=0.010000
cascade_candidate_stagnation_epochs=12
cascade_max_out_epochs=150
cascade_max_cand_epochs=150
cascade_num_candidate_groups=2
bit_fail_limit=3.49999994039535522461e-01
cascade_candidate_limit=1.00000000000000000000e+03
cascade_weight_multiplier=4.00000005960464477539e-01
cascade_activation_functions_count=10
cascade_activation_functions=3 5 7 8 10 11 14 15 16 17 
cascade_activation_steepnesses_count=4
cascade_activation_steepnesses=2.50000000000000000000e-01 5.00000000000000000000e-01 7.50000000000000000000e-01 1.00000000000000000000e+00 
layer_sizes=596 81 81 2 
scale_included=0
neurons (num_inputs, activation_function, activation_steepness)=(0, 0, 0.00000000000000000000e+00) (0, 0, 0.00000000000000000000e+00) (0, 0, 0.00000000000000000000e+00) (0, 0, 0.00000000000000000000e+00) (0, 0, 0.00000000000000000000e+00) (0, 0, 0.00000000000000000000e+00) (0, 0, 0.00000000000000000000e+00) (0, 0, 0.00000000000000000000e+00) (0, 0, 0.00000000000000000000e+00) (0, 0, 0.00000000000000000000e+00) (0, 0, 0.00000000000000000000e+00) (0, 0, 0.00000000000000000000e+00) (0, 0, 0.00000000000000000000e+00) (0, 0, 0.00000000000000000000e+00) (0, 0, 0.00000000000000000000e+00) (0, 0, 0.00000000000000000000e+00) (0, 0, 0.00000000000000000000e+00) (0, 0, 0.00000000000000000000e+00) (0, 0, 0.00000000000000000000e+00) (0, 0, 0.00000000000000000000e+00) (0, 0, 0.00000000000000000000e+00) (0, 0, 0.00000000000000000000e+00) (0, 0, 0.00000000000000000000e+00) (0, 0, 0.00000000000000000000e+00) (0, 0, 0.00000000000000000000e+00) (0, 0, 0.00000000000000000000e+00) (0, 0, 0.00000000000000000000e+00) (0, 0, 0.00000000000000000000e+00) (0, 0, 0.00000000000000000000e+00) (0, 0, 0.00000000000000000000e+00) (0, 0, 0.00000000000000000000e+00) (0, 0, 0.00000000000000000000e+00) (0, 0, 0.00000000000000000000e+00) (0, 0, 0.00000000000000000000e+00) (0, 0, 0.00000000000000000000e+00) (0, 0, 0.00000000000000000000e+00) (0, 0, 0.00000000000000000000e+00) (0, 0, 0.00000000000000000000e+00) (0, 0, 0.00000000000000000000e+00) (0, 0, 0.00000000000000000000e+00) (0, 0, 0.00000000000000000000e+00) (0, 0, 0.00000000000000000000e+00) (0, 0, 0.00000000000000000000e+00) (0, 0, 0.00000000000000000000e+00) (0, 0, 0.00000000000000000000e+00) (0, 0, 0.00000000000000000000e+00) (0, 0, 0.00000000000000000000e+00) (0, 0, 0.00000000000000000000e+00) (0, 0, 0.00000000000000000000e+00) (0, 0, 0.00000000000000000000e+00) (0, 0, 0.00000000000000000000e+00) (0, 0, 0.00000000000000000000e+00) (0, 0, 0.00000000000000000000e+00) (0, 0, 0.00000000000000000000e+00) (0, 0, 0.00000000000000000000e+00) (0, 0, 0.00000000000000000000e+00) (0, 0, 0.00000000000000000000e+00) (0, 0, 0.00000000000000000000e+00) (0, 0, 0.00000000000000000000e+00) (0, 0, 0.00000000000000000000e+00) (0, 0, 0.00000000000000000000e+00) (0, 0, 0.00000000000000000000e+00) (0, 0, 0.00000000000000000000e+00) (0, 0, 0.00000000000000000000e+00) (0, 0, 0.00000000000000000000e+00) (0, 0, 0.00000000000000000000e+00) (0, 0, 0.00000000000000000000e+00) (0, 0, 0.00000000000000000000e+00) (0, 0, 0.00000000000000000000e+00) (0, 0, 0.00000000000000000000e+00) (0, 0, 0.00000000000000000000e+00) (0, 0, 0.00000000000000000000e+00) (0, 0, 0.00000000000000000000e+00) (0, 0, 0.00000000000000000000e+00) (0, 0, 0.00000000000000000000e+00) (0, 0, 0.00000000000000000000e+00) (0, 0, 0.00000000000000000000e+00) (0, 0, 0.00000000000000000000e+00) (0, 0, 0.00000000000000000000e+00) (0, 0, 0.00000000000000000000e+00) (0, 0, 0.00000000000000000000e+00) (0, 0, 0.00000000000000000000e+00) (0, 0, 0.00000000000000000000e+00) (0, 0, 0.00000000000000000000e+00) (0, 0, 0.00000000000000000000e+00) (0, 0, 0.00000000000000000000e+00) (0, 0, 0.00000000000000000000e+00) (0, 0, 0.00000000000000000000e+00) (0, 0, 0.00000000000000000000e+00) (0, 0, 0.00000000000000000000e+00) (0, 0, 0.00000000000000000000e+00) (0, 0, 0.00000000000000000000e+00) (0, 0, 0.00000000000000000000e+00) (0, 0, 0.00000000000000000000e+00) (0, 0, 0.00000000000000000000e+00) (0, 0, 0.00000000000000000000e+00) (0, 0, 0.00000000000000000000e+00) (0, 0, 0.00000000000000000000e+00) (0, 0, 0.00000000000000000000e+00) (0, 0, 0.00000000000000000000e+00) (0, 0, 0.00000000000000000000e+00) (0, 0, 0.00000000000000000000e+00) (0, 0, 0.00000000000000000000e+00) (0, 0, 0.00000000000000000000e+00) (0, 0, 0.00000000000000000000e+00) (0, 0, 0.00000000000000000000e+00) (0, 0, 0.00000000000000000000e+00) (0, 0, 0.00000000000000000000e+00) (0, 0, 0.00000000000000000000e+00) (0, 0, 0.00000000000000000000e+00) (0, 0, 0.00000000000000000000e+00) (0, 0, 0.00000000000000000000e+00) (0, 0, 0.00000000000000000000e+00) (0, 0, 0.00000000000000000000e+00) (0, 0, 0.00000000000000000000e+00) (0, 0, 0.00000000000000000000e+00) (0, 0, 0.00000000000000000000e+00) (0, 0, 0.00000000000000000000e+00) (0, 0, 0.00000000000000000000e+00) (0, 0, 0.00000000000000000000e+00) (0, 0, 0.00000000000000000000e+00) (0, 0, 0.00000000000000000000e+00) (0, 0, 0.00000000000000000000e+00) (0, 0, 0.00000000000000000000e+00) (0, 0, 0.00000000000000000000e+00) (0, 0, 0.00000000000000000000e+00) (0, 0, 0.00000000000000000000e+00) (0, 0, 0.00000000000000000000e+00) (0, 0, 0.00000000000000000000e+00) (0, 0, 0.00000000000000000000e+00) (0, 0, 0.00000000000000000000e+00) (0, 0, 0.00000000000000000000e+00) (0, 0, 0.00000000000000000000e+00) (0, 0, 0.00000000000000000000e+00) (0, 0, 0.00000000000000000000e+00) (0, 0, 0.00000000000000000000e+00) (0, 0, 0.00000000000000000000e+00) (0, 0, 0.00000000000000000000e+00) (0, 0, 0.00000000000000000000e+00) (0, 0, 0.00000000000000000000e+00) (0, 0, 0.00000000000000000000e+00) (0, 0, 0.00000000000000000000e+00) (0, 0, 0.00000000000000000000e+00) (0, 0, 0.00000000000000000000e+00) (0, 0, 0.00000000000000000000e+00) (0, 0, 0.00000000000000000000e+00) (0, 0, 0.00000000000000000000e+00) (0, 0, 0.00000000000000000000e+00) (0, 0, 0.00000000000000000000e+00) (0, 0, 0.00000000000000000000e+00) (0, 0, 0.00000000000000000000e+00) (0, 0, 0.00000000000000000000e+00) (0, 0, 0.00000000000000000000e+00) (0, 0, 0.00000000000000000000e+00) (0, 0, 0.00000000000000000000e+00) (0, 0, 0.00000000000000000000e+00) (0, 0, 0.00000000000000000000e+00) (0, 0, 0.00000000000000000000e+00) (0, 0, 0.00000000000000000000e+00) (0, 0, 0.00000000000000000000e+00) (0, 0, 0.00000000000000000000e+00) (0, 0, 0.00000000000000000000e+00) (0, 0, 0.00000000000000000000e+00) (0, 0, 0.00000000000000000000e+00) (0, 0, 0.00000000000000000000e+00) (0, 0, 0.00000000000000000000e+00) (0, 0, 0.00000000000000000000e+00) (0, 0, 0.00000000000000000000e+00) (0, 0, 0.00000000000000000000e+00) (0, 0, 0.00000000000000000000e+00) (0, 0, 0.00000000000000000000e+00) (0, 0, 0.00000000000000000000e+00) (0, 0, 0.00000000000000000000e+00) (0, 0, 0.00000000000000000000e+00) (0, 0, 0.00000000000000000000e+00) (0, 0, 0.00000000000000000000e+00) (0, 0, 0.00000000000000000000e+00) (0, 0, 0.00000000000000000000e+00) (0, 0, 0.00000000000000000000e+00) (0, 0, 0.00000000000000000000e+00) (0, 0, 0.00000000000000000000e+00) (0, 0, 0.00000000000000000000e+00) (0, 0, 0.00000000000000000000e+00) (0, 0, 0.00000000000000000000e+00) (0, 0, 0.00000000000000000000e+00) (0, 0, 0.00000000000000000000e+00) (0, 0, 0.00000000000000000000e+00) (0, 0, 0.00000000000000000000e+00) (0, 0, 0.00000000000000000000e+00) (0, 0, 0.00000000000000000000e+00) (0, 0, 0.00000000000000000000e+00) (0, 0, 0.00000000000000000000e+00) (0, 0, 0.00000000000000000000e+00) (0, 0, 0.00000000000000000000e+00) (0, 0, 0.00000000000000000000e+00) (0, 0, 0.00000000000000000000e+00) (0, 0, 0.00000000000000000000e+00) (0, 0, 0.00000000000000000000e+00) (0, 0, 0.00000000000000000000e+00) (0, 0, 0.00000000000000000000e+00) (0, 0, 0.00000000000000000000e+00) (0, 0, 0.00000000000000000000e+00) (0, 0, 0.00000000000000000000e+00) (0, 0, 0.00000000000000000000e+00) (0, 0, 0.00000000000000000000e+00) (0, 0, 0.00000000000000000000e+00) (0, 0, 0.00000000000000000000e+00) (0, 0, 0.00000000000000000000e+00) (0, 0, 0.00000000000000000000e+00) (0, 0, 0.00000000000000000000e+00) (0, 0, 0.00000000000000000000e+00) (0, 0, 0.00000000000000000000e+00) (0, 0, 0.00000000000000000000e+00) (0, 0, 0.00000000000000000000e+00) (0, 0, 0.00000000000000000000e+00) (0, 0, 0.00000000000000000000e+00) (0, 0, 0.00000000000000000000e+00) (0, 0, 0.00000000000000000000e+00) (0, 0, 0.00000000000000000000e+00) (0, 0, 0.00000000000000000000e+00) (0, 0, 0.00000000000000000000e+00) (0, 0, 0.00000000000000000000e+00) (0, 0, 0.00000000000000000000e+00) (0, 0, 0.00000000000000000000e+00) (0, 0, 0.00000000000000000000e+00) (0, 0, 0.00000000000000000000e+00) (0, 0, 0.00000000000000000000e+00) (0, 0, 0.00000000000000000000e+00) (0, 0, 0.00000000000000000000e+00) (0, 0, 0.00000000000000000000e+00) (0, 0, 0.00000000000000000000e+00) (0, 0, 0.00000000000000000000e+00) (0, 0, 0.00000000000000000000e+00) (0, 0, 0.00000000000000000000e+00) (0, 0, 0.00000000000000000000e+00) (0, 0, 0.00000000000000000000e+00) (0, 0, 0.00000000000000000000e+00) (0, 0, 0.00000000000000000000e+00) (0, 0, 0.00000000000000000000e+00) (0, 0, 0.00000000000000000000e+00) (0, 0, 0.00000000000000000000e+00) (0, 0, 0.00000000000000000000e+00) (0, 0, 0.00000000000000000000e+00) (0, 0, 0.00000000000000000000e+00) (0, 0, 0.00000000000000000000e+00) (0, 0, 0.00000000000000000000e+00) (0, 0, 0.00000000000000000000e+00) (0, 0, 0.00000000000000000000e+00) (0, 0, 0.00000000000000000000e+00) (0, 0, 0.00000000000000000000e+00) (0, 0, 0.00000000000000000000e+00) (0, 0, 0.00000000000000000000e+00) (0, 0, 0.00000000000000000000e+00) (0, 0, 0.00000000000000000000e+00) (0, 0, 0.00000000000000000000e+00) (0, 0, 0.00000000000000000000e+00) (0, 0, 0.00000000000000000000e+00) (0, 0, 0.00000000000000000000e+00) (0, 0, 0.00000000000000000000e+00) (0, 0, 0.00000000000000000000e+00) (0, 0, 0.00000000000000000000e+00) (0, 0, 0.00000000000000000000e+00) (0, 0, 0.00000000000000000000e+00) (0, 0, 0.00000000000000000000e+00) (0, 0, 0.00000000000000000000e+00) (0, 0, 0.00000000000000000000e+00) (0, 0, 0.00000000000000000000e+00) (0, 0, 0.00000000000000000000e+00) (0, 0, 0.00000000000000000000e+00) (0, 0, 0.00000000000000000000e+00) (0, 0, 0.00000000000000000000e+00) (0, 0, 0.00000000000000000000e+00) (0, 0, 0.00000000000000000000e+00) (0, 0, 0.00000000000000000000e+00) (0, 0, 0.00000000000000000000e+00) (0, 0, 0.00000000000000000000e+00) (0, 0, 0.00000000000000000000e+00) (0, 0, 0.00000000000000000000e+00) (0, 0, 0.00000000000000000000e+00) (0, 0, 0.00000000000000000000e+00) (0, 0, 0.00000000000000000000e+00) (0, 0, 0.00000000000000000000e+00) (0, 0, 0.00000000000000000000e+00) (0, 0, 0.00000000000000000000e+00) (0, 0, 0.00000000000000000000e+00) (0, 0, 0.00000000000000000000e+00) (0, 0, 0.00000000000000000000e+00) (0, 0, 0.00000000000000000000e+00) (0, 0, 0.00000000000000000000e+00) (0, 0, 0.00000000000000000000e+00) (0, 0, 0.00000000000000000000e+00) (0, 0, 0.00000000000000000000e+00) (0, 0, 0.00000000000000000000e+00) (0, 0, 0.00000000000000000000e+00) (0, 0, 0.00000000000000000000e+00) (0, 0, 0.00000000000000000000e+00) (0, 0, 0.00000000000000000000e+00) (0, 0, 0.00000000000000000000e+00) (0, 0, 0.00000000000000000000e+00) (0, 0, 0.00000000000000000000e+00) (0, 0, 0.00000000000000000000e+00) (0, 0, 0.00000000000000000000e+00) (0, 0, 0.00000000000000000000e+00) (0, 0, 0.00000000000000000000e+00) (0, 0, 0.00000000000000000000e+00) (0, 0, 0.00000000000000000000e+00) (0, 0, 0.00000000000000000000e+00) (0, 0, 0.00000000000000000000e+00) (0, 0, 0.00000000000000000000e+00) (0, 0, 0.00000000000000000000e+00) (0, 0, 0.00000000000000000000e+00) (0, 0, 0.00000000000000000000e+00) (0, 0, 0.00000000000000000000e+00) (0, 0, 0.00000000000000000000e+00) (0, 0, 0.00000000000000000000e+00) (0, 0, 0.00000000000000000000e+00) (0, 0, 0.00000000000000000000e+00) (0, 0, 0.00000000000000000000e+00) (0, 0, 0.00000000000000000000e+00) (0, 0, 0.00000000000000000000e+00) (0, 0, 0.00000000000000000000e+00) (0, 0, 0.00000000000000000000e+00) (0, 0, 0.00000000000000000000e+00) (0, 0, 0.00000000000000000000e+00) (0, 0, 0.00000000000000000000e+00) (0, 0, 0.00000000000000000000e+00) (0, 0, 0.00000000000000000000e+00) (0, 0, 0.00000000000000000000e+00) (0, 0, 0.00000000000000000000e+00) (0, 0, 0.00000000000000000000e+00) (0, 0, 0.00000000000000000000e+00) (0, 0, 0.00000000000000000000e+00) (0, 0, 0.00000000000000000000e+00) (0, 0, 0.00000000000000000000e+00) (0, 0, 0.00000000000000000000e+00) (0, 0, 0.00000000000000000000e+00) (0, 0, 0.00000000000000000000e+00) (0, 0, 0.00000000000000000000e+00) (0, 0, 0.00000000000000000000e+00) (0, 0, 0.00000000000000000000e+00) (0, 0, 0.00000000000000000000e+00) (0, 0, 0.00000000000000000000e+00) (0, 0, 0.00000000000000000000e+00) (0, 0, 0.00000000000000000000e+00) (0, 0, 0.00000000000000000000e+00) (0, 0, 0.00000000000000000000e+00) (0, 0, 0.00000000000000000000e+00) (0, 0, 0.00000000000000000000e+00) (0, 0, 0.00000000000000000000e+00) (0, 0, 0.00000000000000000000e+00) (0, 0, 0.00000000000000000000e+00) (0, 0, 0.00000000000000000000e+00) (0, 0, 0.00000000000000000000e+00) (0, 0, 0.00000000000000000000e+00) (0, 0, 0.00000000000000000000e+00) (0, 0, 0.00000000000000000000e+00) (0, 0, 0.00000000000000000000e+00) (0, 0, 0.00000000000000000000e+00) (0, 0, 0.00000000000000000000e+00) (0, 0, 0.00000000000000000000e+00) (0, 0, 0.00000000000000000000e+00) (0, 0, 0.00000000000000000000e+00) (0, 0, 0.00000000000000000000e+00) (0, 0, 0.00000000000000000000e+00) (0, 0, 0.00000000000000000000e+00) (0, 0, 0.00000000000000000000e+00) (0, 0, 0.00000000000000000000e+00) (0, 0, 0.00000000000000000000e+00) (0, 0, 0.00000000000000000000e+00) (0, 0, 0.00000000000000000000e+00) (0, 0, 0.00000000000000000000e+00) (0, 0, 0.00000000000000000000e+00) (0, 0, 0.00000000000000000000e+00) (0, 0, 0.00000000000000000000e+00) (0, 0, 0.00000000000000000000e+00) (0, 0, 0.00000000000000000000e+00) (0, 0, 0.00000000000000000000e+00) (0, 0, 0.00000000000000000000e+00) (0, 0, 0.00000000000000000000e+00) (0, 0, 0.00000000000000000000e+00) (0, 0, 0.00000000000000000000e+00) (0, 0, 0.00000000000000000000e+00) (0, 0, 0.00000000000000000000e+00) (0, 0, 0.00000000000000000000e+00) (0, 0, 0.00000000000000000000e+00) (0, 0, 0.00000000000000000000e+00) (0, 0, 0.00000000000000000000e+00) (0, 0, 0.00000000000000000000e+00) (0, 0, 0.00000000000000000000e+00) (0, 0, 0.00000000000000000000e+00) (0, 0, 0.00000000000000000000e+00) (0, 0, 0.00000000000000000000e+00) (0, 0, 0.00000000000000000000e+00) (0, 0, 0.00000000000000000000e+00) (0, 0, 0.00000000000000000000e+00) (0, 0, 0.00000000000000000000e+00) (0, 0, 0.00000000000000000000e+00) (0, 0, 0.00000000000000000000e+00) (0, 0, 0.00000000000000000000e+00) (0, 0, 0.00000000000000000000e+00) (0, 0, 0.00000000000000000000e+00) (0, 0, 0.00000000000000000000e+00) (0, 0, 0.00000000000000000000e+00) (0, 0, 0.00000000000000000000e+00) (0, 0, 0.00000000000000000000e+00) (0, 0, 0.00000000000000000000e+00) (0, 0, 0.00000000000000000000e+00) (0, 0, 0.00000000000000000000e+00) (0, 0, 0.00000000000000000000e+00) (0, 0, 0.00000000000000000000e+00) (0, 0, 0.00000000000000000000e+00) (0, 0, 0.00000000000000000000e+00) (0, 0, 0.00000000000000000000e+00) (0, 0, 0.00000000000000000000e+00) (0, 0, 0.00000000000000000000e+00) (0, 0, 0.00000000000000000000e+00) (0, 0, 0.00000000000000000000e+00) (0, 0, 0.00000000000000000000e+00) (0, 0, 0.00000000000000000000e+00) (0, 0, 0.00000000000000000000e+00) (0, 0, 0.00000000000000000000e+00) (0, 0, 0.00000000000000000000e+00) (0, 0, 0.00000000000000000000e+00) (0, 0, 0.00000000000000000000e+00) (0, 0, 0.00000000000000000000e+00) (0, 0, 0.00000000000000000000e+00) (0, 0, 0.00000000000000000000e+00) (0, 0, 0.00000000000000000000e+00) (0, 0, 0.00000000000000000000e+00) (0, 0, 0.00000000000000000000e+00) (0, 0, 0.00000000000000000000e+00) (0, 0, 0.00000000000000000000e+00) (0, 0, 0.00000000000000000000e+00) (0, 0, 0.00000000000000000000e+00) (0, 0, 0.00000000000000000000e+00) (0, 0, 0.00000000000000000000e+00) (0, 0, 0.00000000000000000000e+00) (0, 0, 0.00000000000000000000e+00) (0, 0, 0.00000000000000000000e+00) (0, 0, 0.00000000000000000000e+00) (0, 0, 0.00000000000000000000e+00) (0, 0, 0.00000000000000000000e+00) (0, 0, 0.00000000000000000000e+00) (0, 0, 0.00000000000000000000e+00) (0, 0, 0.00000000000000000000e+00) (0, 0, 0.00000000000000000000e+00) (0, 0, 0.00000000000000000000e+00) (0, 0, 0.00000000000000000000e+00) (0, 0, 0.00000000000000000000e+00) (0, 0, 0.00000000000000000000e+00) (0, 0, 0.00000000000000000000e+00) (0, 0, 0.00000000000000000000e+00) (0, 0, 0.00000000000000000000e+00) (0, 0, 0.00000000000000000000e+00) (0, 0, 0.00000000000000000000e+00) (0, 0, 0.00000000000000000000e+00) (0, 0, 0.00000000000000000000e+00) (0, 0, 0.00000000000000000000e+00) (0, 0, 0.00000000000000000000e+00) (0, 0, 0.00000000000000000000e+00) (0, 0, 0.00000000000000000000e+00) (0, 0, 0.00000000000000000000e+00) (0, 0, 0.00000000000000000000e+00) (0, 0, 0.00000000000000000000e+00) (0, 0, 0.00000000000000000000e+00) (0, 0, 0.00000000000000000000e+00) (0, 0, 0.00000000000000000000e+00) (0, 0, 0.00000000000000000000e+00) (0, 0, 0.00000000000000000000e+00) (0, 0, 0.00000000000000000000e+00) (0, 0, 0.00000000000000000000e+00) (0, 0, 0.00000000000000000000e+00) (0, 0, 0.00000000000000000000e+00) (0, 0, 0.00000000000000000000e+00) (0, 0, 0.00000000000000000000e+00) (0, 0, 0.00000000000000000000e+00) (0, 0, 0.00000000000000000000e+00) (0, 0, 0.00000000000000000000e+00) (0, 0, 0.00000000000000000000e+00) (0, 0, 0.00000000000000000000e+00) (0, 0, 0.00000000000000000000e+00) (0, 0, 0.00000000000000000000e+00) (0, 0, 0.00000000000000000000e+00) (0, 0, 0.00000000000000000000e+00) (0, 0, 0.00000000000000000000e+00) (0, 0, 0.00000000000000000000e+00) (0, 0, 0.00000000000000000000e+00) (0, 0, 0.00000000000000000000e+00) (0, 0, 0.00000000000000000000e+00) (0, 0, 0.00000000000000000000e+00) (0, 0, 0.00000000000000000000e+00) (0, 0, 0.00000000000000000000e+00) (0, 0, 0.00000000000000000000e+00) (0, 0, 0.00000000000000000000e+00) (0, 0, 0.00000000000000000000e+00) (0, 0, 0.00000000000000000000e+00) (0, 0, 0.00000000000000000000e+00) (0, 0, 0.00000000000000000000e+00) (0, 0, 0.00000000000000000000e+00) (0, 0, 0.00000000000000000000e+00) (0, 0, 0.00000000000000000000e+00) (0, 0, 0.00000000000000000000e+00) (0, 0, 0.00000000000000000000e+00) (0, 0, 0.00000000000000000000e+00) (0, 0, 0.00000000000000000000e+00) (0, 0, 0.00000000000000000000e+00) (0, 0, 0.00000000000000000000e+00) (0, 0, 0.00000000000000000000e+00) (0, 0, 0.00000000000000000000e+00) (0, 0, 0.00000000000000000000e+00) (0, 0, 0.00000000000000000000e+00) (0, 0, 0.00000000000000000000e+00) (0, 0, 0.00000000000000000000e+00) (0, 0, 0.00000000000000000000e+00) (0, 0, 0.00000000000000000000e+00) (0, 0, 0.00000000000000000000e+00) (0, 0, 0.00000000000000000000e+00) (0, 0, 0.00000000000000000000e+00) (0, 0, 0.00000000000000000000e+00) (0, 0, 0.00000000000000000000e+00) (0, 0, 0.00000000000000000000e+00) (0, 0, 0.00000000000000000000e+00) (0, 0, 0.00000000000000000000e+00) (0, 0, 0.00000000000000000000e+00) (0, 0, 0.00000000000000000000e+00) (0, 0, 0.00000000000000000000e+00) (0, 0, 0.00000000000000000000e+00) (0, 0, 0.00000000000000000000e+00) (0, 0, 0.00000000000000000000e+00) (0, 0, 0.00000000000000000000e+00) (0, 0, 0.00000000000000000000e+00) (0, 0, 0.00000000000000000000e+00) (0, 0, 0.00000000000000000000e+00) (0, 0, 0.00000000000000000000e+00) (0, 0, 0.00000000000000000000e+00) (0, 0, 0.00000000000000000000e+00) (0, 0, 0.00000000000000000000e+00) (0, 0, 0.00000000000000000000e+00) (0, 0, 0.00000000000000000000e+00) (0, 0, 0.00000000000000000000e+00) (0, 0, 0.00000000000000000000e+00) (0, 0, 0.00000000000000000000e+00) (0, 0, 0.00000000000000000000e+00) (0, 0, 0.00000000000000000000e+00) (0, 0, 0.00000000000000000000e+00) (0, 0, 0.00000000000000000000e+00) (0, 0, 0.00000000000000000000e+00) (0, 0, 0.00000000000000000000e+00) (0, 0, 0.00000000000000000000e+00) (0, 0, 0.00000000000000000000e+00) (0, 0, 0.00000000000000000000e+00) (0, 0, 0.00000000000000000000e+00) (0, 0, 0.00000000000000000000e+00) (0, 0, 0.00000000000000000000e+00) (0, 0, 0.00000000000000000000e+00) (0, 0, 0.00000000000000000000e+00) (0, 0, 0.00000000000000000000e+00) (0, 0, 0.00000000000000000000e+00) (0, 0, 0.00000000000000000000e+00) (0, 0, 0.00000000000000000000e+00) (0, 0, 0.00000000000000000000e+00) (0, 0, 0.00000000000000000000e+00) (0, 0, 0.00000000000000000000e+00) (0, 0, 0.00000000000000000000e+00) (0, 0, 0.00000000000000000000e+00) (0, 0, 0.00000000000000000000e+00) (0, 0, 0.00000000000000000000e+00) (0, 0, 0.00000000000000000000e+00) (0, 0, 0.00000000000000000000e+00) (0, 0, 0.00000000000000000000e+00) (0, 0, 0.00000000000000000000e+00) (0, 0, 0.00000000000000000000e+00) (0, 0, 0.00000000000000000000e+00) (0, 0, 0.00000000000000000000e+00) (0, 0, 0.00000000000000000000e+00) (0, 0, 0.00000000000000000000e+00) (0, 0, 0.00000000000000000000e+00) (0, 0, 0.00000000000000000000e+00) (0, 0, 0.00000000000000000000e+00) (0, 0, 0.00000000000000000000e+00) (0, 0, 0.00000000000000000000e+00) (0, 0, 0.00000000000000000000e+00) (0, 0, 0.00000000000000000000e+00) (0, 0, 0.00000000000000000000e+00) (0, 0, 0.00000000000000000000e+00) (0, 0, 0.00000000000000000000e+00) (0, 0, 0.00000000000000000000e+00) (0, 0, 0.00000000000000000000e+00) (0, 0, 0.00000000000000000000e+00) (0, 0, 0.00000000000000000000e+00) (0, 0, 0.00000000000000000000e+00) (0, 0, 0.00000000000000000000e+00) (0, 0, 0.00000000000000000000e+00) (0, 0, 0.00000000000000000000e+00) (0, 0, 0.00000000000000000000e+00) (0, 0, 0.00000000000000000000e+00) (596, 5, 5.00000000000000000000e-01) (596, 5, 5.00000000000000000000e-01) (596, 5, 5.00000000000000000000e-01) (596, 5, 5.00000000000000000000e-01) (596, 5, 5.00000000000000000000e-01) (596, 5, 5.00000000000000000000e-01) (596, 5, 5.00000000000000000000e-01) (596, 5, 5.00000000000000000000e-01) (596, 5, 5.00000000000000000000e-01) (596, 5, 5.00000000000000000000e-01) (596, 5, 5.00000000000000000000e-01) (596, 5, 5.00000000000000000000e-01) (596, 5, 5.00000000000000000000e-01) (596, 5, 5.00000000000000000000e-01) (596, 5, 5.00000000000000000000e-01) (596, 5, 5.00000000000000000000e-01) (596, 5, 5.00000000000000000000e-01) (596, 5, 5.00000000000000000000e-01) (596, 5, 5.00000000000000000000e-01) (596, 5, 5.00000000000000000000e-01) (596, 5, 5.00000000000000000000e-01) (596, 5, 5.00000000000000000000e-01) (596, 5, 5.00000000000000000000e-01) (596, 5, 5.00000000000000000000e-01) (596, 5, 5.00000000000000000000e-01) (596, 5, 5.00000000000000000000e-01) (596, 5, 5.00000000000000000000e-01) (596, 5, 5.00000000000000000000e-01) (596, 5, 5.00000000000000000000e-01) (596, 5, 5.00000000000000000000e-01) (596, 5, 5.00000000000000000000e-01) (596, 5, 5.00000000000000000000e-01) (596, 5, 5.00000000000000000000e-01) (596, 5, 5.00000000000000000000e-01) (596, 5, 5.00000000000000000000e-01) (596, 5, 5.00000000000000000000e-01) (596, 5, 5.00000000000000000000e-01) (596, 5, 5.00000000000000000000e-01) (596, 5, 5.00000000000000000000e-01) (596, 5, 5.00000000000000000000e-01) (596, 5, 5.00000000000000000000e-01) (596, 5, 5.00000000000000000000e-01) (596, 5, 5.00000000000000000000e-01) (596, 5, 5.00000000000000000000e-01) (596, 5, 5.00000000000000000000e-01) (596, 5, 5.00000000000000000000e-01) (596, 5, 5.00000000000000000000e-01) (596, 5, 5.00000000000000000000e-01) (596, 5, 5.00000000000000000000e-01) (596, 5, 5.00000000000000000000e-01) (596, 5, 5.00000000000000000000e-01) (596, 5, 5.00000000000000000000e-01) (596, 5, 5.00000000000000000000e-01) (596, 5, 5.00000000000000000000e-01) (596, 5, 5.00000000000000000000e-01) (596, 5, 5.00000000000000000000e-01) (596, 5, 5.00000000000000000000e-01) (596, 5, 5.00000000000000000000e-01) (596, 5, 5.00000000000000000000e-01) (596, 5, 5.00000000000000000000e-01) (596, 5, 5.00000000000000000000e-01) (596, 5, 5.00000000000000000000e-01) (596, 5, 5.00000000000000000000e-01) (596, 5, 5.00000000000000000000e-01) (596, 5, 5.00000000000000000000e-01) (596, 5, 5.00000000000000000000e-01) (596, 5, 5.00000000000000000000e-01) (596, 5, 5.00000000000000000000e-01) (596, 5, 5.00000000000000000000e-01) (596, 5, 5.00000000000000000000e-01) (596, 5, 5.00000000000000000000e-01) (596, 5, 5.00000000000000000000e-01) (596, 5, 5.00000000000000000000e-01) (596, 5, 5.00000000000000000000e-01) (596, 5, 5.00000000000000000000e-01) (596, 5, 5.00000000000000000000e-01) (596, 5, 5.00000000000000000000e-01) (596, 5, 5.00000000000000000000e-01) (596, 5, 5.00000000000000000000e-01) (596, 5, 5.00000000000000000000e-01) (0, 5, 0.00000000000000000000e+00) (81, 5, 5.00000000000000000000e-01) (81, 5, 5.00000000000000000000e-01) (81, 5, 5.00000000000000000000e-01) (81, 5, 5.00000000000000000000e-01) (81, 5, 5.00000000000000000000e-01) (81, 5, 5.00000000000000000000e-01) (81, 5, 5.00000000000000000000e-01) (81, 5, 5.00000000000000000000e-01) (81, 5, 5.00000000000000000000e-01) (81, 5, 5.00000000000000000000e-01) (81, 5, 5.00000000000000000000e-01) (81, 5, 5.00000000000000000000e-01) (81, 5, 5.00000000000000000000e-01) (81, 5, 5.00000000000000000000e-01) (81, 5, 5.00000000000000000000e-01) (81, 5, 5.00000000000000000000e-01) (81, 5, 5.00000000000000000000e-01) (81, 5, 5.00000000000000000000e-01) (81, 5, 5.00000000000000000000e-01) (81, 5, 5.00000000000000000000e-01) (81, 5, 5.00000000000000000000e-01) (81, 5, 5.00000000000000000000e-01) (81, 5, 5.00000000000000000000e-01) (81, 5, 5.00000000000000000000e-01) (81, 5, 5.00000000000000000000e-01) (81, 5, 5.00000000000000000000e-01) (81, 5, 5.00000000000000000000e-01) (81, 5, 5.00000000000000000000e-01) (81, 5, 5.00000000000000000000e-01) (81, 5, 5.00000000000000000000e-01) (81, 5, 5.00000000000000000000e-01) (81, 5, 5.00000000000000000000e-01) (81, 5, 5.00000000000000000000e-01) (81, 5, 5.00000000000000000000e-01) (81, 5, 5.00000000000000000000e-01) (81, 5, 5.00000000000000000000e-01) (81, 5, 5.00000000000000000000e-01) (81, 5, 5.00000000000000000000e-01) (81, 5, 5.00000000000000000000e-01) (81, 5, 5.00000000000000000000e-01) (81, 5, 5.00000000000000000000e-01) (81, 5, 5.00000000000000000000e-01) (81, 5, 5.00000000000000000000e-01) (81, 5, 5.00000000000000000000e-01) (81, 5, 5.00000000000000000000e-01) (81, 5, 5.00000000000000000000e-01) (81, 5, 5.00000000000000000000e-01) (81, 5, 5.00000000000000000000e-01) (81, 5, 5.00000000000000000000e-01) (81, 5, 5.00000000000000000000e-01) (81, 5, 5.00000000000000000000e-01) (81, 5, 5.00000000000000000000e-01) (81, 5, 5.00000000000000000000e-01) (81, 5, 5.00000000000000000000e-01) (81, 5, 5.00000000000000000000e-01) (81, 5, 5.00000000000000000000e-01) (81, 5, 5.00000000000000000000e-01) (81, 5, 5.00000000000000000000e-01) (81, 5, 5.00000000000000000000e-01) (81, 5, 5.00000000000000000000e-01) (81, 5, 5.00000000000000000000e-01) (81, 5, 5.00000000000000000000e-01) (81, 5, 5.00000000000000000000e-01) (81, 5, 5.00000000000000000000e-01) (81, 5, 5.00000000000000000000e-01) (81, 5, 5.00000000000000000000e-01) (81, 5, 5.00000000000000000000e-01) (81, 5, 5.00000000000000000000e-01) (81, 5, 5.00000000000000000000e-01) (81, 5, 5.00000000000000000000e-01) (81, 5, 5.00000000000000000000e-01) (81, 5, 5.00000000000000000000e-01) (81, 5, 5.00000000000000000000e-01) (81, 5, 5.00000000000000000000e-01) (81, 5, 5.00000000000000000000e-01) (81, 5, 5.00000000000000000000e-01) (81, 5, 5.00000000000000000000e-01) (81, 5, 5.00000000000000000000e-01) (81, 5, 5.00000000000000000000e-01) (81, 5, 5.00000000000000000000e-01) (0, 5, 0.00000000000000000000e+00) (81, 5, 5.00000000000000000000e-01) (0, 5, 0.00000000000000000000e+00) 
connections (connected_to_neuron, weight)=(0, 1.42655640840530395508e-01) (1, 2.25718069076538085938e+00) (2, 1.97297066450119018555e-01) (3, 1.58183842897415161133e-01) (4, 1.88468635082244873047e-01) (5, 1.49761457443237304688e+01) (6, 1.97406843304634094238e-01) (7, 1.12581782042980194092e-01) (8, 1.74977034330368041992e-01) (9, 1.43084645271301269531e-01) (10, 1.18336744308471679688e+01) (11, 2.20970988273620605469e-01) (12, 1.72300592064857482910e-01) (13, 1.63670599460601806641e-01) (14, 2.11622923612594604492e-01) (15, 9.49411988258361816406e-02) (16, 8.01514014601707458496e-02) (17, 1.26069992780685424805e-01) (18, 1.29714345932006835938e+00) (19, 1.14622842520475387573e-02) (20, 1.48210465908050537109e-01) (21, 4.55093652009963989258e-01) (22, -1.31014001369476318359e+00) (23, 1.20275184512138366699e-01) (24, 1.73071220517158508301e-01) (25, 1.15810766816139221191e-01) (26, 1.12418003380298614502e-01) (27, 1.69567838311195373535e-01) (28, 1.33207634091377258301e-01) (29, 1.41931787133216857910e-01) (30, 1.60585135221481323242e-01) (31, 1.67861327528953552246e-01) (32, 2.27471575140953063965e-01) (33, 1.40491575002670288086e-01) (34, 1.50000000000000000000e+03) (35, 1.90747126936912536621e-01) (36, 1.38711919784545898438e+01) (37, -8.41770097613334655762e-02) (38, 2.49709069728851318359e-01) (39, 4.78290915489196777344e-01) (40, 3.82051050662994384766e-01) (41, 6.19525492191314697266e-01) (42, 5.95611333847045898438e-02) (43, 1.58547416329383850098e-01) (44, 2.48967885971069335938e-01) (45, 2.11281999945640563965e-01) (46, 5.27568161487579345703e-01) (47, 3.11135590076446533203e-01) (48, 3.00769537687301635742e-01) (49, 2.51638025045394897461e-01) (50, 4.77763675153255462646e-02) (51, 1.02610118687152862549e-01) (52, 1.37400656938552856445e-01) (53, 8.34097099304199218750e+00) (54, 1.45843446254730224609e-01) (55, 2.90957033634185791016e-01) (56, 4.65275913476943969727e-01) (57, 1.67331755161285400391e-01) (58, 1.31853416562080383301e-01) (59, 9.11431610584259033203e-02) (60, 1.72112390398979187012e-01) (61, 2.20743298530578613281e-01) (62, 1.87949612736701965332e-01) (63, 1.69117614626884460449e-01) (64, 4.87331449985504150391e-02) (65, 1.93636536598205566406e-01) (66, 9.81393009424209594727e-02) (67, 1.97101965546607971191e-01) (68, 9.52920690178871154785e-02) (69, 1.50000000000000000000e+03) (70, 1.24859027564525604248e-01) (71, -7.85686445236206054688e+00) (72, 3.66815105080604553223e-02) (73, 1.76104784011840820312e-01) (74, 2.11477726697921752930e-01) (75, 1.29856750369071960449e-01) (76, 1.25706386566162109375e+00) (77, 1.95353031158447265625e-01) (78, 2.20385074615478515625e-01) (79, 2.25361451506614685059e-01) (80, 1.64390116930007934570e-01) (81, 3.05720806121826171875e+00) (82, 1.94829493761062622070e-01) (83, 1.38437360525131225586e-01) (84, 5.12798577547073364258e-02) (85, 9.95015949010848999023e-02) (86, 2.41604819893836975098e-01) (87, 2.57483989000320434570e-01) (88, 2.09395732879638671875e+01) (89, 1.68313831090927124023e-01) (90, 2.17556953430175781250e-01) (91, 3.45068484544754028320e-01) (92, -3.92901611328125000000e+00) (93, 1.93159133195877075195e-01) (94, 2.35507249832153320312e-01) (95, 1.65300935506820678711e-01) (96, 1.16087369620800018311e-01) (97, 6.02944120764732360840e-02) (98, 1.34960129857063293457e-01) (99, 9.30785462260246276855e-02) (100, 2.68864631652832031250e-01) (101, 1.84275403618812561035e-01) (102, 2.34437242150306701660e-01) (103, 1.65175557136535644531e-01) (104, 1.50000000000000000000e+03) (105, 2.29209035634994506836e-01) (106, 2.89774441719055175781e+00) (107, 2.75192260742187500000e-01) (108, 3.02306890487670898438e-01) (109, 2.28093832731246948242e-01) (110, 2.21850967407226562500e+00) (111, 1.94785863161087036133e-01) (112, 1.80371046066284179688e-01) (113, 6.32833480834960937500e-01) (114, 1.56468942761421203613e-01) (115, 2.16266185045242309570e-01) (116, 2.14468002319335937500e-01) (117, 8.84903621673583984375e+00) (118, 2.58723527193069458008e-01) (119, 3.13015609979629516602e-01) (120, 1.18874311447143554688e-01) (121, 2.59065628051757812500e-01) (122, 8.91087651252746582031e-02) (123, -1.73338856548070907593e-02) (124, 1.72422676086425781250e+01) (125, 1.11348576843738555908e-01) (126, 1.40691003799438476562e+01) (127, -3.05782747268676757812e+00) (128, 7.92765468358993530273e-02) (129, 7.54997134208679199219e-02) (130, 1.60303741693496704102e-01) (131, 7.51880332827568054199e-02) (132, 1.86429634690284729004e-01) (133, 1.65016382932662963867e-01) (134, 1.21681302785873413086e-01) (135, 2.39711850881576538086e-01) (136, 7.63597935438156127930e-02) (137, 1.87205195426940917969e-01) (138, 1.80530980229377746582e-01) (139, 1.50000000000000000000e+03) (140, 8.61765369772911071777e-02) (141, 8.27431201934814453125e+00) (142, 2.19230502843856811523e-01) (143, 3.68399977684020996094e-01) (144, -3.37805718183517456055e-01) (145, 1.58870890736579895020e-01) (146, 2.22359195351600646973e-01) (147, 2.32477083802223205566e-01) (148, 1.68598403930664062500e+01) (149, 1.59690096974372863770e-01) (150, 2.75025129318237304688e-01) (151, 1.33131012320518493652e-01) (152, -1.81688055396080017090e-01) (153, 1.16384059190750122070e-01) (154, 2.13386952877044677734e-01) (155, 2.66739875078201293945e-01) (156, 1.33030325174331665039e-01) (157, 5.03772869706153869629e-02) (158, 1.84748589992523193359e-01) (159, 2.32693240046501159668e-01) (160, 1.85183987021446228027e-01) (161, 5.43777132034301757812e+00) (162, -3.39958108961582183838e-02) (163, 2.10505276918411254883e-01) (164, 2.37745746970176696777e-01) (165, 9.71954539418220520020e-02) (166, 1.77255272865295410156e-01) (167, 2.40760132670402526855e-01) (168, 2.54678070545196533203e-01) (169, 3.90970148146152496338e-02) (170, 2.56841450929641723633e-01) (171, 2.37803712487220764160e-01) (172, 9.24234539270401000977e-02) (173, 1.83849483728408813477e-01) (174, 1.50000000000000000000e+03) (175, 1.02283976972103118896e-01) (176, -2.22852058410644531250e+01) (177, 1.79063156247138977051e-01) (178, 3.02795588970184326172e-01) (179, -5.11720478534698486328e-01) (180, 3.28038007020950317383e-01) (181, 2.32331603765487670898e-01) (182, 1.00504040718078613281e-01) (183, 6.17143988609313964844e-01) (184, 1.94900959730148315430e-01) (185, 2.33816474676132202148e-01) (186, 2.00422033667564392090e-01) (187, 6.25115096569061279297e-01) (188, 2.46065005660057067871e-01) (189, 1.15598730742931365967e-01) (190, 2.44206622242927551270e-01) (191, 2.10776031017303466797e-01) (192, -5.71193434298038482666e-02) (193, 2.61059141159057617188e+00) (194, -5.12838184833526611328e-01) (195, 2.35528185963630676270e-01) (196, 1.26182782649993896484e+00) (197, -3.03000235557556152344e+00) (198, 1.24057486653327941895e-01) (199, 2.33369261026382446289e-01) (200, 1.77184432744979858398e-01) (201, 1.04777619242668151855e-01) (202, 1.90610513091087341309e-01) (203, 2.38990709185600280762e-01) (204, 1.77121922373771667480e-01) (205, 1.44262820482254028320e-01) (206, 2.22736507654190063477e-01) (207, 2.52411901950836181641e-01) (208, 2.17887952923774719238e-01) (209, 1.50000000000000000000e+03) (210, 9.65746715664863586426e-02) (211, -4.04396438598632812500e+01) (212, -1.67752349376678466797e+00) (213, 4.07454103231430053711e-01) (214, 3.31241488456726074219e-01) (215, 3.48407000303268432617e-01) (216, -1.74074935913085937500e+01) (217, 1.04513928294181823730e-01) (218, 2.97411710023880004883e-01) (219, 5.59001266956329345703e-01) (220, 2.44895845651626586914e-01) (221, 5.80758564174175262451e-02) (222, -5.43321752548217773438e+00) (223, 2.68359869718551635742e-01) (224, 7.99706280231475830078e-01) (225, 2.68601030111312866211e-01) (226, 1.10579863190650939941e-01) (227, 1.35540854930877685547e+00) (228, 2.50706434249877929688e-01) (229, 1.54375985264778137207e-01) (230, 1.74708932638168334961e-01) (231, 5.85991096496582031250e+01) (232, -5.61966657638549804688e+00) (233, 6.83291032910346984863e-02) (234, 2.03099638223648071289e-01) (235, 2.38945677876472473145e-01) (236, 1.35256975889205932617e-01) (237, 1.44124269485473632812e-01) (238, 2.56740301847457885742e-01) (239, 3.75189594924449920654e-02) (240, 9.18102338910102844238e-02) (241, 2.48853385448455810547e-01) (242, 2.36102670431137084961e-01) (243, 1.46672815084457397461e-01) (244, 1.50000000000000000000e+03) (245, 3.50685071945190429688e+00) (246, 3.31898951530456542969e+00) (247, -1.31395761854946613312e-03) (248, 2.41975173354148864746e-01) (249, -7.74832153320312500000e+00) (250, 1.35731518268585205078e+00) (251, 3.82954330444335937500e+01) (252, 2.11451783776283264160e-01) (253, 5.71248016357421875000e+01) (254, 3.90406459569931030273e-01) (255, 6.38701260089874267578e-01) (256, 1.69183611869812011719e-01) (257, -1.01540926843881607056e-02) (258, 1.31073248386383056641e+00) (259, 2.73588120937347412109e-01) (260, 9.63487550616264343262e-02) (261, -3.99731919169425964355e-02) (262, 3.11431348323822021484e-01) (263, 3.02046179771423339844e-01) (264, 1.79373353719711303711e-01) (265, 1.20323032140731811523e-01) (266, 6.16727371215820312500e+01) (267, 6.93634399414062500000e+02) (268, 2.04314872622489929199e-01) (269, 2.09975779056549072266e-01) (270, 2.40447744727134704590e-01) (271, 2.18791425228118896484e-01) (272, 1.77122130990028381348e-01) (273, 2.41933643817901611328e-01) (274, 4.98365834355354309082e-02) (275, 2.26085707545280456543e-01) (276, 1.74211785197257995605e-01) (277, 1.94732129573822021484e-01) (278, 2.15575709939002990723e-01) (279, 1.50000000000000000000e+03) (280, 2.57978796958923339844e-01) (281, -3.27491760253906250000e+01) (282, 1.72445297241210937500e-01) (283, 1.05873361229896545410e-01) (284, 4.34206038713455200195e-01) (285, 3.05414378643035888672e-01) (286, -1.67559671401977539062e+00) (287, 9.02106952667236328125e+00) (288, 4.46358352899551391602e-01) (289, 2.16862127184867858887e-01) (290, 1.78705170750617980957e-01) (291, 3.22125583887100219727e-01) (292, 6.87878429889678955078e-01) (293, 1.49382352828979492188e-01) (294, 1.84780508279800415039e-01) (295, 1.54253289103507995605e-01) (296, 1.60986721515655517578e-01) (297, 1.99100390076637268066e-01) (298, 2.82148391008377075195e-01) (299, 5.06458282470703125000e+00) (300, 8.98662865161895751953e-01) (301, 1.50000000000000000000e+03) (302, -2.79129089355468750000e+02) (303, 1.65836840867996215820e-01) (304, 1.79480046033859252930e-01) (305, 1.59689337015151977539e-01) (306, 1.14428497850894927979e-01) (307, 8.21355730295181274414e-02) (308, 1.37427687644958496094e-01) (309, 5.30403070151805877686e-02) (310, 1.77564948797225952148e-01) (311, 6.74638971686363220215e-02) (312, 1.24147675931453704834e-01) (313, 7.78993442654609680176e-02) (314, 1.50000000000000000000e+03) (315, 1.89408689737319946289e-01) (316, -5.18434944152832031250e+01) (317, 7.95421525835990905762e-02) (318, 8.58739316463470458984e-01) (319, 7.81197473406791687012e-02) (320, 7.18446922302246093750e+00) (321, 2.15359997749328613281e+00) (322, 1.48102312088012695312e+01) (323, 3.99660766124725341797e-01) (324, 1.20686866343021392822e-01) (325, 8.15562152862548828125e+00) (326, 1.06552384793758392334e-01) (327, 1.01167839050292968750e+02) (328, 3.75356078147888183594e+00) (329, 3.89197120666503906250e+01) (330, 1.04254417121410369873e-01) (331, 2.72699713706970214844e-01) (332, 5.46341857910156250000e+01) (333, 1.13834091186523437500e+02) (334, 2.07575845718383789062e+00) (335, 1.10842928290367126465e-01) (336, 7.56833028793334960938e+00) (337, 1.73359465599060058594e+00) (338, 1.21548876166343688965e-01) (339, 3.07934224605560302734e-01) (340, 2.37965986132621765137e-01) (341, 2.29810878634452819824e-01) (342, 2.69064158201217651367e-01) (343, 3.89562457799911499023e-01) (344, 2.20835730433464050293e-01) (345, 1.00917756557464599609e-01) (346, 1.27475157380104064941e-01) (347, 1.44081801176071166992e-01) (348, 1.47339314222335815430e-01) (349, 1.50000000000000000000e+03) (350, 2.22565740346908569336e-01) (351, -6.22851753234863281250e+00) (352, 3.32031393051147460938e+00) (353, 6.96579635143280029297e-01) (354, 2.02084392309188842773e-01) (355, -2.76430644989013671875e+01) (356, -7.02583551406860351562e-01) (357, 2.76060342788696289062e-01) (358, 6.54336437582969665527e-02) (359, 3.62009555101394653320e-01) (360, 3.30996632575988769531e-01) (361, 2.07685732841491699219e+00) (362, 1.15261518955230712891e+00) (363, 3.45371037721633911133e-01) (364, 1.65313825011253356934e-01) (365, 1.07182426452636718750e+01) (366, 1.91095083951950073242e-01) (367, 1.27069652080535888672e+00) (368, 1.37411785125732421875e+00) (369, 8.39493942260742187500e+01) (370, 6.69795870780944824219e-02) (371, 9.47688484191894531250e+00) (372, 1.14610424041748046875e+01) (373, 2.56348043680191040039e-01) (374, 3.05283248424530029297e-01) (375, 2.70134896039962768555e-01) (376, 7.80990496277809143066e-02) (377, 9.59373116493225097656e-02) (378, 2.27085009217262268066e-01) (379, 1.04461736977100372314e-01) (380, 2.59266823530197143555e-01) (381, 2.39404439926147460938e-01) (382, 1.99916869401931762695e-01) (383, 2.56790637969970703125e-01) (384, 1.50000000000000000000e+03) (385, 3.31302314996719360352e-01) (386, -5.13098597526550292969e-01) (387, 7.33030557632446289062e-01) (388, 1.74269795417785644531e-01) (389, 2.63661682605743408203e-01) (390, 2.66209781169891357422e-01) (391, 1.48963332176208496094e+00) (392, 5.00963151454925537109e-01) (393, 2.08236798644065856934e-01) (394, 3.89947533607482910156e-01) (395, 2.53736704587936401367e-01) (396, 2.79248416423797607422e-01) (397, 5.86011648178100585938e+00) (398, -6.97143125534057617188e+00) (399, 2.71544098854064941406e-01) (400, 2.86956071853637695312e-01) (401, 3.73821258544921875000e-01) (402, 4.31529730558395385742e-01) (403, 5.63882684707641601562e+00) (404, 2.35024452209472656250e+01) (405, 2.24202677607536315918e-01) (406, 9.80006515979766845703e-01) (407, -3.27743577957153320312e+00) (408, 2.16230705380439758301e-01) (409, 2.22889021039009094238e-01) (410, 1.45371705293655395508e-01) (411, 2.24987432360649108887e-01) (412, 1.73511132597923278809e-01) (413, 3.76326829195022583008e-01) (414, 1.66301384568214416504e-01) (415, 2.16943293809890747070e-01) (416, 2.76040375232696533203e-01) (417, 2.20501884818077087402e-01) (418, 2.28635728359222412109e-01) (419, 1.50000000000000000000e+03) (420, 3.59814792871475219727e-01) (421, -2.12513613700866699219e+00) (422, 2.28524327278137207031e+00) (423, 1.82541921734809875488e-01) (424, 1.02332383394241333008e-01) (425, 3.24427366256713867188e-01) (426, 1.00638963282108306885e-01) (427, 3.05314153432846069336e-01) (428, 2.13098064064979553223e-01) (429, 2.08205029368400573730e-01) (430, 2.29307860136032104492e-01) (431, 2.57272911071777343750e+00) (432, -3.73607659339904785156e+00) (433, 3.04416298866271972656e-01) (434, 2.30402052402496337891e-01) (435, 2.11039137840270996094e+00) (436, 3.51374298334121704102e-01) (437, 1.46881535649299621582e-01) (438, -3.23374986648559570312e+00) (439, 3.90508264303207397461e-01) (440, 4.36411809921264648438e+00) (441, 6.00162222981452941895e-02) (442, -5.07736968994140625000e+00) (443, 1.09357796609401702881e-01) (444, 1.16676025092601776123e-01) (445, 1.76804125308990478516e-01) (446, 8.20041447877883911133e-02) (447, 9.87335518002510070801e-02) (448, 1.81016862392425537109e-01) (449, 2.00076743960380554199e-01) (450, 1.76779776811599731445e-01) (451, 1.25901952385902404785e-01) (452, 1.17987617850303649902e-01) (453, 1.98305055499076843262e-01) (454, 1.50000000000000000000e+03) (455, 1.93005308508872985840e-01) (456, -1.14302508533000946045e-01) (457, 1.85243022441864013672e+00) (458, 4.70975905656814575195e-01) (459, -4.96884441375732421875e+00) (460, 3.95615041255950927734e-01) (461, 2.26206138730049133301e-01) (462, 1.53901779651641845703e+00) (463, 1.78973793983459472656e-01) (464, 7.54306837916374206543e-02) (465, 2.14778229594230651855e-01) (466, 3.41516613960266113281e+00) (467, 6.86291098594665527344e-01) (468, 1.19735419750213623047e-01) (469, 1.12099237740039825439e-01) (470, 1.91132709383964538574e-01) (471, 3.48387271165847778320e-01) (472, 1.14524312317371368408e-01) (473, -9.92761707305908203125e+00) (474, 4.35906201601028442383e-01) (475, 2.63879609107971191406e+00) (476, 2.05701231956481933594e+00) (477, -2.56752276420593261719e+00) (478, 1.91351979970932006836e-01) (479, 2.75602281093597412109e-01) (480, 2.52584517002105712891e-01) (481, 1.08847975730895996094e-01) (482, 1.09798625111579895020e-01) (483, 1.53706133365631103516e-01) (484, 2.22790509462356567383e-01) (485, 2.19347864389419555664e-01) (486, 2.43417739868164062500e-01) (487, 1.34052962064743041992e-01) (488, 1.19778923690319061279e-01) (489, 1.50000000000000000000e+03) (490, 2.05397889018058776855e-01) (491, 3.00494837760925292969e+00) (492, 2.79756247997283935547e-01) (493, 2.83383309841156005859e-01) (494, 1.51012152433395385742e-01) (495, 3.78100252151489257812e+00) (496, 3.75257939100265502930e-01) (497, 1.56508550047874450684e-01) (498, 3.67446839809417724609e-01) (499, 1.34803473949432373047e-01) (500, 1.51397824287414550781e-01) (501, 2.52670854330062866211e-01) (502, 1.70069277286529541016e-01) (503, 2.47583538293838500977e-01) (504, 2.35163554549217224121e-01) (505, 2.02619493007659912109e-01) (506, 1.31502136588096618652e-01) (507, 1.75023078918457031250e-01) (508, -1.88083572387695312500e+01) (509, 1.34959774017333984375e+01) (510, 1.02407300472259521484e+00) (511, 2.96532678604125976562e+00) (512, -2.39633274078369140625e+00) (513, 2.01548546552658081055e-01) (514, 1.31881043314933776855e-01) (515, 1.06023743748664855957e-01) (516, 1.55466705560684204102e-01) (517, 7.98533558845520019531e-02) (518, 2.24773049354553222656e-01) (519, 1.82065904140472412109e-01) (520, 1.77058711647987365723e-01) (521, 8.90007242560386657715e-02) (522, 1.40197157859802246094e-01) (523, 1.61773234605789184570e-01) (524, 1.50000000000000000000e+03) (525, 1.85900494456291198730e-01) (526, 5.48244476318359375000e+00) (527, 1.69107824563980102539e-01) (528, 2.64610439538955688477e-01) (529, 1.30186185240745544434e-01) (530, 3.23087602853775024414e-01) (531, 1.51947781443595886230e-01) (532, 1.68259203433990478516e-01) (533, 1.36092618107795715332e-01) (534, 2.61044979095458984375e-01) (535, 1.07628673315048217773e-01) (536, 2.10785418748855590820e-01) (537, 9.77049991488456726074e-02) (538, 2.11872905492782592773e-01) (539, 2.30880066752433776855e-01) (540, 1.49022206664085388184e-01) (541, 1.29901319742202758789e-01) (542, 2.60115981101989746094e-01) (543, -2.12183418273925781250e+01) (544, 3.01044523715972900391e-01) (545, 1.80194020271301269531e-01) (546, 3.77514511346817016602e-01) (547, 1.21988363564014434814e-01) (548, 1.20016865432262420654e-01) (549, 9.00249704718589782715e-02) (550, 1.06343135237693786621e-01) (551, 2.37064063549041748047e-01) (552, 8.57558697462081909180e-02) (553, 2.42414921522140502930e-01) (554, 1.01844988763332366943e-01) (555, 2.61955827474594116211e-01) (556, 9.01880785822868347168e-02) (557, 2.05156430602073669434e-01) (558, 1.67666450142860412598e-01) (559, 1.50000000000000000000e+03) (560, 1.19888707995414733887e-01) (561, 6.96431541442871093750e+00) (562, 3.10790419578552246094e-01) (563, -2.65560412406921386719e+00) (564, 3.68819296360015869141e-01) (565, 3.14259409904479980469e-01) (566, 1.43076105117797851562e+01) (567, 3.42161327600479125977e-01) (568, 5.59584721922874450684e-02) (569, 1.49252504110336303711e-01) (570, 1.80429443717002868652e-01) (571, -5.65584264695644378662e-02) (572, 1.09597742557525634766e+00) (573, 1.10985055565834045410e-01) (574, 1.74243435263633728027e-01) (575, 1.61080598831176757812e-01) (576, 1.41424804925918579102e-01) (577, 1.90274238586425781250e-01) (578, -1.22599291801452636719e+00) (579, 4.60333108901977539062e-01) (580, 9.60516557097434997559e-02) (581, 4.26931530237197875977e-01) (582, 2.50768601894378662109e-01) (583, 1.40376478433609008789e-01) (584, 1.38874381780624389648e-01) (585, 1.28890097141265869141e-01) (586, 1.38443842530250549316e-01) (587, 1.39192253351211547852e-01) (588, 1.21142387390136718750e-01) (589, 2.11710348725318908691e-01) (590, 1.06753520667552947998e-01) (591, 1.55008941888809204102e-01) (592, 1.51109993457794189453e-01) (593, 1.09236262738704681396e-01) (594, 1.50000000000000000000e+03) (595, 1.47084921598434448242e-01) (0, -2.20501065254211425781e-01) (1, 1.26917099952697753906e+00) (2, -2.42116585373878479004e-01) (3, 2.41167712956666946411e-02) (4, -6.53374016284942626953e-01) (5, 4.01967406272888183594e-01) (6, -1.73971459269523620605e-01) (7, -1.74244552850723266602e-01) (8, 6.49920329451560974121e-02) (9, -3.00846725702285766602e-01) (10, -3.73120337724685668945e-01) (11, -1.75360962748527526855e-02) (12, -4.17229197919368743896e-02) (13, 1.72855496406555175781e-01) (14, 1.02349244058132171631e-01) (15, 5.51495328545570373535e-02) (16, 1.34444646537303924561e-02) (17, -7.13711977005004882812e-02) (18, 2.45307922363281250000e+00) (19, -2.77102813124656677246e-02) (20, -1.92717835307121276855e-02) (21, 2.99977976828813552856e-02) (22, 3.28299462795257568359e-01) (23, -4.42956164479255676270e-02) (24, 8.43956973403692245483e-03) (25, -7.46591540519148111343e-04) (26, -1.78733598440885543823e-02) (27, -6.96390941739082336426e-02) (28, 1.12723827362060546875e-01) (29, -4.62772353785112500191e-04) (30, -1.14517286419868469238e-02) (31, 5.37569038569927215576e-02) (32, -6.27640485763549804688e-02) (33, -2.44256518781185150146e-02) (34, 1.50000000000000000000e+03) (35, -1.18127442896366119385e-01) (36, 9.84778583049774169922e-01) (37, 2.55732014775276184082e-02) (38, -1.90730746835470199585e-02) (39, -1.37230917811393737793e-01) (40, 7.05288201570510864258e-02) (41, -6.60205930471420288086e-02) (42, -1.75653606653213500977e-01) (43, -6.45241141319274902344e-02) (44, 6.56315637752413749695e-03) (45, -3.46247315406799316406e-01) (46, 8.18410050123929977417e-03) (47, -1.83213159441947937012e-01) (48, 5.69323122501373291016e-01) (49, 5.41828386485576629639e-02) (50, -2.61273588985204696655e-02) (51, 2.35162287950515747070e-01) (52, -1.30394035950303077698e-02) (53, 1.16193585097789764404e-01) (54, -1.83184966444969177246e-01) (55, 1.45667180418968200684e-01) (56, -1.06185883283615112305e-01) (57, -3.48092615604400634766e-01) (58, -8.23846086859703063965e-02) (59, -1.15544743835926055908e-01) (60, 2.30726506561040878296e-03) (61, -1.66202783584594726562e-02) (62, 8.89680385589599609375e-02) (63, 1.31049230694770812988e-01) (64, -9.95676219463348388672e-02) (65, -1.09714321792125701904e-01) (66, 6.82335048913955688477e-02) (67, 5.82538843154907226562e-02) (68, 2.25343126803636550903e-02) (69, 1.50000000000000000000e+03) (70, -1.37084171175956726074e-01) (71, 4.82666611671447753906e-01) (72, 1.04642301797866821289e-01) (73, 1.64649020880460739136e-02) (74, 7.22192674875259399414e-02) (75, 1.00452080368995666504e-02) (76, -1.75889283418655395508e-01) (77, -2.23221346735954284668e-01) (78, 3.68452906608581542969e-01) (79, 7.90722072124481201172e-02) (80, -1.87174952030181884766e+00) (81, 5.66396951675415039062e-01) (82, -1.03851489722728729248e-01) (83, -8.81539955735206604004e-02) (84, -1.44102171063423156738e-01) (85, -7.84606412053108215332e-02) (86, 7.67115727066993713379e-02) (87, -8.65741550922393798828e-01) (88, -1.43517053127288818359e+00) (89, 1.37468159198760986328e-01) (90, 8.93457829952239990234e-02) (91, 5.31887114048004150391e-02) (92, 1.80913046002388000488e-01) (93, 6.09486103057861328125e-02) (94, -2.06500347703695297241e-02) (95, 1.87953785061836242676e-02) (96, 1.78116150200366973877e-02) (97, -1.40484550502151250839e-03) (98, 8.94055142998695373535e-02) (99, -3.94901037216186523438e-02) (100, 3.67607958614826202393e-02) (101, 3.28399874269962310791e-02) (102, -9.89445224404335021973e-02) (103, -1.86546444892883300781e-02) (104, 1.50000000000000000000e+03) (105, 1.14972911775112152100e-01) (106, 8.98856073617935180664e-02) (107, -7.85789966583251953125e-01) (108, -7.01540037989616394043e-02) (109, -2.09260582923889160156e+00) (110, -1.49007752537727355957e-01) (111, -7.80309498310089111328e-01) (112, -4.71796542406082153320e-01) (113, -1.73298865556716918945e-01) (114, 2.76159733533859252930e-01) (115, 3.42325400561094284058e-03) (116, -2.74095475673675537109e-01) (117, -1.09875328838825225830e-01) (118, 4.87227104604244232178e-02) (119, -1.04228436946868896484e-01) (120, 1.45724684000015258789e-01) (121, -2.64094285666942596436e-02) (122, -1.51331603527069091797e-01) (123, -4.79932099580764770508e-01) (124, 1.68970540165901184082e-01) (125, 6.36840909719467163086e-02) (126, -8.68799239397048950195e-02) (127, 1.33270263671875000000e-01) (128, -6.93818181753158569336e-02) (129, 4.08797562122344970703e-02) (130, -5.60108609497547149658e-02) (131, 1.59671828150749206543e-02) (132, 1.68326813727617263794e-02) (133, 5.74005320668220520020e-02) (134, -7.71620869636535644531e-02) (135, 8.81930440664291381836e-02) (136, -3.81524935364723205566e-02) (137, -7.20984414219856262207e-02) (138, -5.42741781100630760193e-03) (139, 1.50000000000000000000e+03) (140, -1.51724955067038536072e-02) (141, -8.61474573612213134766e-01) (142, 1.11091688275337219238e-01) (143, 2.63171028345823287964e-02) (144, -1.33782640099525451660e-01) (145, 4.11367230117321014404e-03) (146, 6.15122392773628234863e-02) (147, -3.10259871184825897217e-02) (148, 2.89411321282386779785e-02) (149, -2.38909218460321426392e-02) (150, -1.00157052278518676758e-01) (151, -3.32101881504058837891e-02) (152, -7.06591129302978515625e-01) (153, -1.31990700960159301758e-01) (154, 1.09458252787590026855e-01) (155, -1.36267498135566711426e-01) (156, 1.92789733409881591797e-01) (157, -1.13828830420970916748e-01) (158, -1.66108572483062744141e+00) (159, 9.22072827816009521484e-02) (160, 7.46443718671798706055e-02) (161, -8.49170051515102386475e-03) (162, -7.68932938575744628906e-01) (163, 1.93085223436355590820e-02) (164, 2.26631332188844680786e-02) (165, -1.12076923251152038574e-01) (166, -4.39106784760951995850e-02) (167, -7.23755583167076110840e-02) (168, 2.81807277351617813110e-02) (169, -1.23807922005653381348e-01) (170, 6.85614719986915588379e-03) (171, 7.07091093063354492188e-02) (172, -7.55228251218795776367e-02) (173, -1.35539807379245758057e-02) (174, 1.50000000000000000000e+03) (175, 4.75270263850688934326e-02) (176, 1.07159030437469482422e+00) (177, -6.10865987837314605713e-02) (178, 2.49256696552038192749e-02) (179, 1.66128230094909667969e+00) (180, 3.88338007032871246338e-02) (181, 4.16601747274398803711e-02) (182, -2.05643087625503540039e-01) (183, 4.96354140341281890869e-02) (184, -5.49724280834197998047e-01) (185, -8.90661299228668212891e-01) (186, 1.16044402122497558594e-01) (187, -6.23699247837066650391e-01) (188, 7.14894458651542663574e-02) (189, -6.82077407836914062500e-02) (190, 6.26351013779640197754e-02) (191, 3.60488966107368469238e-02) (192, 5.34304752945899963379e-02) (193, -8.08570146560668945312e-01) (194, -8.89912694692611694336e-02) (195, 4.90906015038490295410e-02) (196, -3.67212668061256408691e-02) (197, -7.34012186527252197266e-01) (198, 1.07937574386596679688e-01) (199, -4.74172420799732208252e-02) (200, 1.66037734597921371460e-02) (201, -4.26351539790630340576e-02) (202, -4.07896973192691802979e-02) (203, 1.66536793112754821777e-01) (204, -1.63593366742134094238e-01) (205, -6.24472647905349731445e-02) (206, 5.88056491687893867493e-03) (207, 6.95851594209671020508e-02) (208, -1.09964245930314064026e-02) (209, 1.50000000000000000000e+03) (210, -1.79916322231292724609e-01) (211, -3.92364323139190673828e-01) (212, -1.88446652889251708984e+00) (213, 9.35623347759246826172e-01) (214, -5.71002960205078125000e-02) (215, -1.12214910984039306641e+00) (216, -1.73908686637878417969e+00) (217, -6.85030445456504821777e-02) (218, 3.79955321550369262695e-02) (219, 6.66072741150856018066e-02) (220, -1.54516851902008056641e+00) (221, -2.95379352569580078125e+00) (222, 1.76350846886634826660e-01) (223, -7.37864375114440917969e-02) (224, 5.69330811500549316406e-01) (225, -4.78223897516727447510e-02) (226, 8.07630419731140136719e-02) (227, 9.34963300824165344238e-02) (228, -3.60144734382629394531e+00) (229, -8.13194513320922851562e-01) (230, -4.29333075881004333496e-02) (231, -2.15819984674453735352e-01) (232, -1.52657711505889892578e+00) (233, 5.20172938704490661621e-02) (234, 1.57433915883302688599e-02) (235, -8.21350738406181335449e-02) (236, 2.37091407179832458496e-02) (237, -6.37648627161979675293e-02) (238, 1.11025050282478332520e-02) (239, -8.53801295161247253418e-02) (240, -8.03886577486991882324e-02) (241, -2.45318356901407241821e-02) (242, -2.24599819630384445190e-02) (243, -4.25164438784122467041e-02) (244, 1.50000000000000000000e+03) (245, -5.42582607269287109375e+00) (246, -2.80004477500915527344e+00) (247, -2.00859808921813964844e+00) (248, 3.06717514991760253906e-01) (249, -1.96823203563690185547e+00) (250, 5.90461850166320800781e-01) (251, -2.62997150421142578125e+00) (252, -3.55727672576904296875e-01) (253, 2.34534049034118652344e+00) (254, -3.98724317550659179688e+00) (255, 3.04958283901214599609e-01) (256, -4.90314900875091552734e-01) (257, -1.89105618000030517578e+00) (258, 6.68822824954986572266e-01) (259, 1.64062932133674621582e-01) (260, -1.96435177326202392578e+00) (261, 1.34511590003967285156e-01) (262, -1.98194995522499084473e-01) (263, -1.72324717044830322266e+00) (264, -2.84152626991271972656e+00) (265, 6.75003007054328918457e-02) (266, 5.13447046279907226562e+00) (267, 1.16655540466308593750e+00) (268, -4.83262613415718078613e-02) (269, -1.46870929747819900513e-02) (270, -2.58166380226612091064e-02) (271, -9.45753380656242370605e-02) (272, 7.53922760486602783203e-02) (273, 1.75382360816001892090e-01) (274, -3.51854041218757629395e-02) (275, -6.94514885544776916504e-02) (276, -8.45246091485023498535e-02) (277, -8.17803964018821716309e-02) (278, 1.05045903474092483521e-02) (279, 1.50000000000000000000e+03) (280, -5.91377541422843933105e-02) (281, 1.39301449060440063477e-01) (282, -5.57012939453125000000e+00) (283, 3.00130677223205566406e+00) (284, -1.09877586364746093750e-02) (285, -2.89709091186523437500e+00) (286, -2.26634860038757324219e+00) (287, 1.70602649450302124023e-01) (288, -8.66690352559089660645e-02) (289, 6.85245469212532043457e-02) (290, 1.04261785745620727539e-01) (291, -1.45224170684814453125e+01) (292, -6.99816942214965820312e-02) (293, 5.79893365502357482910e-02) (294, -4.03840020298957824707e-02) (295, -2.32174611091613769531e+00) (296, -2.27048897743225097656e+00) (297, 7.48635053634643554688e+00) (298, 4.19690549373626708984e-01) (299, -1.60708837211132049561e-02) (300, 4.21809643507003784180e-01) (301, -1.50000000000000000000e+03) (302, 1.26475505828857421875e+01) (303, 1.24482393264770507812e-01) (304, -1.08369454741477966309e-01) (305, 7.68410786986351013184e-02) (306, -8.10602903366088867188e-02) (307, -6.90530166029930114746e-02) (308, 3.81540186936035752296e-04) (309, 9.30203869938850402832e-02) (310, 6.31371811032295227051e-02) (311, -5.10550551116466522217e-02) (312, -8.83885473012924194336e-02) (313, 4.34617102146148681641e-02) (314, 1.50000000000000000000e+03) (315, 2.95594990253448486328e-01) (316, -6.26490294933319091797e-01) (317, -2.46856987476348876953e-01) (318, 3.70786786079406738281e-02) (319, 4.32555437088012695312e+00) (320, -8.46333578228950500488e-02) (321, -3.08177518844604492188e+00) (322, 1.56157112121582031250e+00) (323, 1.78486895561218261719e+00) (324, -4.46951985359191894531e-02) (325, 8.96071195602416992188e-02) (326, -1.31725621223449707031e+00) (327, 1.53111286163330078125e+01) (328, 5.95869682729244232178e-02) (329, -1.44754752516746520996e-01) (330, 2.74779684841632843018e-02) (331, 1.85653793811798095703e+00) (332, 1.82905793190002441406e+00) (333, -9.13032948970794677734e-01) (334, 1.78231984376907348633e-01) (335, -2.75470353662967681885e-02) (336, 1.16240434646606445312e+01) (337, 1.88154804706573486328e+00) (338, 3.35551402531564235687e-03) (339, 1.63927879184484481812e-02) (340, 2.40437835454940795898e-02) (341, 1.37791365385055541992e-01) (342, 1.25840544700622558594e-01) (343, 1.59505411982536315918e-01) (344, 4.87151220440864562988e-02) (345, 4.02365289628505706787e-02) (346, 6.40582945197820663452e-03) (347, 1.96113064885139465332e-01) (348, 1.65099367499351501465e-01) (349, 1.50000000000000000000e+03) (350, -1.25875163078308105469e+00) (351, 6.94393336772918701172e-01) (352, 4.95071075856685638428e-02) (353, 1.89468368887901306152e-01) (354, -1.20821857452392578125e+00) (355, -1.79335713386535644531e-01) (356, 1.02167855948209762573e-02) (357, -9.30757164955139160156e-01) (358, 5.80002442002296447754e-02) (359, -7.54536271095275878906e-01) (360, -3.79880443215370178223e-02) (361, -4.32930476963520050049e-02) (362, 1.27637481689453125000e+00) (363, 4.52420748770236968994e-02) (364, 2.23920702934265136719e-01) (365, 1.14024523645639419556e-02) (366, 1.68389230966567993164e-01) (367, -1.47960937023162841797e+00) (368, -2.67484694719314575195e-01) (369, 4.26970750093460083008e-01) (370, -4.33012004941701889038e-03) (371, 7.17442452907562255859e-01) (372, 2.08567276597023010254e-01) (373, 5.26055805385112762451e-02) (374, -5.24344705045223236084e-02) (375, -5.13205230236053466797e-02) (376, 1.21575549244880676270e-01) (377, 9.49314907193183898926e-02) (378, 1.61867886781692504883e-01) (379, 7.82441720366477966309e-02) (380, -2.82541830092668533325e-02) (381, 4.43317033350467681885e-02) (382, 3.31836156547069549561e-02) (383, 1.04403182864189147949e-01) (384, 1.50000000000000000000e+03) (385, -1.48421712219715118408e-02) (386, -6.13680720329284667969e-01) (387, -8.21902692317962646484e-01) (388, 4.19784903526306152344e-01) (389, 3.45721006393432617188e-01) (390, -7.79880762100219726562e-01) (391, -7.79210701584815979004e-02) (392, 1.00180491805076599121e-01) (393, -3.78785990178585052490e-02) (394, -3.55208180844783782959e-02) (395, -6.34465098381042480469e-01) (396, 7.83418538048863410950e-04) (397, 2.66473919153213500977e-01) (398, -6.99771717190742492676e-02) (399, -2.77503967285156250000e-01) (400, 1.67922750115394592285e-01) (401, 1.29546925425529479980e-01) (402, 4.24868874251842498779e-02) (403, 3.10278922319412231445e-01) (404, -2.61003505438566207886e-02) (405, 5.26740588247776031494e-02) (406, 2.51630302518606185913e-02) (407, 1.71111196279525756836e-01) (408, -5.01016154885292053223e-02) (409, 1.21593430638313293457e-01) (410, 9.13275629281997680664e-02) (411, 1.43055692315101623535e-02) (412, 1.38544425368309020996e-01) (413, 1.81707218289375305176e-01) (414, 6.55454620718955993652e-02) (415, -1.42933605238795280457e-02) (416, 3.95888164639472961426e-02) (417, 1.17139227688312530518e-01) (418, 1.06959924101829528809e-01) (419, 1.50000000000000000000e+03) (420, -3.61874759197235107422e-01) (421, 8.31522513180971145630e-03) (422, 4.80287402868270874023e-01) (423, 7.54070281982421875000e-02) (424, -2.46724441647529602051e-01) (425, -1.57528996467590332031e-01) (426, -4.15801033377647399902e-02) (427, 1.43786251544952392578e-01) (428, -2.13569123297929763794e-02) (429, -1.34627604484558105469e+00) (430, -7.61238932609558105469e-01) (431, 1.69592976570129394531e-01) (432, -2.78437316417694091797e-01) (433, 5.75806833803653717041e-02) (434, 1.30861058831214904785e-01) (435, 1.42930164933204650879e-01) (436, 3.52171689271926879883e-01) (437, 1.17918781936168670654e-01) (438, 3.37799720000475645065e-04) (439, 1.43818140029907226562e-01) (440, 5.23974448442459106445e-02) (441, -5.17019391059875488281e-01) (442, -1.12612962722778320312e-01) (443, 1.97140150703489780426e-03) (444, 7.02752918004989624023e-02) (445, 1.29761457443237304688e-01) (446, 2.40520648658275604248e-02) (447, 8.43527391552925109863e-02) (448, 9.24717485904693603516e-02) (449, -5.59420734643936157227e-02) (450, 1.01600117981433868408e-01) (451, -4.84987050294876098633e-02) (452, 5.85043467581272125244e-02) (453, -1.01731996983289718628e-02) (454, 1.50000000000000000000e+03) (455, -4.31787401437759399414e-01) (456, -2.43170261383056640625e+00) (457, 1.26216128468513488770e-01) (458, 1.12574958801269531250e+00) (459, 3.86729277670383453369e-02) (460, -1.68421536684036254883e-01) (461, 5.71152120828628540039e-02) (462, 5.47976568341255187988e-02) (463, 4.14538495242595672607e-02) (464, 9.22361165285110473633e-02) (465, 2.73265354335308074951e-02) (466, 7.73888528347015380859e-02) (467, 2.25540593266487121582e-01) (468, -2.79426444321870803833e-02) (469, -4.77812796831130981445e-01) (470, 1.58428121358156204224e-02) (471, 1.59137964248657226562e-01) (472, 5.71781322360038757324e-02) (473, -5.86421936750411987305e-02) (474, -4.19489413499832153320e-01) (475, 1.22601896524429321289e-01) (476, 6.01591244339942932129e-02) (477, -2.61861681938171386719e-01) (478, 1.04107931256294250488e-01) (479, -2.71513238549232482910e-02) (480, 1.22355110943317413330e-01) (481, 4.83974665403366088867e-02) (482, 7.84589499235153198242e-02) (483, 7.56694525480270385742e-02) (484, -6.59307092428207397461e-02) (485, -1.40035049989819526672e-02) (486, -1.05581982061266899109e-02) (487, -2.06818878650665283203e-02) (488, 9.57761183381080627441e-02) (489, 1.50000000000000000000e+03) (490, -3.93204875290393829346e-02) (491, 3.93021970987319946289e-01) (492, -2.07699894905090332031e-01) (493, 2.69826918840408325195e-01) (494, 1.16224849224090576172e+00) (495, -1.41768515110015869141e-01) (496, -8.69650840759277343750e-01) (497, 1.09947927296161651611e-01) (498, 8.93051475286483764648e-02) (499, 6.51477277278900146484e-02) (500, -5.47878956422209739685e-03) (501, 9.85926985740661621094e-02) (502, -5.44605255126953125000e-01) (503, 6.97709545493125915527e-02) (504, 1.18361428380012512207e-01) (505, 6.62871822714805603027e-02) (506, 4.85023885965347290039e-01) (507, -5.65578639507293701172e-01) (508, -1.19504070281982421875e+00) (509, 2.33089718967676162720e-02) (510, 1.09950371086597442627e-01) (511, 5.12369498610496520996e-02) (512, 1.92002281546592712402e-01) (513, -3.57481092214584350586e-02) (514, 8.14874023199081420898e-02) (515, -6.43180087208747863770e-02) (516, -1.07891615480184555054e-02) (517, -6.39467092696577310562e-04) (518, 4.46077063679695129395e-02) (519, -2.08053905516862869263e-02) (520, 8.50378628820180892944e-03) (521, -7.82494023442268371582e-02) (522, -1.30650252103805541992e-02) (523, -5.70577383041381835938e-02) (524, 1.50000000000000000000e+03) (525, 8.61516594886779785156e-02) (526, 4.50352579355239868164e-01) (527, 1.12132184207439422607e-01) (528, 7.09499698132276535034e-04) (529, -2.99036294221878051758e-01) (530, -7.70453736186027526855e-02) (531, 4.43683445453643798828e-01) (532, -6.05284608900547027588e-02) (533, 9.46273356676101684570e-02) (534, -3.06343566626310348511e-02) (535, -1.10370256006717681885e-01) (536, 1.50965750217437744141e-01) (537, 3.98663341999053955078e-01) (538, 8.49494487047195434570e-02) (539, 3.01955997943878173828e-01) (540, -8.03886130452156066895e-02) (541, -3.46830487251281738281e-02) (542, 5.03420159220695495605e-02) (543, -1.52390852570533752441e-01) (544, -3.47029007971286773682e-02) (545, 2.22605019807815551758e-02) (546, -5.76089248061180114746e-02) (547, -1.21046975255012512207e-01) (548, 5.23937568068504333496e-02) (549, -9.84156038612127304077e-03) (550, -6.80829137563705444336e-02) (551, -7.74373859167098999023e-02) (552, 4.62370477616786956787e-02) (553, 5.41210509836673736572e-02) (554, -4.80638667941093444824e-02) (555, 6.99196979403495788574e-02) (556, -5.01475371420383453369e-02) (557, -5.36938495934009552002e-02) (558, 3.01690082997083663940e-02) (559, 1.50000000000000000000e+03) (560, -1.04977957904338836670e-01) (561, 4.50522869825363159180e-01) (562, -5.52831113338470458984e-01) (563, -5.86907193064689636230e-02) (564, -1.10461950302124023438e+00) (565, -2.29963287711143493652e-01) (566, 1.21491149067878723145e-01) (567, -1.40963703393936157227e-01) (568, 1.94426238536834716797e-01) (569, -1.11839972436428070068e-01) (570, -7.44243785738945007324e-02) (571, 8.09319987893104553223e-02) (572, -3.11455219984054565430e-01) (573, 1.42009332776069641113e-01) (574, 1.08549571037292480469e+00) (575, 7.36475437879562377930e-02) (576, 4.92593236267566680908e-02) (577, 1.21689923107624053955e-01) (578, -2.53824353218078613281e+00) (579, -2.46560022234916687012e-01) (580, -2.46655121445655822754e-02) (581, -2.13609352707862854004e-01) (582, -5.37174046039581298828e-02) (583, 3.41159738600254058838e-02) (584, 3.75079689547419548035e-03) (585, 2.16715950518846511841e-02) (586, -3.59933748841285705566e-02) (587, 9.17349979281425476074e-02) (588, 9.67692434787750244141e-02) (589, -1.23494133353233337402e-01) (590, -3.72991263866424560547e-02) (591, -5.34520158544182777405e-03) (592, -4.84213531017303466797e-02) (593, -2.89067104458808898926e-02) (594, 1.50000000000000000000e+03) (595, 2.55588386207818984985e-02) (0, 3.21558386087417602539e-01) (1, 8.30257324218750000000e+02) (2, 2.96604901552200317383e-01) (3, 4.12251889705657958984e-01) (4, 1.50000000000000000000e+03) (5, 4.43739831447601318359e-01) (6, 3.76867324113845825195e-01) (7, 1.55981099605560302734e+00) (8, 3.12513947486877441406e+00) (9, 7.00055539608001708984e-01) (10, 2.51803817749023437500e+02) (11, 2.94425457715988159180e-01) (12, 1.47889782714843750000e+03) (13, 4.01006609201431274414e-01) (14, 4.47032928466796875000e-01) (15, 3.70651185512542724609e-01) (16, 6.34362459182739257812e-01) (17, 1.33016500473022460938e+01) (18, 1.50000000000000000000e+03) (19, 1.50000000000000000000e+03) (20, 2.87132352590560913086e-01) (21, 2.82883110046386718750e+01) (22, 1.28893685340881347656e+00) (23, 3.60465705394744873047e-01) (24, 3.55907082557678222656e-01) (25, 5.02380728721618652344e-01) (26, 4.67414408922195434570e-01) (27, 5.49928724765777587891e-01) (28, 3.60847830772399902344e-01) (29, 1.50000000000000000000e+03) (30, 2.93049961328506469727e-01) (31, 4.26376372575759887695e-01) (32, 4.48938220739364624023e-01) (33, 5.31184971332550048828e-01) (34, 1.50000000000000000000e+03) (35, 4.32328826904296875000e+02) (36, 4.49193090200424194336e-01) (37, 4.07500237226486206055e-01) (38, 3.85775715112686157227e-01) (39, 6.70511305332183837891e-01) (40, 2.06121463775634765625e+01) (41, 3.73847573995590209961e-01) (42, 3.17695140838623046875e-01) (43, 7.37684190273284912109e-01) (44, 2.80001997947692871094e-01) (45, 3.96344423294067382812e-01) (46, 1.50000000000000000000e+03) (47, 2.79536509513854980469e+00) (48, 9.55171325683593750000e+02) (49, 1.49999279785156250000e+03) (50, 2.67595320940017700195e-01) (51, 8.52410697937011718750e+00) (52, 4.82713907957077026367e-01) (53, 2.89605617523193359375e-01) (54, 3.17099630832672119141e-01) (55, 2.28366541862487792969e+00) (56, 4.70591773986816406250e+01) (57, 4.87217932939529418945e-01) (58, 3.33236008882522583008e-01) (59, 2.20496848225593566895e-01) (60, 4.71653997898101806641e-01) (61, 5.95836341381072998047e-01) (62, 5.34265041351318359375e-01) (63, 3.31024199724197387695e-01) (64, 1.50000000000000000000e+03) (65, 2.88014382123947143555e-01) (66, 3.25963050127029418945e-01) (67, 3.97773861885070800781e-01) (68, 4.17605996131896972656e-01) (69, 1.50000000000000000000e+03) (70, 1.97562682628631591797e+00) (71, 1.50000000000000000000e+03) (72, 3.53630423545837402344e-01) (73, 5.69504678249359130859e-01) (74, 3.30413877964019775391e-01) (75, 3.90126705169677734375e-01) (76, 5.06694436073303222656e-01) (77, 6.58397793769836425781e-01) (78, 6.12075030803680419922e-01) (79, 1.45088171958923339844e+00) (80, 2.07603836059570312500e+00) (81, 4.15522426366806030273e-01) (82, 1.18734085083007812500e+02) (83, 1.50000000000000000000e+03) (84, 4.53300625085830688477e-01) (85, 4.51413005590438842773e-01) (86, 3.74525219202041625977e-01) (87, 2.89845108985900878906e-01) (88, 1.38854443359375000000e+03) (89, 3.35744351148605346680e-01) (90, 3.93460541963577270508e-01) (91, 1.50000000000000000000e+03) (92, -2.08241209387779235840e-01) (93, 2.31418162584304809570e-01) (94, 3.59981566667556762695e-01) (95, 4.69347983598709106445e-01) (96, 4.87170517444610595703e-01) (97, 5.70147514343261718750e-01) (98, 2.55089521408081054688e-01) (99, 1.50000000000000000000e+03) (100, 3.77184242010116577148e-01) (101, 3.85781019926071166992e-01) (102, 5.76088964939117431641e-01) (103, 4.05353933572769165039e-01) (104, 1.50000000000000000000e+03) (105, 1.22371734619140625000e+02) (106, 1.50000000000000000000e+03) (107, 4.28284764289855957031e-01) (108, 5.25199592113494873047e-01) (109, 5.83410120010375976562e+00) (110, 3.87380719184875488281e-01) (111, 3.92382591962814331055e-01) (112, 1.63920059800148010254e-01) (113, 1.08282928466796875000e+01) (114, 3.88331890106201171875e-01) (115, 3.96695584058761596680e-01) (116, 2.95690357685089111328e-01) (117, 6.05894923210144042969e-01) (118, 2.95211911201477050781e-01) (119, 3.17339420318603515625e-01) (120, 6.61714613437652587891e-01) (121, 3.80579010009765625000e+02) (122, 2.83728361129760742188e-01) (123, 3.06704223632812500000e+02) (124, 1.50000000000000000000e+03) (125, 4.80861425399780273438e-01) (126, 1.50000000000000000000e+03) (127, -8.00559967756271362305e-02) (128, 2.70806401968002319336e-01) (129, 3.34514796733856201172e-01) (130, 3.42278391122817993164e-01) (131, 6.13496422767639160156e-01) (132, 4.08929944038391113281e-01) (133, 2.77225524187088012695e-01) (134, 1.50000000000000000000e+03) (135, 3.78884881734848022461e-01) (136, 2.70441502332687377930e-01) (137, 5.74706494808197021484e-01) (138, 3.92081856727600097656e-01) (139, 1.50000000000000000000e+03) (140, 4.27465476989746093750e+01) (141, 1.96493499755859375000e+02) (142, 2.91412174701690673828e-01) (143, 3.17192286252975463867e-01) (144, 7.66780376434326171875e-01) (145, 4.15721327066421508789e-01) (146, 3.28782469034194946289e-01) (147, 8.70999813079833984375e-01) (148, 5.16694486141204833984e-01) (149, 1.50000000000000000000e+03) (150, 1.50000000000000000000e+03) (151, 3.10569930076599121094e+00) (152, 4.43885564804077148438e-01) (153, 3.53587776422500610352e-01) (154, 3.79482984542846679688e-01) (155, 3.47418963909149169922e-01) (156, 1.21118581295013427734e+00) (157, 1.50000000000000000000e+03) (158, 3.67979794740676879883e-01) (159, 1.50000000000000000000e+03) (160, 6.26266479492187500000e-01) (161, 1.50000000000000000000e+03) (162, -1.53911375999450683594e+00) (163, 3.87098908424377441406e-01) (164, 3.68332654237747192383e-01) (165, 3.21996986865997314453e-01) (166, 5.31483471393585205078e-01) (167, 5.27406752109527587891e-01) (168, 2.55560845136642456055e-01) (169, 1.50000000000000000000e+03) (170, 3.14677447080612182617e-01) (171, 3.52894455194473266602e-01) (172, 4.80860352516174316406e-01) (173, 5.29291391372680664062e-01) (174, 1.50000000000000000000e+03) (175, 2.52622514963150024414e-01) (176, 2.28191107511520385742e-01) (177, 3.24011147022247314453e-01) (178, 4.26997244358062744141e-01) (179, 2.24506869912147521973e-01) (180, 1.50000000000000000000e+03) (181, 4.92321103811264038086e-01) (182, 2.64901101589202880859e-01) (183, 5.61716003417968750000e+01) (184, 1.09246063232421875000e+00) (185, 5.98815083503723144531e-01) (186, 1.20484149456024169922e+00) (187, 1.10459935665130615234e+00) (188, 1.50000000000000000000e+03) (189, 2.23808868408203125000e+02) (190, 4.32120323181152343750e-01) (191, 3.64669829607009887695e-01) (192, 2.86278307437896728516e-01) (193, -8.24046142578125000000e+02) (194, 2.34911516308784484863e-01) (195, 3.07277202606201171875e+00) (196, 5.96008544921875000000e+02) (197, -1.03784680175781250000e+03) (198, 2.30988115072250366211e-01) (199, 2.27742478251457214355e-01) (200, 5.49738466739654541016e-01) (201, 5.11732220649719238281e-01) (202, 4.85662609338760375977e-01) (203, 4.13168847560882568359e-01) (204, 1.50000000000000000000e+03) (205, 3.10045868158340454102e-01) (206, 4.42090779542922973633e-01) (207, 4.46546524763107299805e-01) (208, 5.34030437469482421875e-01) (209, 1.50000000000000000000e+03) (210, 4.44142675399780273438e+00) (211, -3.09405994415283203125e+00) (212, -1.58684706687927246094e+00) (213, 1.10382653808593750000e+03) (214, 1.31292808055877685547e+00) (215, -2.52412343025207519531e+00) (216, 2.73593693971633911133e-01) (217, 1.33959138393402099609e+00) (218, 5.72860658168792724609e-01) (219, 1.50000000000000000000e+03) (220, 6.05958938598632812500e-01) (221, 2.57427543401718139648e-01) (222, 1.50000000000000000000e+03) (223, 4.69581931829452514648e-01) (224, 5.93030631542205810547e-01) (225, 2.03096313476562500000e+01) (226, 2.32312992215156555176e-01) (227, 2.58100528717041015625e+01) (228, 1.49516711425781250000e+03) (229, 2.96889871358871459961e-01) (230, 8.62687492370605468750e+00) (231, 1.50000000000000000000e+03) (232, -1.24961938476562500000e+03) (233, 2.60661035776138305664e-01) (234, 3.97137612104415893555e-01) (235, 6.01833701133728027344e-01) (236, 5.18304467201232910156e-01) (237, 5.55631577968597412109e-01) (238, 4.25418496131896972656e-01) (239, 1.50000000000000000000e+03) (240, 3.62217605113983154297e-01) (241, 3.04643958806991577148e-01) (242, 5.67768454551696777344e-01) (243, 4.81367290019989013672e-01) (244, 1.50000000000000000000e+03) (245, 3.56790161132812500000e+02) (246, -1.49502490234375000000e+03) (247, 1.50000000000000000000e+03) (248, 2.20168418884277343750e+01) (249, -1.50000000000000000000e+03) (250, 3.13499794006347656250e+01) (251, 1.50000000000000000000e+03) (252, 1.68494969606399536133e-01) (253, 1.50000000000000000000e+03) (254, 4.56688493490219116211e-01) (255, 5.27941093444824218750e+01) (256, 1.62964951992034912109e+00) (257, 1.50000000000000000000e+03) (258, 1.27292699813842773438e+01) (259, 2.35213203430175781250e+01) (260, 7.28577089309692382812e+00) (261, 6.75708961486816406250e+00) (262, -7.95869708061218261719e-01) (263, 1.32636596679687500000e+03) (264, 2.34169721603393554688e-01) (265, 1.50000000000000000000e+03) (266, 8.40280532836914062500e+00) (267, 7.55963973999023437500e+01) (268, 2.25260913372039794922e-01) (269, 4.11934226751327514648e-01) (270, 5.35551726818084716797e-01) (271, 5.35074770450592041016e-01) (272, 4.32972043752670288086e-01) (273, 2.80348241329193115234e-01) (274, 1.50000000000000000000e+03) (275, 4.26822781562805175781e-01) (276, 3.68755251169204711914e-01) (277, 5.81990659236907958984e-01) (278, 5.87173104286193847656e-01) (279, 1.50000000000000000000e+03) (280, 2.71774125099182128906e+00) (281, -8.98600463867187500000e+01) (282, 2.85081601142883300781e+00) (283, 8.28557491302490234375e+00) (284, 9.89544868469238281250e+00) (285, 1.50000000000000000000e+03) (286, 1.76293444633483886719e+00) (287, -1.83015242218971252441e-01) (288, 1.30580625534057617188e+01) (289, 1.52031958103179931641e+00) (290, 5.75934829711914062500e+01) (291, 1.91121253967285156250e+01) (292, 1.50000000000000000000e+03) (293, 1.55750691890716552734e+00) (294, 2.08351790904998779297e-01) (295, 5.18841695785522460938e+00) (296, 2.54658848047256469727e-01) (297, 3.61741632223129272461e-01) (298, 4.33511304855346679688e+00) (299, 2.06563162803649902344e+00) (300, 1.49999414062500000000e+03) (301, -3.81206655502319335938e+00) (302, -1.35249633789062500000e+02) (303, 3.08142423629760742188e-01) (304, 2.45796158909797668457e-01) (305, 3.43356907367706298828e-01) (306, 5.02959966659545898438e-01) (307, 5.96391081809997558594e-01) (308, 2.77668654918670654297e-01) (309, 1.49998876953125000000e+03) (310, 4.43834751844406127930e-01) (311, 4.22735542058944702148e-01) (312, 5.04896283149719238281e-01) (313, 6.48273050785064697266e-01) (314, 1.50000000000000000000e+03) (315, 8.17186295986175537109e-01) (316, -1.50000000000000000000e+03) (317, 1.25918054199218750000e+03) (318, 1.50000000000000000000e+03) (319, 1.05299782752990722656e+00) (320, 7.79284667968750000000e+01) (321, 5.97838878631591796875e+00) (322, 1.49689953613281250000e+03) (323, 4.91676979064941406250e+01) (324, -7.37948492169380187988e-02) (325, 6.89316701889038085938e+00) (326, 7.80908155441284179688e+00) (327, 9.39659362792968750000e+02) (328, 1.50000000000000000000e+03) (329, 1.67106506347656250000e+02) (330, 4.60706949234008789062e-01) (331, 2.58361511230468750000e+02) (332, 1.49961389160156250000e+03) (333, -9.08583545684814453125e+00) (334, 1.04746866226196289062e+00) (335, 1.49998339843750000000e+03) (336, 3.29424071311950683594e+00) (337, 5.04863204956054687500e+01) (338, 2.73511707782745361328e-01) (339, 4.28936630487442016602e-01) (340, 7.71865189075469970703e-01) (341, 4.75243031978607177734e-01) (342, 6.27321839332580566406e-01) (343, 4.17101025581359863281e-01) (344, 1.07809716796875000000e+03) (345, 3.25955688953399658203e-01) (346, 3.98677855730056762695e-01) (347, 6.07293248176574707031e-01) (348, 5.44713735580444335938e-01) (349, 1.50000000000000000000e+03) (350, 3.34683626890182495117e-01) (351, 1.44234155273437500000e+03) (352, 2.42493515014648437500e+02) (353, -9.49748420715332031250e+00) (354, 3.22835117578506469727e-01) (355, 1.36956201171875000000e+03) (356, 2.07714843750000000000e+02) (357, 1.17415856933593750000e+03) (358, 4.09249454736709594727e-01) (359, 5.39789733886718750000e+02) (360, 4.31322365999221801758e-01) (361, 6.78241348266601562500e+01) (362, 1.50000000000000000000e+03) (363, 4.09905165433883666992e-01) (364, 3.93380999565124511719e-01) (365, 5.17880058288574218750e+00) (366, 4.87598598003387451172e-01) (367, 1.50000000000000000000e+03) (368, 7.80970703125000000000e+02) (369, 5.46920061111450195312e-01) (370, 6.55685520172119140625e+00) (371, 2.66096711158752441406e+00) (372, 4.74683237075805664062e+00) (373, 4.29053992033004760742e-01) (374, 2.68326342105865478516e-01) (375, 8.19582581520080566406e-01) (376, 6.50044381618499755859e-01) (377, 6.32452130317687988281e-01) (378, 2.95738875865936279297e-01) (379, 8.41275512695312500000e+02) (380, 3.84541213512420654297e-01) (381, 3.90577793121337890625e-01) (382, 4.42009449005126953125e-01) (383, 5.46242356300354003906e-01) (384, 1.50000000000000000000e+03) (385, 3.64677071571350097656e-01) (386, 9.05088195800781250000e+01) (387, 2.63834810256958007812e+00) (388, 1.82243871688842773438e+00) (389, 1.50000000000000000000e+03) (390, 1.50000000000000000000e+03) (391, 3.90913486480712890625e-01) (392, 2.50682204961776733398e-01) (393, 2.51561671495437622070e-01) (394, 3.74588638544082641602e-01) (395, 2.12786287069320678711e-01) (396, 4.66687679290771484375e-01) (397, 1.10520983886718750000e+03) (398, 4.55858260393142700195e-01) (399, 3.86210799217224121094e-01) (400, 3.07741882324218750000e+02) (401, 8.59093551635742187500e+01) (402, 5.10428131103515625000e+02) (403, 1.50000000000000000000e+03) (404, 4.57717746496200561523e-01) (405, 1.01383438110351562500e+01) (406, 1.11252164840698242188e+00) (407, 8.74035583496093750000e+02) (408, 2.43072882294654846191e-01) (409, 3.54263395071029663086e-01) (410, 1.02619361877441406250e+00) (411, 6.08769536018371582031e-01) (412, 5.22591471672058105469e-01) (413, 2.93723583221435546875e-01) (414, 5.94806945800781250000e+02) (415, 3.20321649312973022461e-01) (416, 3.42035561800003051758e-01) (417, 6.09394550323486328125e-01) (418, 4.78988200426101684570e-01) (419, 1.50000000000000000000e+03) (420, 3.76209139823913574219e-01) (421, 1.41737133789062500000e+03) (422, 1.47362613677978515625e+01) (423, 3.99522215127944946289e-01) (424, 5.21131420135498046875e+00) (425, 1.78158626556396484375e+01) (426, 3.78746211528778076172e-01) (427, 8.59220520019531250000e+02) (428, 3.12918275594711303711e-01) (429, 3.43365401029586791992e-01) (430, 2.01577737927436828613e-01) (431, 5.66930472850799560547e-01) (432, 1.27942085266113281250e+02) (433, 3.15912038087844848633e-01) (434, 2.58999735116958618164e-01) (435, 5.63935220241546630859e-01) (436, 6.06110954284667968750e+00) (437, 1.50000000000000000000e+03) (438, 1.49998767089843750000e+03) (439, 4.01677280664443969727e-01) (440, 1.80953145027160644531e+00) (441, 5.12836158275604248047e-01) (442, 1.41461572265625000000e+03) (443, 3.13496321439743041992e-01) (444, 3.93105328083038330078e-01) (445, 1.73559165000915527344e+00) (446, 6.19542777538299560547e-01) (447, 5.16162633895874023438e-01) (448, 2.93543010950088500977e-01) (449, 5.94785888671875000000e+02) (450, 3.34683418273925781250e-01) (451, 4.07406628131866455078e-01) (452, 5.46841979026794433594e-01) (453, 5.14666080474853515625e-01) (454, 1.50000000000000000000e+03) (455, 2.93767482042312622070e-01) (456, 4.06908512115478515625e+00) (457, 1.57337665557861328125e+00) (458, 6.00786030292510986328e-01) (459, 1.50000000000000000000e+03) (460, 4.19223099946975708008e-01) (461, 4.04183655977249145508e-01) (462, 8.52791748046875000000e+02) (463, 3.76231223344802856445e-01) (464, 1.50000000000000000000e+03) (465, 4.31152534484863281250e+00) (466, 4.78246539831161499023e-01) (467, 1.81576747894287109375e+01) (468, 2.43819728493690490723e-01) (469, 3.44419389963150024414e-01) (470, 3.57598543167114257812e-01) (471, 8.24231811523437500000e+02) (472, 1.34195031738281250000e+03) (473, 1.50000000000000000000e+03) (474, 1.49812233448028564453e+00) (475, 7.21887111663818359375e-01) (476, 1.50000000000000000000e+03) (477, 1.50000000000000000000e+03) (478, 4.03017312288284301758e-01) (479, 3.07226628065109252930e-01) (480, 2.17162275314331054688e+00) (481, 5.17543375492095947266e-01) (482, 5.45376360416412353516e-01) (483, 3.00441414117813110352e-01) (484, 8.41149169921875000000e+02) (485, 4.20901089906692504883e-01) (486, 3.90367954969406127930e-01) (487, 6.58395946025848388672e-01) (488, 5.00520527362823486328e-01) (489, 1.50000000000000000000e+03) (490, 4.16186511516571044922e-01) (491, 1.08709094238281250000e+03) (492, 2.49796748161315917969e+00) (493, 3.90993654727935791016e-01) (494, 3.09967742919921875000e+02) (495, 4.06223624944686889648e-01) (496, 1.17483186721801757812e+00) (497, 1.49999279785156250000e+03) (498, 7.09819555282592773438e-01) (499, 8.81217765808105468750e+00) (500, 1.36505258083343505859e+00) (501, 4.91979539394378662109e-01) (502, 3.50293464660644531250e+01) (503, 3.42746824026107788086e-01) (504, 2.65441924333572387695e-01) (505, 3.23986053466796875000e-01) (506, 2.80724668502807617188e+00) (507, 1.30523895263671875000e+02) (508, 3.38169962167739868164e-01) (509, 7.00753173828125000000e+02) (510, 6.05405032634735107422e-01) (511, 3.52675390243530273438e+00) (512, 1.50000000000000000000e+03) (513, 4.17768865823745727539e-01) (514, 2.27824315428733825684e-01) (515, 1.84055984020233154297e+00) (516, 5.62723457813262939453e-01) (517, 6.29367053508758544922e-01) (518, 3.54566693305969238281e-01) (519, 8.41142517089843750000e+02) (520, 4.51046466827392578125e-01) (521, 3.19712251424789428711e-01) (522, 5.85122585296630859375e-01) (523, 6.50662004947662353516e-01) (524, 1.50000000000000000000e+03) (525, 4.34428721666336059570e-01) (526, 1.14326159667968750000e+03) (527, 6.08073890209197998047e-01) (528, 2.56104011535644531250e+01) (529, 1.28549683094024658203e+00) (530, 3.85177917480468750000e+02) (531, 3.65963488817214965820e-01) (532, 1.29490506649017333984e+00) (533, 6.60163283348083496094e-01) (534, 2.21617937088012695312e+00) (535, 7.65448486328125000000e+02) (536, 3.05298149585723876953e-01) (537, 1.37685489654541015625e+01) (538, 4.03516769409179687500e-01) (539, 2.81262397766113281250e-01) (540, 4.24181282520294189453e-01) (541, 6.78719997406005859375e-01) (542, 8.60856933593750000000e+02) (543, 3.67919176816940307617e-01) (544, 2.32775616645812988281e+00) (545, 7.18935668468475341797e-01) (546, 3.56375551223754882812e+00) (547, 1.49189184570312500000e+03) (548, 2.95479804277420043945e-01) (549, 3.47815454006195068359e-01) (550, 1.74880552291870117188e+00) (551, 4.78121966123580932617e-01) (552, 6.59793376922607421875e-01) (553, 2.45728597044944763184e-01) (554, 5.94798950195312500000e+02) (555, 3.86298745870590209961e-01) (556, 4.60108518600463867188e-01) (557, 5.71631669998168945312e-01) (558, 7.50895977020263671875e-01) (559, 1.50000000000000000000e+03) (560, 4.53972250223159790039e-01) (561, 8.25242675781250000000e+02) (562, 1.49999279785156250000e+03) (563, 2.18851791381835937500e+02) (564, 2.81658470630645751953e-01) (565, 4.62342083454132080078e-01) (566, 4.10324907302856445312e+00) (567, 3.24974328279495239258e-01) (568, 4.35234099626541137695e-01) (569, 4.12203282117843627930e-01) (570, 3.31456452608108520508e-01) (571, 2.85315876007080078125e+01) (572, 1.22269554138183593750e+01) (573, 4.13947045803070068359e-01) (574, 3.71584475040435791016e-01) (575, 2.15334682464599609375e+01) (576, 9.39169824123382568359e-01) (577, 3.79004597663879394531e-01) (578, -5.09597740173339843750e+01) (579, 4.13251727819442749023e-01) (580, 5.24635612964630126953e-01) (581, 6.53136432170867919922e-01) (582, 1.49192370605468750000e+03) (583, 3.55734318494796752930e-01) (584, 3.76478791236877441406e-01) (585, 1.66647624969482421875e+00) (586, 4.58310574293136596680e-01) (587, 6.34162068367004394531e-01) (588, 3.49171012639999389648e-01) (589, 3.71174255371093750000e+02) (590, 3.93061459064483642578e-01) (591, 3.58967989683151245117e-01) (592, 5.81652760505676269531e-01) (593, 5.53559780120849609375e-01) (594, 1.50000000000000000000e+03) (595, 3.82167935371398925781e-01) (0, 5.17820775508880615234e-01) (1, 5.93942642211914062500e-01) (2, 5.03148972988128662109e-01) (3, 5.44947147369384765625e-01) (4, 1.34230387210845947266e+00) (5, 5.80383718013763427734e-01) (6, 5.73716783523559570312e+00) (7, 4.82978284358978271484e-01) (8, 5.78646540641784667969e-01) (9, 3.99570792913436889648e-01) (10, 6.98901295661926269531e-01) (11, 4.70255732536315917969e-01) (12, 4.97133819580078125000e+02) (13, 4.57426786422729492188e-01) (14, 4.98869836330413818359e-01) (15, 4.98499840497970581055e-01) (16, 6.76192462444305419922e-01) (17, 5.04920601844787597656e-01) (18, 1.50000000000000000000e+03) (19, 6.34558498859405517578e-01) (20, 5.24926364421844482422e-01) (21, 4.24957066774368286133e-01) (22, 1.20252731323242187500e+02) (23, 3.91533106565475463867e-01) (24, 5.02319872379302978516e-01) (25, 4.50883537530899047852e-01) (26, 5.04844069480895996094e-01) (27, 3.98744821548461914062e-01) (28, 4.53511148691177368164e-01) (29, 3.93810272216796875000e+01) (30, 5.49568235874176025391e-01) (31, 5.84203004837036132812e-01) (32, 5.04542708396911621094e-01) (33, 4.96254652738571166992e-01) (34, 1.50000000000000000000e+03) (35, 6.48460686206817626953e-01) (36, 4.66278076171875000000e-01) (37, 4.29052054882049560547e-01) (38, 5.34109413623809814453e-01) (39, 1.04075491428375244141e+00) (40, 5.03207981586456298828e-01) (41, 4.65965569019317626953e-01) (42, 4.39937770366668701172e-01) (43, 6.07082903385162353516e-01) (44, 4.88416135311126708984e-01) (45, 4.96803164482116699219e-01) (46, 6.74487352371215820312e-01) (47, 9.50711309909820556641e-01) (48, 3.66910696029663085938e+00) (49, 7.66467571258544921875e-01) (50, 5.88759839534759521484e-01) (51, 5.55177152156829833984e-01) (52, 5.48037707805633544922e-01) (53, 4.83862757682800292969e-01) (54, 5.37408232688903808594e-01) (55, 5.70092678070068359375e-01) (56, 4.15439426898956298828e-01) (57, 3.10858339071273803711e-01) (58, 4.99956786632537841797e-01) (59, 5.08313298225402832031e-01) (60, 5.23592531681060791016e-01) (61, 4.74622011184692382812e-01) (62, 4.84356820583343505859e-01) (63, 3.97589355707168579102e-01) (64, 3.95569801330566406250e+01) (65, 4.15599852800369262695e-01) (66, 4.04470741748809814453e-01) (67, 4.15790706872940063477e-01) (68, 4.61728811264038085938e-01) (69, 1.50000000000000000000e+03) (70, 4.24631714820861816406e-01) (71, 2.50389450073242187500e+02) (72, 5.84459245204925537109e-01) (73, 5.21738648414611816406e-01) (74, 4.61291253566741943359e-01) (75, 4.61571991443634033203e-01) (76, 4.45128321647644042969e-01) (77, 5.86134791374206542969e-01) (78, 5.77805995941162109375e-01) (79, 4.71921086311340332031e-01) (80, 4.94544237852096557617e-01) (81, 5.34009695053100585938e-01) (82, 1.17747139930725097656e+00) (83, 6.12713217735290527344e-01) (84, 5.67458271980285644531e-01) (85, 5.75651168823242187500e-01) (86, 4.80570793151855468750e-01) (87, 4.03530299663543701172e-01) (88, 1.27640588378906250000e+03) (89, 4.59494233131408691406e-01) (90, 6.43863320350646972656e-01) (91, 9.11164730787277221680e-02) (92, 3.29005807638168334961e-01) (93, 4.89033877849578857422e-01) (94, 4.78236645460128784180e-01) (95, 5.32472372055053710938e-01) (96, 5.27347803115844726562e-01) (97, 4.90218847990036010742e-01) (98, 5.27822494506835937500e-01) (99, 1.36299161911010742188e+01) (100, 4.32463139295578002930e-01) (101, 5.73693871498107910156e-01) (102, 4.97721195220947265625e-01) (103, 4.17753726243972778320e-01) (104, 1.50000000000000000000e+03) (105, 4.52950030565261840820e-01) (106, 2.01314754486083984375e+01) (107, 5.46434044837951660156e-01) (108, 4.58093643188476562500e-01) (109, 1.68249285221099853516e+00) (110, 6.11779272556304931641e-01) (111, 4.47905212640762329102e-01) (112, 4.15119290351867675781e-01) (113, 5.99227309226989746094e-01) (114, 4.80242818593978881836e-01) (115, 4.11533325910568237305e-01) (116, 5.25937855243682861328e-01) (117, 5.50405025482177734375e-01) (118, 4.94120687246322631836e-01) (119, 5.69419324398040771484e-01) (120, 4.83682811260223388672e-01) (121, 6.88326656818389892578e-01) (122, 3.69658023118972778320e-01) (123, 2.70803451538085937500e+00) (124, 8.21640625000000000000e+01) (125, 6.02069914340972900391e-01) (126, 6.36386291503906250000e+02) (127, -1.84324085712432861328e-02) (128, 4.80177521705627441406e-01) (129, 3.76387864351272583008e-01) (130, 5.55597543716430664062e-01) (131, 5.27216672897338867188e-01) (132, 3.58312070369720458984e-01) (133, 4.36848580837249755859e-01) (134, 1.37706003189086914062e+01) (135, 4.79780673980712890625e-01) (136, 4.74636673927307128906e-01) (137, 5.69039165973663330078e-01) (138, 6.13448381423950195312e-01) (139, 1.50000000000000000000e+03) (140, 5.35298466682434082031e-01) (141, 8.61918210983276367188e-01) (142, 5.53086161613464355469e-01) (143, 4.22794997692108154297e-01) (144, 5.97469091415405273438e-01) (145, 5.04467189311981201172e-01) (146, 5.07565855979919433594e-01) (147, 4.69984322786331176758e-01) (148, 4.81804221868515014648e-01) (149, 6.36276781558990478516e-01) (150, 3.58454208374023437500e+01) (151, 5.58516323566436767578e-01) (152, 5.01205444335937500000e-01) (153, 4.30278539657592773438e-01) (154, 5.22148966789245605469e-01) (155, 4.61365729570388793945e-01) (156, 4.17664974927902221680e-01) (157, 2.02621555328369140625e+00) (158, 6.67546391487121582031e-01) (159, 3.86356773376464843750e+01) (160, 6.74055278301239013672e-01) (161, 6.14055199548602104187e-03) (162, -5.51189243793487548828e-01) (163, 3.77716332674026489258e-01) (164, 5.19353508949279785156e-01) (165, 6.26150727272033691406e-01) (166, 4.72067296504974365234e-01) (167, 4.02225762605667114258e-01) (168, 5.78712463378906250000e-01) (169, 1.37111330032348632812e+01) (170, 5.28604388236999511719e-01) (171, 5.58763027191162109375e-01) (172, 4.23772841691970825195e-01) (173, 5.20074903964996337891e-01) (174, 1.50000000000000000000e+03) (175, 5.67178368568420410156e-01) (176, 5.68347811698913574219e-01) (177, 5.57338237762451171875e-01) (178, 4.45525676012039184570e-01) (179, 4.69060033559799194336e-01) (180, 1.45490820312500000000e+03) (181, 5.62394380569458007812e-01) (182, 4.14029091596603393555e-01) (183, 6.24459266662597656250e-01) (184, 4.53091353178024291992e-01) (185, 4.86635416746139526367e-01) (186, 5.01094996929168701172e-01) (187, 6.17498457431793212891e-01) (188, 6.97845995426177978516e-01) (189, 7.14559972286224365234e-01) (190, 6.94535911083221435547e-01) (191, 5.50168097019195556641e-01) (192, 4.86012130975723266602e-01) (193, -1.14279821777343750000e+03) (194, 5.05799233913421630859e-01) (195, 1.11033356189727783203e+00) (196, -7.87122368812561035156e-01) (197, -2.36145901679992675781e+00) (198, 5.08176803588867187500e-01) (199, 4.09465998411178588867e-01) (200, 5.19092381000518798828e-01) (201, 4.48565810918807983398e-01) (202, 4.34434950351715087891e-01) (203, 5.19373834133148193359e-01) (204, 1.54691314697265625000e+01) (205, 4.41419214010238647461e-01) (206, 5.12304067611694335938e-01) (207, 5.37861645221710205078e-01) (208, 5.81120014190673828125e-01) (209, 1.50000000000000000000e+03) (210, 4.66399461030960083008e-01) (211, 1.85767424106597900391e+00) (212, -4.00182992219924926758e-01) (213, 5.38369476795196533203e-01) (214, 5.03259479999542236328e-01) (215, 9.31664764881134033203e-01) (216, 5.79378426074981689453e-01) (217, 6.17930352687835693359e-01) (218, 5.77721834182739257812e-01) (219, 5.71182191371917724609e-01) (220, 6.41856908798217773438e-01) (221, 5.37631511688232421875e-01) (222, 6.64121398925781250000e+02) (223, 4.48048591613769531250e-01) (224, 4.15562272071838378906e-01) (225, 5.70506393909454345703e-01) (226, 5.10012567043304443359e-01) (227, 6.06011629104614257812e-01) (228, 6.39059185981750488281e-01) (229, 4.25820857286453247070e-01) (230, 6.02062821388244628906e-01) (231, 9.23753261566162109375e-01) (232, -1.09236574172973632812e+00) (233, 5.15680789947509765625e-01) (234, 4.62605088949203491211e-01) (235, 5.17400860786437988281e-01) (236, 5.62850117683410644531e-01) (237, 4.39802139997482299805e-01) (238, 4.16043430566787719727e-01) (239, 1.54421615600585937500e+01) (240, 5.87827742099761962891e-01) (241, 4.51480180025100708008e-01) (242, 4.07376706600189208984e-01) (243, 5.98456084728240966797e-01) (244, 1.50000000000000000000e+03) (245, 1.77188885211944580078e+00) (246, -1.49420751953125000000e+03) (247, 1.50000000000000000000e+03) (248, 1.20934438705444335938e+00) (249, -8.26235534667968750000e+02) (250, 2.04725208282470703125e+01) (251, 1.51530170440673828125e+00) (252, 3.86482059955596923828e-01) (253, 4.90985687255859375000e+02) (254, 5.30193865299224853516e-01) (255, 3.67968249320983886719e+00) (256, 5.65437495708465576172e-01) (257, 2.23770965576171875000e+02) (258, 3.27591681480407714844e+00) (259, 2.53830871582031250000e+01) (260, 5.68540394306182861328e-01) (261, 4.36064004898071289062e+00) (262, -1.22583591938018798828e+00) (263, 1.63011596679687500000e+02) (264, 5.01969039440155029297e-01) (265, 4.18917775154113769531e-01) (266, 4.45542383193969726562e+00) (267, 3.82873748779296875000e+02) (268, 4.54520165920257568359e-01) (269, 4.81582015752792358398e-01) (270, 6.34582638740539550781e-01) (271, 4.48063522577285766602e-01) (272, 5.97981572151184082031e-01) (273, 4.02727514505386352539e-01) (274, 1.53447303771972656250e+01) (275, 4.96187955141067504883e-01) (276, 4.94354277849197387695e-01) (277, 4.77479815483093261719e-01) (278, 6.03317558765411376953e-01) (279, 1.50000000000000000000e+03) (280, 5.53168058395385742188e-01) (281, 7.27492248535156250000e+02) (282, 1.53432416915893554688e+01) (283, 1.15740883350372314453e+00) (284, 6.61566696166992187500e+01) (285, 8.34839761257171630859e-01) (286, 4.96177822351455688477e-01) (287, 1.37285590171813964844e-02) (288, -2.84651041030883789062e-01) (289, 4.93183106184005737305e-01) (290, 4.05814790725708007812e+00) (291, 6.76181335449218750000e+01) (292, 1.50000000000000000000e+03) (293, 6.69151425361633300781e-01) (294, 4.73282307386398315430e-01) (295, 3.10076546669006347656e+00) (296, 6.01290702819824218750e-01) (297, 4.83849763870239257812e-01) (298, 1.09862976074218750000e+01) (299, 5.95360755920410156250e-01) (300, 6.48388803005218505859e-01) (301, -3.93052148818969726562e+00) (302, -7.28116088867187500000e+02) (303, 5.25610744953155517578e-01) (304, 4.74980741739273071289e-01) (305, 5.90917468070983886719e-01) (306, 4.18339192867279052734e-01) (307, 4.45541560649871826172e-01) (308, 4.33168977499008178711e-01) (309, 4.64831590652465820312e+00) (310, 5.11948406696319580078e-01) (311, 5.29660642147064208984e-01) (312, 6.13510429859161376953e-01) (313, 5.40424704551696777344e-01) (314, 1.50000000000000000000e+03) (315, 5.21441757678985595703e-01) (316, 2.60195165872573852539e-01) (317, 2.25435028076171875000e+01) (318, 1.50000000000000000000e+03) (319, 4.09190714359283447266e-01) (320, 2.32083404541015625000e+02) (321, 1.47292375564575195312e+00) (322, 6.85571746826171875000e+01) (323, 5.60200810432434082031e-01) (324, 3.80770951509475708008e-01) (325, 4.78225946426391601562e+00) (326, 3.03870749473571777344e+00) (327, 8.10254760742187500000e+02) (328, 8.48435997962951660156e-01) (329, 1.24344313144683837891e+00) (330, 5.13114333152770996094e-01) (331, 